-1.1626 -0.63114 -0.35062 0.98782 -0.53862 -0.61908 -0.87474 -0.14222 -1.90286 -0.8372 -0.08184 -1.5669 -0.86104 -0.37616 0.9488 -0.6466 -1.12922 1.3923 -0.54022 1.5098 0.81196 0.5115 -0.10212 -0.40234 0.20322 0.0432 -0.8795 -1.83618 -0.95822 1.56416 1.75056 0.96638 -1.74668 1.90954 1.68982 1.6933 -1.33264 1.7955 -0.45912 1.91368 1.17986 -0.23682 -1.74538 1.06114 0.18712 0.34228 -1.58968 -0.84248 1.32998 0.32592 0.92028 1.10338 -1.20408 0.7096 -0.66848 0.32588 1.47098 -1.94828 -1.2154 1.41818 -1.7396 -1.03858 -1.18402 -1.46704 -0.58778 0.95178 -1.82022 -0.77058 -0.06598 1.2555 -1.31398 -0.92474 -0.1486 -0.45392 -1.67006 -0.95122 0.25686 0.83672 1.41054 1.86092 -0.36714 1.96296 -1.16616 0.71586 -1.35612 -1.35282 0.17046 -0.45628 0.578 -0.63608 -1.7777 -1.38436 1.0109 0.1227 1.65326 0.21844 -1.05282 1.72166 -0.3511 1.23534 0.1625 1.1809 1.2235 -1.92552 -0.36012 -0.155 -0.74804 1.24984 0.37964 -1.71728 -1.93098 -1.36576 -1.35884 -1.07634 -0.2147 -1.70256 -1.87244 0.10012 1.88908 -1.23498 -1.21868 0.63604 0.6514 -1.42992 1.03318 -1.92964 0.06436 1.7287 -0.1072 0.1115 -1.8984 0.5352 -0.81218 -1.8248 -0.30158 0.45196 -1.26054 -1.24064 -0.92404 0.79888 1.39522 0.9206 1.16408 0.29528 -0.70512 1.58806 1.97448 0.08724 -1.66262 1.35582 0.09086 0.84704 1.83256 -1.11614 0.45402 1.52646 -1.47052 0.6534 -0.95872 -0.43048 1.78062 -0.47674 -0.64298 -1.73186 -1.8189 -0.46618 1.44642 -1.53404 1.22524 1.33332 1.55798 1.3682 -0.97584 -0.90982 -0.6302 -0.1393 1.47196 -1.64388 1.2752 1.4451 -1.90412 1.97712 1.3913 0.53696 -1.97938 -0.74544 0.70262 -1.69606 -0.27882 0.17196 -0.07754 0.08604 1.71806 1.50642 1.01824 -0.12804 -0.43642 0.89592 0.11416 1.76106 -1.85836 1.5085 0.86198 -0.99594 1.79784 0.72266 -0.17712 0.74236 1.51406 -1.40668 -1.94552 -1.82664 1.3782 -0.40382 -0.52636 1.8035 0.13194 0.82004 -1.7525 0.92654 0.83118 1.14248 0.74478 -0.94672 -0.58914 -0.52808 1.65012 -0.48228 0.07194 1.49782 -1.7029 -1.42398 0.24194 1.51412 1.30344 -1.41264 -0.88488 0.38724 0.73912 -0.70204 1.43166 1.96024 -1.21014 -0.87214 0.11746 -0.25092 0.70782 0.12188 0.03278 1.21472 1.74 0.74352 0.64842 1.1876 -1.07012 -1.00084 -1.23628 -0.1913 1.59318 0.3259 1.07252 -1.69486 -1.32958 -1.98376 -1.7038 1.47846 -0.0686 1.86408 0.29272 -1.11372 0.68838 1.7447 -1.91908 0.94952 1.49486 0.87092 0.3526 -0.3831 0.9358 1.66176 0.7641 -0.47178 1.48494 0.85722 1.7578 -0.44644 -0.07242 1.05434 0.58424 0.30428 1.82362 1.3064 0.79404 -1.5868 0.22542 1.12652 1.28982 -1.22638 -1.16836 0.639 1.81766 0.84374 1.82916 -0.8535 -1.47366 1.9953 0.6626 1.6989 1.69272 0.05894 0.64654 1.14682 0.8729 1.9314 1.5618 -0.45572 -1.1798 -0.1868 -1.74158 0.74262 -0.44914 0.87706 -0.72016 1.98842 -0.93736 1.38198 -1.04936 1.66772 -1.27592 -1.63166 1.5811 -0.42102 -1.21474 -1.7032 1.84408 1.92036 -0.30094 0.33842 0.33086 1.7625 0.89096 0.22868 1.3616 -1.47472 1.65772 -1.3232 -1.56652 0.86262 -1.14862 -1.31886 0.3063 -0.52338 -1.48482 0.08902 -0.91188 -1.0594 -0.4361 1.84072 -1.91616 -0.85566 1.04466 0.99486 0.9748 1.32438 0.47784 -0.93244 0.36154 0.57608 -1.9127 1.64144 1.84522 0.48176 1.48232 -1.50408 1.85164 1.32216 1.51546 -1.24546 -1.6693 -1.61416 0.94848 0.088 0.81632 -1.95706 0.06204 0.10446 -0.93622 0.69624 1.20866 0.90348 0.35644 -0.14166 0.25458 -0.8135 -1.28218 1.8961 1.25388 -1.96278 0.04744 0.59016 0.31524 -0.1426 0.7753 -0.79008 -1.1641 1.82452 -0.0057 -1.98074 0.23736 -0.23404 -0.57488 -1.19064 1.51002 1.698 0.19586 -1.04336 -1.82146 0.93184 -0.73768 -1.62664 -1.99624 1.6653 1.36742 -0.81618 -0.71502 -0.01314 -1.77282 0.2958 1.77808 1.95554 -1.93172 1.47824 0.70708 -0.25946 0.07058 -0.90892 1.31268 -0.39362 1.20702 0.23752 -1.88984 -0.95548 -1.54114 -0.5573 -0.52164 -0.45292 0.34832 0.55658 0.99064 1.76118 1.71756 -1.67798 0.77488 -0.32592 0.58638 0.64992 0.48996 -0.40852 1.92494 0.84904 1.59732 1.6985 -1.75884 0.2818 -0.30232 -0.05314 0.10226 -0.23052 -0.3726 -0.89522 -0.35606 0.57214 1.7248 1.0248 -1.7368 0.95922 1.20644 -0.07528 1.70546 1.73788 1.63854 -0.3294 1.30514 -1.9831 -1.76202 1.74624 -1.29664 -0.967 1.15414 1.42064 0.6011 -0.27882 -0.31856 -1.64202 0.64018 -1.58834 -1.19664 0.17704 1.745 1.53148 1.44482 -1.42116 -1.07084 -0.11416 0.11722 -0.8546 -1.4028 1.75008 -0.58912 1.62716 1.44348 -1.43476 -0.11398 -1.81296 1.21048 -0.07328 -1.60666 -1.77574 0.0438 -0.04858 -0.7565 -0.93074 0.61532 0.20674 0.50368 1.92276 -1.10932 1.36682 -1.6154 1.85152 0.15586 -0.97062 0.1797 -1.82604 -1.70694 1.0597 -1.25858 -0.5807 -0.10034 1.09256 1.14902 -1.04672 1.62212 1.52696 1.97716 0.03584 1.83516 -0.5056 -0.8525 -1.28656 -1.98168 -1.42092 -1.86678 -0.20642 0.28796 0.37554 -0.0365 0.7224 1.38216 0.19446 -1.74528 -0.76962 1.36546 -0.44066 -0.5287 0.4141 0.38554 -0.28796 1.89396 -1.84924 -0.81472 0.97404 0.3246 0.95124 0.80238 -1.70978 -0.55286 1.08836 0.22958 -1.53218 -1.91242 1.39628 0.2193 1.67116 1.8332 -0.42324 -1.10386 -1.61388 -0.114 -0.08248 -0.9038 0.019 0.03712 1.70518 0.83784 -0.08136 -0.4122 0.06276 0.05566 -0.43694 1.6503 0.1231 -0.39956 -1.00328 1.52814 -0.95572 0.25448 -0.81802 0.99118 -0.00228 -1.07162 0.87514 -1.50718 0.91434 0.10686 -1.14156 1.01106 1.6943 -0.27388 1.89452 -0.48206 -0.00058 1.82604 -0.02358 1.05456 1.16628 -1.0631 0.6194 -1.88662 -1.11626 0.7024 1.38436 -0.96732 -1.3335 -1.1825 -0.03552 -0.20416 -0.77744 -1.857 0.78892 1.32226 1.71414 -0.60508 1.88826 -1.01088 0.22106 -0.47384 1.12278 -0.40168 -0.0206 0.90756 -0.1065 -1.66336 0.16112 -1.9549 -0.34912 0.29704 1.624 -0.05784 -1.63814 -1.89264 1.63508 -0.9314 0.10742 1.29532 -0.45598 -0.15756 1.82632 0.09684 -1.85762 1.0626 -0.2115 1.55128 0.9372 -1.42776 -0.1962 -1.39552 1.93778 -1.0127 -1.1665 -0.3599 -0.18588 -0.97894 0.13398 -0.02382 -1.19112 1.04772 0.87154 -1.37862 1.1666 1.66742 0.17182 1.28038 1.78112 0.68154 1.68718 0.64554 1.2875 -1.40706 1.4451 -1.6214 -0.30016 -0.97406 -0.54406 0.9168 -0.88096 0.34222 -0.60056 -0.41114 0.2413 -0.9536 0.35926 0.6367 -0.89134 0.72174 0.29324 0.614 0.93462 -1.86876 0.48642 0.4963 0.9709 1.20492 0.93022 -1.52506 -1.10924 0.5081 1.77014 -1.74436 -1.11494 1.15826 -0.68302 1.34482 -0.45782 -1.54512 1.94026 -1.21182 1.56512 1.21716 -1.14288 0.46666 -0.35172 -0.71734 0.38008 0.1202 -0.69184 1.53512 0.17172 -0.94064 -1.6117 -0.92684 1.7109 1.15624 0.1065 -1.0512 -0.5923 0.49492 0.0957 -1.019 0.02602 0.61094 0.57206 -0.85622 -1.2962 1.08302 1.72942 1.01442 -0.9055 -1.34622 0.78148 -0.49494 1.04886 1.71744 1.2741 -1.98026 -1.152 -0.31178 -1.17518 -1.18998 1.16676 -0.64436 -1.66362 0.71078 1.86734 1.81188 1.44734 0.16072 -0.76168 -1.40662 1.04718 -0.55466 0.69246 0.58412 -0.80886 0.24618 1.8946 -1.49552 -1.42114 1.29704 0.39076 0.29372 0.4406 -0.48208 0.27788 0.88324 0.0243 1.99346 1.88214 0.08674 -1.89922 1.71946 -0.32992 -0.71432 -0.18578 -1.32962 0.27454 1.86128 -0.72356 -1.10808 1.63568 -0.4313 -0.2239 -1.4989 -0.39342 -0.66386 0.81258 -1.53526 0.52628 -0.97208 -1.87486 -1.65648 -0.89064 -0.47224 0.41924 -1.12698 0.91502 0.81844 -1.5671 -1.01592 -0.21242 1.45386 0.27858 1.15156 -1.5074 1.3277 1.77524 -0.59322 -1.23012 -1.47926 1.97162 -1.9667 1.22802 1.68694 1.66136 -1.17794 -1.48238 -0.0605 1.91134 -1.05828 -1.92936 -0.44044 -0.53284 0.8542 -0.03842 1.75724 0.6101 -1.8577 0.86642 -1.0588 -0.24464 1.4561 1.42838 -1.70766 1.10432 -1.8182 1.29012 0.62454 -1.9915 0.27886 -0.4391 -0.5942 1.69484 0.00554 -0.9437 -1.90816 -0.8845 -0.57758 -0.1336 -0.40282 -1.6446 -1.02448 0.9071 1.49116 -1.08656 -1.77198 -0.0133 1.42436 -0.81004 -1.26466 -1.2824 1.63292 0.54034 1.82868 0.76538 -1.48448 -1.39508 0.93566 -1.4174 1.47956 -0.46806 -0.10692 -0.06902 -0.36754 1.3808 0.66484 -0.1353 1.46162 -0.2021 -0.13026 0.64174 -0.81234 0.2759 -0.73076 -1.41422 -1.22016 -1.451 1.9372 1.3789 0.8763 0.1951 1.86574 -0.56542 1.27314 -0.43876 -0.07204 0.86544 1.86614 1.24014 -1.45922 1.4869 0.17982 -1.16018 0.38682 -1.93476 0.46232 1.04452 -0.72538 -1.88966 0.2486 0.3633 0.52506 -0.37354 1.3202 0.0936 1.52992 -0.643 -0.7289 1.24288 -0.01446 1.9665 -1.33228 1.55676 -0.29372 -0.71556 -0.33382 -1.54152 0.65782 -1.9288 -0.54716 1.79938 -0.00146 -1.77852 -0.74288 0.38284 -1.53808 -1.65216 1.88906 -0.79602 0.12346 -0.2647 1.27438 1.82684 -0.86972 -1.487 1.67002 0.23928 0.11436 -0.82046 0.03132 -1.42906 -0.40566 -1.37676 -0.7454 -1.42574 0.81918 0.62306 1.13352 -0.89762 0.39906 0.00382 -1.6133 -0.7966 0.6575 0.44922 -1.63526 0.30358 -1.63068 -1.06266 -0.36832 1.18206 -0.53206 -1.9329 -0.88058 -1.74978 -1.30788 -1.15914 0.42646 -0.80674 -0.38558 1.42688 0.34412 -0.52174 0.03988 -1.11812 0.20502 -0.6247 0.96686 -1.31716 1.56366 -0.16116 -0.7857 0.78668 0.80492 -1.88036 -0.6514 0.07096 -0.83068 0.68106 -1.85176 -0.63356 -0.13004 -0.823 1.54786 0.84924 1.103 -0.47278 1.50382 -0.99562 1.88212 -0.0217 -1.80342 -0.05974 1.48794 0.97216 1.6597 0.90842 1.1635 -0.22438 -1.75582 0.98944 1.3367 1.68648 -0.62632 1.79282 -0.03224 0.68124 -0.73784 -1.00024 0.9016 0.62116 1.67154 1.74538 -0.95498 -1.75204 -0.44308 -0.8329 -0.06962 1.19064 -0.22114 -1.3222 -0.12854 -0.03752 -1.19928 -0.41466 -0.35774 1.27404 1.29872 1.83276 -1.54006 0.44016 0.90746 1.39368 0.43688 -0.8412 0.02972 0.18348 1.80332 1.75504 -1.11852 -1.57824 -1.73496 0.50404 0.10276 -0.73904 0.30676 -1.5488 -1.10478 1.23998 -0.58476 0.49258 -1.02198 1.97286 1.99676 1.56638 -0.88202 -0.62578 0.88574 1.78832 0.15054 0.6937 1.3825 -0.5706 -1.46018 -1.53858 1.71368 -1.72216 -0.69152 1.88622 0.21822 1.37344 -0.63624 0.17534 0.30916 -0.64292 -1.58726 1.3674 1.85972 1.53974 1.27858 -0.80896 0.3788 -1.94126 0.4175 -0.03266 -0.53786 0.93458 1.39692 0.8705 -1.9592 -1.3445 1.29772 -1.985 -0.39552 0.18776 -0.96076 0.83564 -0.03578 -0.35868 -0.45274 0.0289 1.1427 -0.991 -0.97826 0.0418 -0.87118 0.80268 -0.3363 0.63966 1.15362 -0.24944 -0.48552 1.346 -1.49028 -1.0405 -1.68512 1.32376 1.0119 0.57248 0.99928 -1.22092 -1.1191 0.43798 1.8454 -0.43728 -1.9243 -0.65124 -1.42916 -1.87862 -1.68216 -0.42292 -0.59682 0.2184 -0.00754 -0.75032 0.04834 -0.6302 1.037 -1.6243 -1.16148 0.65944 -0.72912 -1.24274 1.71686 0.29024 1.141 1.95172 1.50526 -1.35502 -0.12712 -0.28452 1.82374 1.39174 0.64202 -1.23184 -0.852 -1.29528 -0.8364 1.459 -0.03392 1.78004 0.23184 -0.4577 0.32182 -0.42348 -1.65262 1.29608 -0.64648 1.26004 0.91116 0.94508 -1.71326 0.63618 -0.26606 -1.66018 1.5082 -1.87636 0.7211 -0.44484 0.4217 -1.87602 -0.1565 1.92584 0.2485 0.60234 -0.24666 0.01144 1.57636 -0.7757 -1.89832 -0.6564 -1.7938 1.57798 0.4096 -0.94154 -1.5724 1.72856 0.43544 0.14032 -0.05716 1.84492 0.5982 -1.75478 -0.26618 0.9278 -0.57128 -0.81246 -0.34222 0.30218 -0.74004 -0.97566 -0.0164 1.60844 -0.9627 -0.15792 -0.06346 0.30598 1.2938 1.71946 1.82318 0.33594 1.7197 -1.87078 1.15836 -0.43246 0.73888 -1.29124 -1.77344 -1.32452 1.91222 1.77962 -0.31182 -1.41922 1.6123 0.57676 -0.47422 -0.40174 0.19202 1.3207 -0.8264 -1.4342 -1.64636 -0.72584 1.96432 1.07732 1.36 -1.40226 0.54066 -1.43248 1.1219 0.12162 -1.56526 0.71596 0.31714 1.6069 -1.87478 0.46896 -0.91316 -1.83372 -1.8111 -1.28004 -1.03904 -1.01772 0.38996 -0.51966 1.33614 -0.59718 1.99614 0.46052 -1.68372 -1.66174 -1.88606 1.9731 0.54584 1.25736 -0.01772 0.44552 -1.83512 -1.91896 0.20752 0.14112 0.16808 1.65904 -0.44644 -0.20942 1.34486 0.9722 0.26362 -1.99462 0.45154 1.0568 -1.48858 0.02572 1.13178 -1.54636 1.60484 1.37136 0.8842 0.48398 1.74116 -0.04282 -1.3984 -1.91986 -1.74878 0.78364 0.00766 -1.53836 -1.82988 1.05976 -0.37538 -0.32032 0.30408 -0.9942 -0.04126 0.04778 0.55186 -0.6981 1.42872 -1.40062 0.13546 -1.63606 1.13918 1.99074 -1.99104 -0.74052 1.82684 0.0882 -1.15868 0.09218 1.65252 0.61092 1.56132 -0.3191 -1.66014 -1.74966 -0.4605 0.08794 1.40782 0.76992 1.78292 0.88322 0.80208 1.20384 0.38076 -1.22814 -1.24728 1.5056 -1.93302 -0.91602 -0.09822 0.30292 1.94262 0.28482 -1.6515 1.37722 0.81798 -1.38914 -1.92884 0.99174 0.95678 1.91944 1.6203 0.07792 1.40724 1.01368 0.11836 -1.37684 -1.33406 -0.2916 -1.49174 -1.5361 -0.10592 -1.3412 -1.18356 1.25224 -0.43816 1.93534 -0.39004 1.2371 -1.49326 -1.67876 0.02122 1.75734 -1.8096 -0.65042 0.66828 -0.7235 -0.66762 -1.03736 -0.56764 -1.07136 0.01676 -1.58392 1.81312 1.86346 1.2629 -1.27586 1.7966 1.36706 0.6535 -1.87046 0.83964 0.35858 -1.4243 -0.56214 -1.59118 1.28382 -0.53164 -0.90374 -0.18464 0.88264 1.00088 -1.16594 0.48498 0.63554 -0.1018 1.86296 -0.11248 0.05764 -1.6546 -1.15816 1.29076 1.70328 -1.72398 1.57962 0.44714 -0.522 -1.15434 -1.04702 1.98932 -1.16232 -1.86128 0.24288 -1.41642 -1.6228 -0.51842 1.66264 1.18162 0.75252 -1.05926 1.38446 1.80812 -1.76388 1.14726 0.54972 -0.07224 -0.8173 -0.06892 -0.82242 -0.03474 1.39994 0.83662 -0.26106 1.02166 -0.18836 -1.16124 1.13636 0.08254 -1.00394 0.99072 0.93082 0.43814 -1.48462 -0.89306 -1.02234 0.7439 -1.24202 -1.74954 0.10778 -0.84606 0.23556 -1.31868 1.13498 -0.88312 -1.03906 -0.96628 1.05464 -1.444 -0.2737 -0.34814 -0.73556 1.5469 1.66808 0.9877 -1.41064 0.00106 0.39978 1.22122 0.77194 1.53842 0.34522 -0.4199 0.18554 1.7618 0.00992 -1.0537 1.29274 1.12918 0.1696 1.80582 -0.83024 -1.06778 1.8233 -1.97638 1.72968 0.7186 1.70162 -1.37796 0.06072 -1.22208 -0.21588 0.58034 -1.64376 1.3442 -0.27374 1.3839 0.77006 -0.47234 -1.48244 0.97658 -1.6559 -0.46324 -0.5215 0.56936 0.80872 -1.34454 0.49576 1.37318 1.10696 -1.98538 -0.25904 1.92546 0.3864 -0.07954 -1.51792 -1.6678 1.7236 1.64444 1.25802 -0.12926 0.29944 -0.22228 -0.83952 -0.00598 -0.24572 1.76488 -0.77616 0.84134 0.03552 0.626 0.17622 -0.23492 0.6116 1.193 1.4617 1.633 1.4537 -0.74606 -0.7851 1.07422 -1.77716 -1.67158 -0.48492 0.04608 1.03694 -0.14136 -1.80608 0.43576 0.86212 -0.60594 1.6603 1.12562 0.26964 0.6468 -1.32288 0.56638 -1.62374 1.48448 -1.18494 1.04384 1.4316 1.65442 -0.66236 -1.51906 -0.1616 1.97588 -0.68616 1.1934 0.45876 -1.15094 -1.12152 0.46964 0.42952 -1.81622 -0.3521 -0.029 -1.73738 1.11438 0.95706 1.89562 1.57094 0.78808 1.9792 -1.35854 0.96568 1.0506 1.49544 1.96478 0.51586 -1.10468 1.25672 1.96922 -1.56114 0.17106 1.64262 -1.4316 0.99078 -0.96586 -1.79232 1.06106 -1.45522 -0.99948 1.977 0.01304 -1.48444 -0.80934 -1.30392 0.08586 -1.00112 0.70612 0.30374 -0.73812 -1.4726 -1.08058 1.47288 -1.3565 1.6752 -1.30382 -0.48476 0.7878 -1.51956 -0.65094 -1.32248 -0.43656 -0.40766 -1.09074 0.03076 -1.74154 -1.45886 -0.9205 0.98022 1.22848 0.9067 1.896 1.35084 0.57042 0.81108 -0.03384 -1.87412 -0.22498 0.3545 -0.59044 0.9659 1.80974 0.59156 -0.00516 1.4418 1.51944 0.69818 0.99912 -1.10682 0.2946 1.51888 -0.58012 0.58062 1.19572 -1.67702 0.41354 -1.57932 1.6063 1.15988 -1.56238 -0.4553 1.91938 1.72588 1.07524 0.35518 -1.3686 -0.43142 -1.09754 -0.16758 -0.29098 -1.42972 1.74022 -1.56672 1.07086 0.38314 -1.13222 0.97186 1.5975 -0.53256 0.51132 -0.43974 -0.45798 -1.8137 -1.31438 1.7096 -0.5132 -0.68464 -1.8449 0.24742 -1.60248 -0.45454 -1.48042 0.61512 -0.08314 1.86486 1.0465 -1.91616 1.5163 1.63964 0.81038 -0.04916 -0.20428 -0.83332 1.18414 -0.2757 1.77864 -1.01342 1.50976 -1.18744 1.4552 1.44168 -1.17682 0.13884 -1.35144 0.87734 -1.99732 1.73306 1.04026 1.36564 -1.13164 1.31604 -0.58652 0.65502 -0.56512 -1.83646 -1.9493 -0.87492 0.5164 1.20598 1.33664 -1.21608 1.45554 1.95784 0.65704 -1.43954 1.76454 -1.62468 -0.99784 0.96132 1.93094 -1.49978 -0.1944 1.34252 0.79222 -1.04418 -1.27772 0.38072 -0.03344 1.03952 1.86216 1.31342 -0.95642 -1.84934 0.77128 1.49434 -1.46264 1.14068 1.73178 1.02058 -0.3264 0.65356 0.47016 -1.69624 -0.52408 0.67126 1.98612 -1.13466 1.48178 -1.91192 1.11278 1.62734 0.7309 -1.92108 1.43468 -1.63188 -0.48958 0.07096 1.86278 -1.52096 1.44126 -0.33004 1.1585 1.47688 1.3438 -1.9768 1.74032 1.30488 -0.81344 1.1627 -1.9769 -1.37614 -1.35648 -0.01844 -0.71228 -0.72262 0.03006 -0.49816 -0.13342 -1.87906 -1.0303 1.85694 0.89892 -0.12152 1.92672 -1.76518 -1.41748 -1.03536 -1.28404 0.40314 -0.0161 0.4664 1.2779 1.25272 1.57932 -1.99638 1.49504 0.99326 -1.04006 -0.54728 0.93094 -1.31878 1.67878 -1.68092 -1.93504 0.48892 0.9838 -1.25066 0.7912 0.1573 0.33806 -1.99142 -1.79564 1.74184 1.50934 1.58432 0.77104 -0.71998 1.55016 1.10898 1.44068 0.77566 0.58892 0.7834 -0.82122 -0.4433 -0.65406 -0.6092 0.40224 -0.71592 -0.21768 1.03678 -1.45812 -1.58614 -0.81 -1.71154 -1.82186 0.57982 -0.1865 -0.56222 -0.749 1.83316 0.17344 0.55864 -1.93494 -0.02468 0.26202 1.53606 1.74338 1.99498 -0.76744 0.21502 1.44308 -0.14906 0.01204 -1.84472 0.0923 -1.10464 1.1403 0.50826 -0.85702 -0.407 0.3471 -0.4929 -1.62502 1.30126 1.4667 1.79048 0.55182 1.22086 1.40616 -1.8088 1.4665 0.11238 -0.14204 1.6075 -1.39778 -1.96974 0.71832 1.20344 1.29466 -0.19012 -0.3526 0.40724 -1.9485 1.56728 1.5937 0.69092 0.40182 -0.9653 0.19616 1.28278 1.43952 1.30524 -1.7052 1.65798 -0.51394 -1.33368 0.18366 -1.2362 0.50862 0.47154 -1.01578 -1.4775 -1.4112 -0.95864 0.74852 -0.6693 1.99296 0.40454 1.55304 0.06202 0.17702 1.93684 1.21358 1.33308 1.94558 1.93984 -0.5444 -1.1923 1.70756 -1.22424 -0.61134 -0.4829 -0.97532 -1.87664 -1.24832 -1.83876 -0.18242 0.19998 0.12142 1.9359 -0.1534 -0.04548 -1.30518 -1.17688 -1.17434 -0.8751 -0.18158 1.01014 -1.18126 0.263 0.69796 1.99728 -0.51834 -1.86586 -0.89424 1.50266 -1.90834 -1.0383 1.7124 -0.4538 1.21072 -0.62404 -0.94378 -0.26716 -0.91712 1.4671 1.4978 -1.53456 -1.71032 0.58728 1.5131 -0.20702 -1.7169 1.61714 -1.7846 -1.77752 1.242 0.39046 0.5074 0.82068 0.12142 0.44544 1.98894 -0.55544 0.0778 -0.60864 -1.96456 -1.10946 1.0176 -0.75098 -1.93042 -1.14414 0.48756 -1.42478 -1.27482 -1.52936 -1.1017 0.96196 1.74022 -0.64144 -0.37292 -0.64702 0.72046 0.23146 0.74988 -1.09504 1.71416 -0.1355 1.91872 -1.11674 -1.73936 -0.29882 0.45428 -1.1083 1.42478 -1.23474 -0.613 1.61166 1.65504 1.6915 1.43164 0.60726 -0.55218 1.04066 0.5177 0.65722 1.3054 1.70788 0.89196 1.74474 1.32418 -1.71998 0.65022 -0.85116 -0.8064 -1.23158 1.72498 -0.24252 0.69466 -0.82718 -0.3228 0.17094 -1.0282 0.13434 -1.01164 0.36838 0.40158 -0.40414 -0.84958 1.9599 1.08364 -0.71338 1.30692 -1.95128 -0.0731 1.01982 1.90516 1.6798 1.71374 -1.90736 -0.40046 -1.99372 0.97254 -1.82602 -0.44094 1.9806 1.05096 -0.69456 1.69808 0.65634 -0.95974 1.62952 -1.08302 0.48222 0.0143 -0.7393 -0.36456 1.31346 0.05228 -1.85068 -1.74436 -0.29046 0.55744 0.93204 -1.3389 0.03756 -1.0269 0.6015 1.22192 0.17378 -1.13674 -1.95482 0.04372 0.60202 1.57328 -0.3291 1.19838 -1.20218 -1.42474 -0.99224 1.3174 -0.90388 -0.10224 0.49408 0.91962 1.4541 -1.63036 -1.1753 0.03442 -1.3338 -0.61564 -1.40832 -0.3725 1.56442 1.83698 1.89 -0.55118 -1.95952 1.51286 1.5215 1.00748 -1.55054 0.0835 -0.4757 -0.20694 -1.00492 -0.41422 0.31496 0.90892 -1.65662 0.0623 -1.16238 0.73818 -0.95548 -1.1681 1.1595 1.81176 -1.93664 -1.98758 -0.79302 -0.3321 -1.8516 -1.43294 0.55572 -1.2106 -1.72842 0.41766 0.47928 0.76502 1.68326 -1.77794 1.1579 -0.71506 -0.94624 0.00026 0.86794 1.01262 -1.62654 -1.299 -0.07546 -0.1317 0.05468 -0.08424 -0.30898 0.6039 -1.45326 -0.14652 -1.41702 0.73252 -1.32254 -1.92176 -0.61454 -1.97194 0.30588 -0.14642 0.85908 1.88238 1.52778 -1.2651 -0.47852 0.5774 1.1065 1.54992 1.22564 -1.8787 0.90438 1.55266 -0.31558 1.04426 -0.03606 -1.85312 1.43828 1.36234 0.08786 1.33866 1.61322 0.23264 0.87604 1.95182 -1.75734 0.41808 -0.16532 1.74676 0.08754 1.60502 0.83658 1.12984 0.97906 1.20016 1.14116 0.98556 1.48484 1.63856 1.17952 1.34712 0.7618 0.50474 0.6901 -0.4303 1.6995 -1.00594 -1.83096 -0.4613 -1.23144 -1.46942 -1.36006 0.02312 -0.05982 0.9672 0.24036 -1.37356 -0.99366 1.57596 -1.50778 1.10338 -1.2573 1.35972 -0.53762 1.62062 -0.7153 1.77452 -1.4264 0.48426 1.90308 0.97838 -1.33796 1.79972 -1.8172 0.74072 -1.42314 -0.89154 1.54252 -0.69368 -1.7477 1.24858 0.24902 -1.70402 0.97818 -0.44304 0.96508 -1.18654 -0.81034 -1.98816 -1.0402 0.51472 -0.02078 1.90886 1.14632 -1.92388 0.60442 1.40208 -0.95764 1.06948 -1.71502 1.92496 -1.57956 -0.31522 -0.36438 -0.20982 1.86852 -1.1598 -0.1597 1.19944 0.39034 -0.86812 -0.9161 1.7 1.32364 -0.75638 -1.14566 -1.55328 -1.61848 1.9054 -1.34446 -1.52876 0.58486 -1.43826 -0.47554 -0.61166 -1.00086 -1.24684 -1.3466 -1.89332 -1.8637 -0.82524 -1.9339 -1.52696 -0.97866 -1.67266 0.82814 -1.43576 0.66034 -0.812 -0.31158 0.12486 0.97316 -0.0098 -0.3785 1.8279 -0.56918 0.2792 -1.41478 -0.09732 1.22176 0.1577 1.02054 -0.86306 0.41394 1.81374 -0.6599 1.8587 -1.83968 -1.75272 -1.20898 1.11534 -1.8132 -0.2664 1.06314 -0.78444 -0.93422 -1.38914 0.67866 0.9963 0.41548 -1.7099 -0.21364 1.19352 0.21698 0.53068 -0.50192 -1.40536 0.94022 -0.30346 1.9575 0.71994 -1.83206 0.7507 -1.1151 -0.0214 0.1542 0.92914 0.0591 -0.79242 0.98724 0.96944 -1.5961 0.41306 -1.60304 0.57306 -0.06196 -0.76046 0.92706 -1.59406 0.76212 -1.18004 1.60054 -0.4111 1.4872 0.93164 -1.62868 1.82702 0.91996 1.88326 0.31564 -1.25456 -1.08154 0.46376 -1.71024 0.07108 0.9474 -0.5639 -1.1513 -0.91548 1.06134 0.13662 0.55174 -0.52894 -1.99094 1.44604 1.8862 1.3733 0.79654 1.6439 -1.40738 -1.74146 -0.33244 0.53428 0.93442 1.13754 1.11938 0.57902 1.2635 -0.04674 -0.39272 0.32716 -1.99082 0.17584 0.89192 0.24178 0.05098 -0.05988 0.1233 0.32588 1.62566 -1.49806 -1.60916 -0.15748 -0.65542 -1.37452 0.2682 0.12946 -0.42016 -1.95886 1.04544 -1.00198 -0.96952 1.27604 1.29062 0.0571 1.07786 0.38416 1.52934 -0.8478 0.95168 -1.63164 0.17258 0.89542 1.47724 -1.26582 0.12742 -1.6241 0.57912 -0.23274 -0.60494 -0.05394 -0.75 -1.52936 -1.98176 -1.90934 1.8677 1.82504 -0.8103 0.30892 -1.13068 -1.01008 -1.00082 1.22234 0.9078 -1.39076 -0.70332 -1.26688 0.8852 -1.16518 1.16392 1.6668 0.41078 -1.02892 1.37418 1.2573 0.32934 -0.5046 0.36526 -1.3896 0.49806 -0.10772 1.55034 1.81256 0.64608 -0.90064 1.74802 -1.44018 1.2578 1.19994 0.1894 1.25282 -0.80554 -0.7796 -1.71714 -0.03824 1.36916 0.95024 1.98762 0.86798 1.43748 -0.60572 -0.5093 -0.2557 0.60334 -0.27176 1.53528 -1.7211 -0.90356 -1.23908 -0.23868 0.37228 -0.54024 -1.42072 1.81086 0.97704 -0.56044 -0.8134 -1.42376 -0.19156 -1.13878 -1.26316 -0.52468 1.68524 0.6454 1.9111 0.47234 -0.80964 -1.3118 -0.58758 1.88812 1.3791 -0.49222 1.49726 -0.8271 -0.89624 -1.59842 -0.19396 -0.79078 -1.08216 -0.43594 1.4691 1.46336 0.49686 -0.56138 1.8171 -0.20696 -1.38484 -0.59048 -0.69418 -1.47782 0.18256 0.37398 0.17916 0.00674 0.70064 1.91896 -0.19456 1.09888 0.69224 1.25588 0.34492 1.5907 1.68402 -1.1272 0.3822 -1.1355 -0.03752 1.40638 0.7071 0.57544 1.63352 1.97738 1.6584 -1.75564 -0.60788 -0.72654 0.97844 0.24662 0.8283 0.11804 -0.14282 1.78082 1.38236 -1.10978 -0.29444 -0.99488 1.3286 -0.5095 0.47224 -0.8152 0.59614 0.70714 0.51698 -0.33806 1.21914 1.87838 1.77934 -0.37596 1.0564 0.95258 1.83056 -0.79124 0.70242 0.73036 -1.11136 0.20516 0.71556 -0.06522 -1.38538 -0.57282 -1.0595 1.5588 -1.72942 -1.42582 -0.6013 0.56408 -1.79168 0.79378 1.16724 -0.62294 -0.4641 -1.52804 -1.06588 -0.4777 1.9793 -1.07362 -0.5396 -0.00354 -0.9748 -0.48626 -0.5059 -0.64562 1.1902 1.8757 0.28748 -1.3516 -0.9216 -1.348 -1.99844 1.50038 0.28956 -0.6062 -1.12412 -0.95494 -1.75572 1.03732 0.43656 -0.05722 -1.73678 -1.34494 1.67004 -1.01444 0.4568 -0.32066 -0.58332 1.35858 -1.72536 -0.81988 0.75104 1.96226 -1.25524 -1.2809 -1.09042 1.10088 1.93306 1.5861 -1.6314 -1.60514 0.2867 -1.24972 -0.51432 1.55632 0.7922 1.66686 1.0875 -1.85792 1.59608 1.88904 -0.722 -1.05802 0.4898 1.5176 -0.26678 -1.62986 -0.15632 -1.49146 0.89758 -0.48914 0.459 0.92888 -1.62624 1.89826 -0.09906 -1.96072 0.7556 -0.42954 -1.51578 -0.225 -0.888 -1.34184 0.66872 0.04168 1.65606 1.51292 1.16936 -1.88628 0.19334 0.78992 0.59182 -0.72542 1.7625 -1.61442 1.9021 -0.19096 -0.52754 -0.77286 0.98586 -1.46058 -0.7428 1.4245 -1.3115 0.85772 -0.06416 1.3578 -1.62348 -0.4126 -0.34462 0.7529 -1.08874 -0.48296 1.65786 -0.17894 0.77704 -1.38016 0.27326 -1.55188 1.86154 0.22028 -0.79924 -0.27004 0.3152 -1.89234 0.91902 -0.81558 1.16638 1.98818 1.99616 -1.90812 0.56682 -0.47156 0.58458 1.9448 -1.4822 -0.31252 1.96964 1.81098 -1.89418 -1.70176 1.1364 -0.41804 0.45832 1.44042 -0.12134 -0.92522 -0.38328 -0.05858 -0.39148 1.28226 1.53578 -0.97568 -0.6344 -1.23442 1.33864 1.52722 -0.8907 -1.41916 1.9387 -1.24858 -1.80858 -1.61166 -0.40876 -0.43652 -1.81394 1.3828 0.93244 1.71304 -0.69674 -0.91046 -1.34982 0.46228 -1.65772 1.56328 1.08388 1.6188 1.27162 0.87476 0.229 -0.15576 1.56768 -0.77506 0.37964 -1.2861 -1.4439 -0.4575 -1.83718 -0.181 -1.39386 -1.00944 -1.42182 1.3888 1.87226 1.35438 -1.89318 0.74804 1.99072 -1.10518 1.25436 0.49584 0.14232 -0.09632 -1.36184 -1.48102 0.63208 -0.92652 -1.31798 -0.19768 -0.3183 1.71984 -1.7444 0.23454 0.35184 0.09444 -0.81626 0.96648 0.0087 -1.12266 -0.99262 0.64356 1.21996 -0.88656 1.1069 -1.68732 -1.48864 -0.73864 0.59 -1.0121 1.45646 -1.66418 1.62808 0.37678 1.6204 1.73314 1.7019 -0.336 -1.41322 -0.13934 0.0818 1.4826 -1.13954 0.3605 -1.86272 -1.1137 -1.26504 0.34364 -0.96304 -0.22218 0.17064 -0.85968 -1.26066 1.11338 1.88742 -1.38922 1.27588 -0.97114 0.79676 -1.67454 -1.9924 -0.6293 0.48348 1.69412 0.34586 -0.65414 -1.90824 -0.1212 0.61414 0.6187 0.39254 1.51974 0.37968 -1.85196 0.79552 -0.47522 -0.2169 -1.14054 -1.02386 0.22058 1.57772 0.16772 -1.7756 -1.18782 0.81724 0.31612 1.59646 -1.48532 0.48936 1.0096 -1.54276 0.67304 0.86722 -1.7387 -0.14696 -1.2889 -1.00088 -0.83368 -1.98538 0.7914 -1.20546 0.85614 1.72948 0.41824 1.38528 0.6509 0.76064 -1.4087 -1.68216 0.36264 0.82766 0.4164 -1.9473 -1.42382 -1.25228 -0.16012 -0.85372 -0.32872 -1.12314 -1.97026 -0.2506 1.57706 1.38944 1.60452 0.16144 1.71948 -1.3475 0.11838 0.29498 0.0844 -1.47434 -1.38322 -1.15518 0.18472 -0.57396 -1.27844 0.43822 -0.19384 -0.5731 -1.83366 1.55548 1.00516 -1.80318 -1.8733 -1.81806 0.04084 0.62032 0.29104 1.51358 -1.98684 1.56482 1.32782 -1.71056 1.98488 -0.958 -0.78254 1.4667 -1.87504 -1.7432 1.66578 -0.00162 -1.35776 0.2963 0.23344 -0.16304 0.21088 -0.42844 -0.13204 1.15012 -1.97384 1.40164 1.34012 -1.75562 -1.2895 -1.52574 0.74422 1.38022 1.26272 1.42256 -1.8794 -0.90084 0.36146 0.6048 0.28182 0.51958 -0.80216 -1.67268 -1.14006 -0.85728 -1.79142 -0.74516 0.31324 -0.45066 -0.23888 0.16796 0.91322 -1.29114 -0.03662 0.28972 -0.02896 -1.53074 -1.24766 1.1409 1.48742 -1.3885 -1.77532 1.08342 1.57894 1.51062 0.29776 -0.16276 -1.79602 -1.2976 -1.86382 0.5666 1.6369 0.03744 -1.98554 1.71386 -1.36088 -0.11644 -1.28838 -1.27476 0.94154 0.7713 -0.9116 -0.20924 0.48326 0.54252 -0.43896 0.03536 -0.58318 -1.02702 -0.5485 1.65134 -1.6532 1.22054 1.11738 -0.32968 0.29488 0.1144 -1.25164 -0.65068 0.84494 0.37132 -0.94914 -0.38916 -0.58686 1.1945 0.53106 -1.12424 -1.30562 0.24952 -0.3494 -1.91252 1.75762 -1.97292 -1.80064 -1.2839 1.5231 0.4339 -1.39984 -0.9636 -0.05042 -1.73762 -1.5796 1.231 1.25088 -1.51516 0.21978 -1.58366 0.92006 0.34414 -0.58104 0.52472 -0.86482 1.3623 -0.11972 -1.4298 -0.27958 1.47756 -1.6224 1.28876 -1.98854 -1.31474 -0.65902 1.1673 1.32238 -0.63598 1.8937 -1.68028 1.02118 0.40126 0.14722 1.86098 -0.48576 1.71196 1.39974 0.58254 -0.0491 -0.18016 0.35994 -1.0717 -1.0253 0.1147 -0.0443 0.35024 -1.16944 1.12586 0.95228 -1.60468 0.14678 1.62914 0.99566 -1.95446 0.0563 -0.6886 -0.97508 -0.7357 0.9214 -0.7469 1.90862 -0.11314 -1.40888 -0.09994 -0.60484 -1.4812 -1.80308 -0.44202 -0.98952 -0.57678 1.96254 1.29774 0.6193 1.90058 -0.8824 1.4493 0.31404 -0.10324 0.72956 0.99074 0.33674 -1.8035 0.41172 1.49838 0.17292 1.39202 1.40558 0.10166 -0.19532 -1.79718 0.68702 0.13542 1.66114 -1.3022 -0.08878 -1.52692 -1.66284 1.07462 -1.28046 -0.56312 0.15332 1.27258 0.11538 -0.47094 -1.56724 0.84904 -0.99016 1.09508 0.92792 0.60698 0.99734 1.12816 0.53474 1.93066 0.91636 1.7121 1.47514 -0.90726 1.72714 0.00314 -0.8868 0.09524 1.7533 -1.19236 0.73618 -0.17288 1.63658 -0.07852 -0.01066 -1.35548 1.11212 1.23942 -0.82278 -0.70734 -1.16258 1.06414 0.0811 -1.11736 1.0656 1.32386 0.38216 -1.68952 1.17374 1.19768 -0.79452 1.55884 1.60068 1.73048 -0.21858 0.1991 -1.00208 1.2444 1.34746 0.71638 -1.67634 -1.94194 1.51928 -0.69226 0.79286 0.60564 1.21246 1.08834 -0.89426 0.2834 1.49484 1.7579 -0.04906 -0.75794 1.09324 1.8522 -0.369 0.59248 0.02714 -1.59672 1.62096 -1.19728 0.9215 -1.4444 1.60214 1.17732 0.22642 1.9061 -1.85996 1.79022 1.64658 1.86772 1.89194 0.46082 -1.03102 -1.22066 1.54486 -1.22664 0.08976 -1.54006 -1.8886 1.2938 1.20472 -1.10968 1.70282 -0.55244 -0.3921 0.3586 -1.36278 -0.07078 -1.4319 0.40544 -0.78274 0.94418 1.09542 1.52094 -0.86344 0.96366 -0.29442 1.61554 -1.6208 1.30634 0.94828 -0.6845 0.6368 1.62712 1.86596 1.49012 -1.72694 0.31388 -1.69268 -1.14238 -1.4973 -0.43282 -1.70814 -1.67286 -0.40202 0.03116 -1.14722 0.15456 -0.43058 1.8678 1.26886 0.21082 1.22212 -0.75886 0.65044 -1.05224 1.36538 -0.55196 1.64278 -1.4188 1.06776 0.47422 -1.91926 -1.19496 -1.65448 -0.11078 0.25352 -1.9243 -0.4184 0.11776 0.08554 0.32334 -0.37812 1.71046 -0.09728 1.65008 0.6523 0.76826 -0.07706 1.10538 0.11088 1.551 0.0461 -1.4886 -1.96254 -1.26254 0.09338 -0.60434 -1.02334 0.9182 -1.87528 0.82502 0.6711 1.72612 -0.21014 0.02848 -0.51356 1.48682 1.98162 1.70876 1.77764 -1.22294 -1.42706 1.45164 -0.21774 -1.05448 -1.41106 1.51164 1.3384 1.00036 0.29544 -1.4029 1.5251 -1.46262 0.47032 1.51674 -1.5719 1.56934 -1.23244 1.60804 1.79582 -1.14214 1.09902 0.6634 -0.00696 1.2605 1.65222 -0.10426 -0.0794 1.87424 0.16364 1.16548 0.78664 0.21418 1.32774 -0.6662 0.97806 0.59446 0.72912 1.09194 -1.8515 0.58172 0.05724 -0.02372 -1.37726 1.5276 1.2999 0.13372 -0.7442 0.2731 -0.39964 -0.0829 0.71924 -1.62644 1.91292 0.91978 -0.32196 -0.09046 -0.5414 0.52174 -0.70672 0.69318 -0.40896 1.46416 -1.16328 1.12994 -0.18954 -0.6891 -0.79038 -0.8635 -1.46132 -0.16636 -1.1598 -0.32438 1.45952 -0.78592 0.8006 -0.87728 0.04064 0.46542 1.96058 -0.4815 -1.36006 1.64748 0.27386 -1.75346 -1.55376 0.41306 0.30124 -1.59204 1.65574 -0.9315 -0.86416 -1.79264 -0.20134 -0.54468 -1.00932 0.59306 -0.86044 -0.5072 -0.28286 -0.011 -1.07592 -1.88072 -0.2656 1.7667 -0.92312 -0.9564 -1.08598 0.69882 -1.88084 -1.4447 1.86888 0.99318 0.56114 1.77476 0.05324 -0.05646 -0.8097 -1.40982 0.68368 1.39738 1.00966 -1.19836 -0.51926 1.47016 -1.3022 -1.36716 1.87696 0.0042 -1.7766 -1.79248 1.98316 -1.45216 -1.25172 -0.02842 -1.40558 -1.47936 -0.08692 0.50714 1.16964 1.40262 -0.50096 1.6024 -1.7112 1.10044 -0.80038 0.14266 -0.3538 0.02388 1.40208 1.04712 -0.59724 -1.45064 0.8091 0.31974 0.97932 -1.87758 0.63852 0.26422 1.0689 -1.55598 -0.83336 0.90982 0.47542 1.91162 -1.42786 1.32102 0.2449 -1.41044 1.18034 -0.4674 -1.96954 0.68314 -0.57948 1.28106 -0.10166 1.40724 -1.48716 0.3803 0.27054 0.55514 0.98664 -0.14694 0.60212 -0.82374 0.80476 1.43378 -0.26126 0.42852 0.99226 -1.52802 -0.1179 1.64884 1.43824 0.72562 0.23598 0.5892 -0.87302 -1.62284 0.52828 -0.12142 1.89774 -0.94336 0.84354 -0.13052 1.01666 0.71962 1.12884 1.52804 -1.57862 1.57208 1.60956 -1.74178 1.99368 -1.48624 -0.54262 1.31358 -1.69232 -0.70086 -0.89314 -0.86164 -0.41772 1.81636 -0.40272 0.70834 1.65048 -1.61838 1.2449 0.6949 -0.95494 1.30912 0.28026 -1.86434 1.85202 -1.60804 0.65738 -0.07002 1.0095 -1.26736 0.1596 -1.91488 -1.69506 0.2107 0.00712 1.42016 -1.13758 -0.37612 1.65516 0.92446 -0.73178 0.92238 0.28152 1.82782 1.2703 -0.61008 -1.7037 -1.91862 1.45934 -1.8648 0.21898 0.63504 1.4747 -1.56608 0.48296 -0.88774 -0.7082 1.47388 -1.5938 1.6017 -0.14364 1.52738 -1.69594 1.57504 1.13954 -0.97828 -1.1666 1.37156 -0.19078 0.1771 -0.15408 0.0266 -1.27354 -1.67958 -0.57334 0.12268 -0.9724 0.45242 -1.13464 0.46208 -1.90434 0.57598 0.47064 0.8743 0.51364 1.52456 -1.3896 1.871 1.72774 -1.10514 0.12836 -0.61148 -0.78232 -1.94656 -0.93192 -0.25916 0.6183 0.70646 -1.31172 0.24858 -1.4435 -1.07528 0.27216 -0.71778 0.28926 -1.80764 -0.09144 1.15428 1.00726 -1.63974 -1.91536 0.83938 0.60852 -0.0559 1.50604 1.28038 -0.94326 -0.57024 -0.9386 1.61496 -1.5887 -1.0376 1.64382 -1.08566 -1.95126 -1.5426 -1.19108 -1.327 1.25232 1.68582 1.50436 0.32114 -0.23586 0.61678 -0.09442 1.17092 -1.69618 -0.8116 -1.41496 0.32126 -0.38402 -0.54388 -1.13626 1.36746 -1.18978 1.28898 0.77998 1.27356 -1.45262 -0.2123 -1.3159 -0.81146 -0.35496 -0.9267 -0.16274 1.59408 -0.71912 -0.6422 -0.76654 -0.16814 1.38344 -0.76444 1.90194 1.32144 -1.1441 -0.2365 -0.92478 1.99174 -1.96148 -1.6649 0.97654 1.86832 -1.15528 0.74012 -0.00102 0.95516 -1.90134 -1.72366 -1.89588 -1.24024 -0.3226 -0.46466 -1.8744 -0.53538 1.0017 0.3158 -1.32392 -1.30918 -1.2205 0.31148 -0.10996 0.94602 1.95492 0.75316 0.93782 -1.61958 -0.44582 -0.45772 0.51156 1.04672 0.21374 0.78824 1.23504 -1.78772 0.81116 -1.18424 -1.65618 0.90492 1.07432 0.8821 1.49542 -0.99548 -0.74634 -1.5263 -1.84554 -0.15192 -0.89006 0.43732 -1.68028 0.54008 -0.9126 -1.6156 1.21222 -0.27298 0.44506 -1.96948 1.91338 0.09154 1.80228 -0.38144 -0.59902 0.55636 -0.23522 -0.9426 0.54602 0.88914 0.3003 1.91332 0.65344 0.18594 -0.02804 -0.22884 -0.3835 -0.10262 0.81604 -1.1145 -0.30766 1.48122 0.5987 -0.91026 1.27046 1.11686 -0.77744 1.97146 -0.0407 -0.17066 1.576 -0.492 -0.2328 0.78064 -1.09762 0.25228 1.10262 -0.54426 -0.51888 -1.06096 1.23974 -1.80374 -0.07234 -0.7347 1.54776 -0.80338 1.78386 0.13376 -1.4319 1.31622 0.76788 -0.68518 0.91098 -0.44046 0.33816 -1.56786 1.49284 0.71254 0.34808 0.2841 -0.6662 -0.2067 1.09808 -1.28332 1.31312 -1.20772 0.1461 1.8728 -0.71644 1.71968 0.66854 -1.83926 -1.58374 -0.123 -0.35424 -0.50394 -0.44644 -0.66662 -0.45804 0.07384 1.333 1.08878 1.40336 0.64306 1.06144 0.26116 0.59702 -1.79234 -1.55754 -1.52978 0.75942 -1.60994 1.10764 1.197 1.60524 -0.55358 -0.90184 -0.78902 -0.04782 0.75546 1.0505 1.91104 -1.1498 -1.15158 -1.35232 0.60712 -1.10144 -0.96604 1.91378 -1.15792 0.87858 0.15946 -0.82944 -1.72576 0.9511 0.24502 0.38994 -1.545 -0.34478 -0.94806 0.19526 -0.06156 1.43032 -1.18668 -1.03976 0.27846 -0.94692 -0.78074 0.27176 -1.80066 -1.60212 -1.65744 1.38118 0.78648 1.02332 1.42194 0.23856 0.55494 -0.00462 -1.54568 -0.6374 -0.43696 -1.70612 1.60036 -0.40838 -1.40004 1.21948 0.8334 -1.75412 -0.63978 1.05648 -1.35686 1.55574 -1.09978 -1.4398 -0.88794 -1.5193 -1.96314 1.88816 0.36922 -0.44598 1.6793 0.7622 1.71444 -1.55582 0.536 0.77826 0.38408 -0.7491 1.52916 -1.99356 1.835 0.45962 -0.7991 1.68932 -1.3678 -0.35546 1.82996 1.2217 -1.63974 1.05896 0.21968 -1.02664 -1.08846 -0.85716 1.75472 -1.21318 0.48096 0.22628 -0.08874 0.94122 0.20168 0.66676 1.62616 0.90028 -0.3167 0.80082 -1.42056 1.15616 1.05562 -0.1783 -1.1646 -0.4175 -1.28328 -0.64624 1.22148 0.18352 0.35482 -0.78912 1.92798 1.4675 -1.34926 -1.18484 1.52788 1.31024 1.33434 0.70592 -0.14934 0.57158 -1.31056 -0.25082 -1.7027 -1.84222 1.33964 -1.41208 -0.19526 -0.83178 0.83346 0.30062 0.00602 -0.16864 -0.9349 -1.32622 -1.83394 0.53856 0.22354 -1.36282 -1.74338 1.55776 -0.07864 -0.4288 0.43198 -0.72994 0.29828 0.44374 0.29048 -0.61348 1.13888 -1.6841 1.56594 0.97736 -1.04984 0.00784 0.4667 -0.69356 -0.4756 -1.32238 0.24284 -1.8712 1.54902 0.05324 1.35004 -1.9458 1.20486 0.0966 0.40238 1.97694 -1.3509 -1.01068 -0.91332 0.69716 0.44928 0.2929 -1.3498 1.11824 1.31718 1.02724 -0.1405 -1.10412 0.29742 -1.58178 0.02934 0.51756 0.73468 1.02864 -1.1188 1.05726 0.20706 0.85962 -0.98586 -0.45408 0.39432 -1.87218 -1.99126 1.86812 0.22116 0.37778 0.06518 -1.79834 -1.95866 0.31352 -1.2626 0.14954 1.2292 -1.13124 -1.47192 0.65726 -0.64236 1.34846 -0.01074 0.49716 0.81812 -0.65304 -0.16864 1.13078 -1.9761 -1.16752 -0.68048 -1.8238 -0.7846 1.34512 -0.23014 -0.21054 1.97516 1.54076 -1.69718 0.32146 0.28414 -1.21792 -1.10292 -1.06062 -1.03796 -0.34218 -1.14548 1.9839 1.6808 1.87978 1.28834 -0.1341 0.50056 0.22392 -0.3004 0.8586 -1.12964 0.51698 0.7278 -0.95264 0.29646 -1.12206 1.8442 -0.61134 -0.94174 -0.11104 0.98624 -1.30378 -1.45634 0.94794 0.17436 1.68844 -1.43408 0.2066 -1.6269 -1.42444 0.45138 -0.95014 -0.4649 -0.83972 -1.50758 -0.15254 1.44998 -1.8559 -0.45586 1.4536 -0.32436 0.99146 -0.3545 0.91126 -1.0809 -0.54182 -1.18706 1.25546 -1.97502 -0.59382 -1.06214 1.5084 1.88112 1.07306 0.67156 -1.8417 1.44022 -1.26714 -0.29458 1.59988 -0.70004 -1.70606 -0.14918 -0.87596 -1.59278 1.82048 -1.01814 -0.4325 -1.44508 -1.55102 -0.57204 1.70008 1.84452 -0.39536 -1.78668 1.99478 1.0507 -0.3676 0.02882 -1.28382 0.87548 -0.68956 0.1816 0.9669 1.63768 0.94296 -0.83128 0.46204 0.48872 -1.66588 0.40722 0.7171 0.43868 -0.05576 0.15364 -0.6183 -0.85936 -1.47854 0.50402 -0.9014 -1.5237 1.24542 0.70054 1.576 1.97822 -0.76224 1.66388 0.27648 0.85974 0.67678 -0.89242 -0.19218 0.70402 -1.01076 -1.27562 1.9895 0.11232 0.8839 -0.51364 -0.53574 0.65176 0.51982 1.07878 -1.77922 0.04176 0.71084 -0.7386 -0.09974 1.451 0.83162 0.85412 0.52924 1.12836 -1.0698 -1.76014 1.63004 0.6099 0.6056 0.98868 0.3999 1.27906 0.89224 1.60228 1.81192 1.22652 -1.40062 -1.98694 -0.55056 -0.78016 0.16412 1.26936 0.25674 1.0351 -0.96024 0.44684 -0.04352 -1.83336 0.47974 -0.46578 -0.73264 1.97636 -0.23638 0.82548 -1.97188 1.82266 0.57834 0.67946 -0.22618 -1.25062 -0.90566 -0.6204 1.5067 1.8952 1.08644 0.18518 1.7595 0.91752 1.26684 -1.00574 -0.55764 0.69778 1.81196 -1.31958 -0.71314 1.56224 -1.40264 1.49414 0.08858 0.48334 0.28336 1.4634 -1.86986 -0.92862 -0.27868 0.42354 -0.48456 -1.93324 1.57416 1.98926 -1.35184 -0.08008 0.23924 -1.29994 -1.8745 -1.21548 1.76266 0.36152 1.94864 0.85456 0.68732 1.03896 -1.10022 -0.51452 -1.90816 0.56958 -1.8356 -0.91682 -0.4614 -1.53414 1.22528 1.0842 -1.40914 1.29046 0.466 -0.36908 -0.75056 0.43532 0.17388 -1.3371 -1.33026 1.69274 1.34334 1.27756 -1.65392 1.52244 -1.54148 1.11188 -1.4451 -1.49766 1.79958 0.23582 1.54548 1.23402 1.79602 1.24438 0.5636 0.64466 -1.02048 1.15172 0.25914 -1.56776 0.52814 1.10828 -1.23602 -0.43604 -0.67096 0.94876 0.23404 0.49456 1.53506 -0.67268 -1.81236 1.28574 0.18482 0.99456 1.6956 -0.37778 -0.86062 -1.4306 0.11104 -0.9475 -1.47174 -0.96374 -1.33372 -1.01056 1.53872 -0.64316 1.49444 1.2216 1.06732 0.60478 -0.54422 1.02214 0.40376 -1.76252 -0.8354 -1.76496 0.51358 0.7821 0.19338 -0.49026 -1.12216 0.06034 -1.03272 0.47224 0.04818 -1.74026 -0.95082 -1.19856 1.54876 -1.05862 -0.49474 -1.5899 -0.95932 -0.79338 1.90396 -0.50814 0.442 1.77454 0.02524 1.9722 1.45432 1.01242 1.42724 -1.06974 1.87154 -0.83452 -1.11804 -0.05266 -0.17004 1.46056 1.10862 0.35728 0.376 -1.39872 -1.82536 0.46792 -1.93102 0.19402 0.94124 1.27896 -1.69234 0.693 1.67282 0.12592 -0.90048 -0.95434 -0.01854 -0.80288 -1.6665 1.67272 -0.20698 0.73904 -1.24314 0.22118 0.05542 -0.1346 0.6331 -1.963 0.6007 -1.1173 1.37776 1.10184 0.97146 -1.9118 -0.16726 1.14798 0.0341 -1.56062 -0.96804 -0.56396 -0.57712 -1.75202 -1.16672 0.74626 1.66454 -1.23868 1.33958 -0.6987 1.83072 0.82586 1.184 1.68484 -0.38618 0.15722 -0.33248 -1.63042 -0.3996 -1.84518 0.54586 0.30924 1.8348 -1.96804 1.5933 0.05852 1.9012 -0.7942 1.72152 1.58462 -1.70682 -0.04846 1.01156 -0.45792 -1.83486 0.89746 0.24984 -0.45496 -0.09426 0.0106 0.55664 -0.70592 0.5258 -0.6682 -1.79372 1.77484 -0.3013 1.69292 -0.51198 -1.18576 0.42068 -0.53684 -0.45244 -0.12074 -0.10648 0.72272 -0.39878 -0.60908 -1.34534 0.77474 0.84506 0.45872 -0.9602 1.75496 -0.9919 -0.12082 1.81428 -0.35808 1.51968 0.71636 1.90738 -1.87754 0.46382 1.5898 -0.40182 -0.74824 1.78342 0.503 1.82568 1.81846 -1.64018 -1.79172 1.71778 0.90726 -0.83608 0.83 -1.59604 -0.8677 1.64854 -0.55758 -0.70378 -1.14108 -1.10962 1.13098 1.16552 -1.9021 -1.74572 0.77084 -1.67632 0.32708 1.96056 -1.94324 -1.82678 0.77164 -1.09314 0.2982 0.99932 -0.04224 -1.71892 -1.35826 0.9393 1.09822 -0.43478 -1.16382 0.41492 0.63676 0.74094 0.13252 0.59102 0.17808 -0.5248 0.68196 -0.00664 0.07726 -0.57988 1.04844 1.23206 1.33284 -1.57574 -0.49974 -1.00252 -0.98744 0.17932 -0.50142 1.8579 -1.69694 -1.96496 -1.05388 0.0004 0.8657 1.83068 0.44618 -1.14878 1.00678 0.5031 0.198 1.29368 -1.94582 -1.28394 -1.47124 -0.64304 0.12174 -1.8202 0.14558 -1.14814 -0.72142 0.06338 0.09596 -0.6485 -0.1416 1.06612 1.66646 -0.4665 0.7808 1.64426 -0.07328 -1.0811 -1.93336 -1.02172 0.11184 0.60172 -0.2052 -1.86788 1.7253 0.3474 1.02902 -0.16926 0.98656 1.57414 1.22212 1.75476 1.17788 0.61676 1.8955 -1.8567 0.87572 -1.16724 -1.96628 -1.3533 0.57932 0.23966 -0.06092 1.59462 -1.85802 1.79956 -1.8358 -1.08732 0.07042 1.36252 -1.42362 -0.7209 1.22702 1.0759 0.6042 -0.07298 1.56216 -0.0104 -1.54552 1.79818 -0.17716 1.44782 1.0768 0.5218 0.12936 0.10364 1.88824 -0.9503 -0.362 0.63748 -1.23148 -0.90604 -1.11484 1.41992 0.39896 1.87218 -1.33738 0.20018 1.99014 1.92574 0.18318 0.11632 1.76032 1.62404 0.99776 -0.05698 -1.47228 -1.89802 -1.98744 -0.03154 -1.41886 -1.11388 -1.62174 -1.76446 0.82386 1.13148 1.16284 1.41726 -0.53476 0.03834 1.91132 1.1145 1.27466 1.43292 0.59398 1.4824 -1.60608 1.8071 -1.32308 0.73202 -0.7356 -0.63804 -0.00054 -1.47126 -0.38502 1.70652 1.6875 1.45276 1.52404 -1.81366 -0.4241 1.78626 -0.96288 1.66954 0.05632 1.8824 -1.2843 -1.35038 -1.40394 1.26748 -1.29068 -0.75466 -1.26508 -0.0482 -1.9856 1.06868 0.84164 -1.67262 -0.96996 1.51534 -0.4509 -1.27938 1.42504 -0.71948 -1.29596 1.21916 0.88664 1.8495 0.62056 1.11734 1.44398 1.71008 1.8932 -0.7211 -1.53756 -1.87496 0.07736 1.60512 -0.62342 0.71158 0.7667 1.7443 1.21102 -0.59056 0.0227 -1.98096 -1.37296 -1.95234 -1.48568 0.5463 -1.13514 1.3601 0.4227 -1.9913 0.63722 -1.14474 -1.6388 1.75658 0.96548 0.83716 -1.00426 -1.13382 0.02906 -0.52128 1.82348 -1.00078 -0.64788 1.45602 -0.51064 1.88936 -1.0087 1.23652 0.9508 0.31846 -1.25138 -0.1952 -0.49042 0.0156 1.25782 -1.315 0.59212 0.83898 1.33518 -1.92576 0.25246 -1.91612 -0.71262 1.8845 0.64166 1.60716 1.76382 0.32078 -1.36036 0.53942 -0.28418 -0.09948 -0.28478 -0.2677 -0.41406 -0.97654 0.6669 -0.829 0.5583 -1.37504 -0.445 -0.37166 -1.59072 -1.89578 1.26006 -1.16758 1.34568 0.3456 -1.50126 0.28048 -1.75498 0.15676 -0.469 -0.0452 1.22624 1.7396 1.71184 -0.53238 -1.18566 -0.11782 -1.87448 0.67052 0.59686 -1.58864 -1.39736 0.8481 -1.91044 1.77726 -1.57036 0.23436 0.01808 -0.5789 -1.71932 0.7102 0.51924 -1.37588 1.67458 -0.81686 -1.37558 -0.19076 -1.73854 -0.5818 -0.17798 0.35916 0.29438 1.55904 -1.63048 1.76042 0.50606 -0.15366 -0.6884 -0.80072 -1.64334 -1.3239 -1.50058 0.88448 1.03146 1.9979 1.50158 -1.58804 -1.25716 1.5684 -0.08404 0.26438 -1.73762 0.82392 -0.12392 0.82078 1.43554 0.6021 -1.935 0.5287 -1.15682 1.0051 -0.37928 0.7073 -1.15152 -1.7623 0.11698 -0.95642 0.47856 -1.67086 -0.7288 0.58328 -1.07724 -1.1812 -0.93556 1.60456 0.21076 1.63476 -0.40734 1.67666 -0.31844 -1.78754 -0.93362 -1.30694 1.50224 1.55764 0.09678 1.47046 -0.31704 -0.45126 -1.67514 1.90394 -0.21868 0.7829 -1.64392 -0.64846 1.05538 -0.20788 0.03598 0.79376 -0.11908 0.45798 -0.06662 -1.5863 0.29718 1.33266 -0.6584 1.44356 -0.24054 0.2715 -1.39 1.80076 -0.99056 -1.61166 -1.15286 -1.36928 -0.0613 -1.07236 1.20506 -0.70916 0.14092 0.64652 1.36062 -1.07018 -1.99574 -0.63274 -1.19804 0.13984 -1.53728 1.71288 -1.45082 -1.58136 -0.40122 0.7989 -0.20426 1.22356 0.27906 -1.34734 0.39586 -1.83042 0.21602 0.65322 -0.28902 1.41146 -1.06126 -1.47592 0.89448 -0.60702 -0.06424 1.72536 1.41282 0.12772 0.58706 -1.25486 -1.34718 1.23438 1.09736 -0.99644 -1.59056 -1.0701 0.53068 1.20176 0.98082 0.04656 -0.2777 -1.80866 0.20198 0.21054 0.59258 -0.37644 0.35164 -0.71398 0.53176 1.03546 1.0748 1.48768 -1.06446 1.94914 1.99108 1.48016 0.47276 1.40898 -1.79592 -1.26266 -1.69996 0.42146 -0.16842 -1.14638 0.14606 0.56134 -1.8738 -0.7245 -1.75678 -0.53404 -0.36112 1.01426 1.67238 1.6644 -0.31084 -1.25262 0.3221 -1.31606 0.80038 -1.68782 -0.62628 0.12678 1.59594 1.55158 -0.32968 -0.83488 0.29884 1.1482 -0.98754 -1.07074 0.45712 1.1217 0.99766 0.24346 -0.25348 1.30084 0.35976 -0.65166 -1.93552 -1.96876 -0.50264 -0.92388 -0.9572 -0.9342 -0.60342 -1.93946 1.8153 -0.72888 0.25998 1.24368 -0.84194 -0.21118 -1.3914 1.89188 1.36362 0.17324 0.8255 0.28 1.1833 -1.01908 -1.7375 -1.02202 -1.73698 1.31394 1.00882 0.51716 -1.98342 -0.5711 -0.08212 0.3883 0.38762 -1.02626 -1.38054 0.76912 0.81482 -1.70242 -0.91602 0.53014 0.15498 -0.39022 -0.65018 -0.9723 -1.11178 -0.23124 1.7712 -1.3317 0.5131 1.10578 0.87984 1.57326 -1.52468 -1.92024 0.16504 1.08354 1.76874 -1.48064 -1.1869 -0.27116 0.05698 0.87942 -1.95604 0.3864 1.35324 1.87166 -1.14394 -1.81568 -0.83064 -0.16054 -0.92296 1.06604 -0.91074 -1.70464 -1.875 -0.42648 1.6311 1.23478 -1.91026 0.49424 1.54274 0.34052 -1.99594 -1.08922 0.54904 0.34462 -0.08702 0.30786 0.80868 -0.4641 1.00038 0.29544 1.48448 1.35512 -1.52684 1.27554 -0.43418 0.9634 -0.32556 -0.98346 -1.0873 1.58686 1.49892 -1.32638 0.02872 1.8138 0.48398 -1.82004 1.95474 -1.40848 1.45244 -1.46606 -1.57038 0.31884 0.18608 1.71644 0.87536 1.13316 1.83734 -0.99138 -0.04132 0.54818 -0.62438 1.63346 0.83906 0.78158 1.58154 -0.26588 1.8222 -1.15056 -1.99232 -1.33232 -0.43968 1.07318 -0.41846 1.95586 0.84158 1.33042 0.88206 0.73524 1.86062 -0.26698 0.35312 0.21716 0.08344 0.46642 -0.13418 -0.83436 -0.83098 -1.2433 -1.59982 0.43264 1.12606 -1.33418 1.05786 0.3645 0.21124 1.86546 -0.16544 1.24712 -1.76776 -1.25014 -1.64226 1.10528 -1.41618 0.78476 0.97362 -0.64358 -1.2627 0.2302 -1.12514 1.54494 -1.74892 -0.89792 -0.852 -1.77436 -1.80494 1.15844 -0.45 -1.62736 -1.08424 0.4159 -1.43492 1.0655 -1.55074 -0.42496 -0.4584 -1.1055 -1.98468 1.21702 -0.25538 0.9761 -0.50414 1.63492 0.503 1.11076 -0.62474 1.24782 -0.36666 1.29868 1.4928 -1.4906 -1.57168 0.93882 1.88184 -1.14476 0.18156 0.02396 1.51782 0.83222 0.16944 1.05278 0.31546 -0.5381 0.33136 -0.18368 -1.81524 -0.70776 0.65602 1.00878 -0.75686 0.0791 -0.6589 -0.47974 -1.51442 -0.10126 0.04906 -1.38386 0.59908 0.03722 0.85036 -1.05276 -0.4749 0.25132 -1.12018 -1.59366 -0.01244 -0.37374 1.18364 1.594 1.39346 1.51764 -0.62332 -0.81692 -0.95242 0.69182 -1.33936 -1.96606 -0.69644 -1.31334 0.92598 -1.91698 -1.4082 0.62454 0.05552 -0.5863 1.1683 0.90806 0.45322 -0.01692 0.80616 -0.4346 1.42488 -0.51942 1.98184 -0.7778 -0.47232 -1.93588 -1.41792 -0.075 1.82874 0.55848 0.10858 1.06202 1.6153 -0.2745 -1.29758 -1.842 -1.52732 -0.20626 -0.76192 0.01512 1.31258 -0.0876 1.11124 0.76734 -1.64458 0.90054 -1.8042 1.46612 -0.76198 1.0795 1.17302 -0.79944 -1.21218 -0.17194 -1.90726 1.89608 -0.79876 1.82538 -0.83588 -1.4035 1.45186 1.37854 -1.1421 -1.63252 -0.02558 -0.47022 1.00924 -1.67 -1.28874 1.0103 0.43536 -1.34054 -1.255 -1.20896 0.2528 -0.48754 0.36934 -0.7855 -1.13324 0.62714 1.86832 -0.88406 -1.31302 -1.25076 1.38546 -1.09198 0.27418 -0.21276 -0.36726 -1.19368 0.95674 -1.3527 -1.37038 -1.35844 0.56326 1.93404 -0.94552 0.74374 -1.2071 0.82564 1.89128 1.86578 0.75484 0.22772 -1.35586 0.51356 -1.54446 1.99678 1.57524 0.58026 -0.47326 1.98674 0.9586 0.53698 -1.27182 0.3359 0.69156 -1.89134 -1.01798 -0.9336 1.25558 -0.778 0.69724 1.90494 -1.94646 -0.21196 -1.97016 -1.89656 0.22776 0.31876 -1.54202 1.62558 -1.57842 0.0411 0.73584 -1.99746 0.36108 0.45924 -1.89492 -1.12812 -1.54754 0.2774 0.21198 1.05248 1.27956 0.97 -0.3113 0.09262 1.91338 -1.77264 -0.75752 -1.0542 -0.2383 1.72648 1.57004 0.66928 -0.83148 0.8499 0.17416 0.85608 0.4837 -1.6479 -0.231 -0.74354 0.12228 -0.09886 1.56514 -1.0825 1.80112 -1.27438 1.9748 -1.7677 -1.99644 -1.88986 -1.38608 -1.02182 1.01 1.64476 -1.37464 -0.91646 -1.90066 -0.0628 -1.80996 0.0004 -0.92372 1.51216 -0.13612 -1.30492 0.47104 -1.93344 0.83402 1.51118 -1.71492 -0.751 0.38816 -1.89964 -1.49162 -1.0445 -1.06982 -0.6216 1.40484 -1.22882 0.2915 1.18774 -1.74746 -0.98984 -1.05776 -0.34844 1.11256 0.59186 1.65926 -0.47626 0.22454 -0.90938 0.75674 -1.4535 -1.83796 1.76858 -1.81982 0.6101 -1.96274 0.87006 0.44644 1.73456 -0.1084 -1.53638 1.9472 0.75456 -0.27804 -1.48644 -1.5302 0.0545 0.71458 1.24694 -0.32132 1.32814 1.6457 -0.99772 -0.25214 -1.9339 0.56992 -1.7877 -0.41748 1.87918 -1.59272 -0.68972 -0.71338 1.19444 0.49226 -0.15834 1.9383 -1.2602 -1.22468 0.32006 -0.65888 -1.46522 0.32474 0.55692 -0.70386 1.78892 -0.93706 0.18766 1.9296 0.599 0.12206 -0.39524 0.80916 0.97758 1.41192 1.42858 -1.0992 1.15974 0.0207 -1.88594 -1.95982 1.82496 -0.71246 0.56724 1.32728 -1.41868 1.17698 -1.24724 -1.7377 1.8803 -1.42476 1.72998 -0.72084 -1.6055 -0.0942 -0.8561 -0.99662 -0.91124 1.70614 -0.04106 1.00316 -1.61776 -1.7173 0.98352 -0.24288 0.8025 0.50112 0.30904 1.7825 1.06366 -1.05916 -1.22146 0.71908 -1.33874 0.27988 -0.48384 1.24724 1.7575 1.22964 -1.28518 -1.38808 -1.68982 -0.07464 -1.95072 0.02374 0.39206 -1.6744 0.41464 -0.92824 0.26802 0.42518 1.81202 1.4536 -1.93824 -0.8891 1.65794 1.54224 0.30402 -1.1899 -1.47524 0.08018 -1.13208 -1.02976 -0.80138 0.93944 1.79668 -0.9891 -1.3821 0.11462 -1.61036 -0.10334 -0.75412 -0.14088 0.9913 -0.653 0.69296 0.45686 -1.7666 -1.04024 1.36506 0.4769 -1.91354 -0.76272 -0.48552 -1.36152 -0.87118 -0.67506 0.6573 1.55034 0.62192 -0.02608 -1.05678 0.94738 0.70486 0.63462 1.74398 1.33994 -1.27326 -0.89016 0.22704 -0.61886 1.70768 -1.69998 -1.31788 -1.62864 -0.8207 -0.0471 -1.53772 0.71476 0.41792 -0.79894 1.30882 -0.65576 -0.55496 0.04786 -0.00628 1.63064 1.45576 -1.43986 -0.1894 0.47174 0.35358 -0.93246 1.49268 0.4157 -1.04658 0.29848 1.15426 -1.64332 -0.397 1.35302 -0.26988 1.12354 0.7327 -0.0161 0.7692 1.78642 -1.44484 -0.8569 1.45918 1.17592 -1.13736 1.94254 -0.8676 -0.57914 0.66508 1.59896 -0.49766 -1.34302 -1.35912 -1.88666 1.88418 -1.8334 1.29922 1.7553 1.02754 0.64012 -1.19268 0.2664 1.41792 0.8808 0.79862 -1.8944 -0.88826 1.0649 1.47092 -1.81472 0.61154 1.46112 1.27864 0.20728 1.07548 0.31264 -0.89906 0.63468 -0.39092 0.41104 1.93514 0.07182 1.75062 -0.64554 -1.20386 0.49726 1.71578 -0.51034 1.46882 -0.43648 1.8243 0.97738 0.95634 -1.87094 0.97908 0.28874 -0.27484 -1.42162 -1.62272 -1.24296 0.83078 0.06748 -0.05008 0.4798 -1.01258 0.0412 -0.62168 0.4336 -0.96216 -0.42848 1.06564 -1.33546 0.14622 -1.3835 0.70498 0.7355 0.51576 0.06346 0.08464 -1.69864 -1.61018 1.62208 1.59606 -0.0926 -1.63904 1.63414 -1.49522 1.14956 1.22818 -1.21326 -1.41252 -1.47744 0.2574 -1.14798 1.58026 -0.13236 -1.8781 -0.72918 -1.63296 0.75494 -0.88108 -0.71784 -1.5482 -0.1027 0.49788 1.15976 -1.16884 0.33984 -0.57592 -1.75642 1.77296 1.6617 0.49372 -1.92408 -1.63278 1.2087 0.47142 -1.9575 0.11884 -0.64672 -0.46358 0.22874 1.2054 -1.7489 -1.01596 0.54306 0.40714 -0.70582 -0.96376 -1.16266 0.6136 -0.75506 -0.30358 1.32968 1.18242 1.10764 1.17026 -0.30124 1.40952 -0.79882 0.80298 0.16492 -0.27452 0.9846 -0.98624 -1.07424 0.02882 0.18146 -1.5152 -1.62846 1.3962 -1.92062 1.15196 1.01376 -0.78148 0.89016 0.07676 -1.7993 -1.08674 1.9548 -1.24738 1.53696 -0.6964 -1.41328 -0.37002 0.528 -0.03472 1.16402 -1.10652 -0.74044 -1.96158 -1.22734 -1.36702 -1.08236 0.55028 1.37148 -1.49674 -1.7792 1.23734 -1.94174 -1.48578 -1.77434 -1.19062 -1.33532 -0.55888 0.5342 0.09298 0.68266 0.11116 -1.70776 -0.96912 0.96956 -1.21452 1.4547 -1.55144 1.266 -1.13868 -0.86126 -0.6454 0.48574 0.96048 0.86478 -0.71202 1.22524 -1.6669 0.62354 1.4464 0.23432 -1.53654 -0.15296 0.3869 -0.14404 -1.03666 -1.145 1.44056 -1.47306 0.72758 -1.3611 1.1456 1.09576 -1.56498 1.28262 -0.94714 -1.39878 -1.77132 -0.93114 1.98716 -0.82174 -1.53094 1.28426 0.51016 1.3645 0.86618 -1.24842 -0.90224 -0.35058 0.93766 -0.41588 -1.66844 0.81756 1.0878 1.85864 0.21918 -1.73588 -0.09466 1.1749 0.0062 1.93048 -1.98586 1.92162 -1.46158 -1.7776 -0.00686 0.25884 0.05072 1.67786 -0.18808 -1.31324 0.99654 1.26424 0.63638 0.26814 -0.23476 -0.82082 1.33688 1.0224 0.98976 -1.78824 1.75722 -0.20888 -0.41074 -0.85656 -1.69266 -1.67198 -1.99204 -1.42364 -0.93658 -1.21126 0.69588 -0.94624 1.06264 -1.94332 -0.83588 -1.45256 0.74584 0.28774 -0.62866 -1.39266 0.70086 -0.5801 1.8375 0.2509 0.58756 -0.93268 -1.81882 -1.18036 0.0934 -0.96 -1.07276 0.88294 -1.81488 -0.20556 -1.82676 0.223 0.33234 1.39498 1.91506 -0.33488 0.25086 -0.52566 0.61442 -0.97684 -0.00914 -0.05722 -1.79842 0.57968 -0.89598 -0.78222 0.43334 -0.95088 -0.34896 0.38242 -0.4891 0.33732 -0.04638 1.33836 0.55586 1.24002 -1.85316 1.1883 0.48294 -1.97658 1.8615 1.81294 -1.13138 -0.7318 1.88344 0.9411 0.2151 1.35086 0.37268 1.70622 0.35646 -0.7735 0.80546 0.81432 -1.73998 -1.35522 -1.13428 -0.39852 1.71562 -1.12438 0.60664 1.8781 -0.76812 -0.1973 -1.71648 -0.16408 -1.73064 0.99398 -1.1609 -1.32496 -0.48172 1.06254 0.99138 0.591 -0.83834 0.17792 -0.92586 0.93336 0.69624 0.1629 1.00266 1.08248 0.67644 -0.05518 -1.97404 -1.71562 1.53184 1.1393 1.07832 -0.08894 0.37428 0.54534 1.47266 -0.39268 -0.58324 1.98338 0.58104 1.06592 -1.01532 0.0475 0.67174 1.22112 0.51174 -0.30236 0.18792 1.2939 0.2351 -1.78554 -0.34736 0.0821 1.57064 -0.06766 0.90522 -0.44728 -0.12706 1.52416 -0.79834 1.28704 -0.22328 1.99912 0.30406 -0.86994 1.91566 0.92802 0.30074 0.97292 1.58988 -0.61594 -0.82578 -0.82172 1.59686 0.0082 -0.05132 -1.35126 1.49116 1.78154 -1.42928 -1.02122 1.75688 -1.26796 0.04928 1.31736 -0.51336 -1.0038 0.3404 -1.55808 1.64012 -0.08006 1.73436 -0.10742 0.7817 1.294 -0.7108 -1.01446 1.74342 -0.45834 1.30546 1.5837 1.39688 1.21498 1.70402 -1.14896 1.04022 -1.52564 0.48522 -0.43756 1.98364 0.25648 0.06154 0.0914 0.95344 -1.77714 1.53014 -0.95532 -0.05016 0.98668 1.64342 0.91944 -1.4124 -0.1412 1.3328 -0.33008 -0.35032 1.28164 0.39656 -1.69714 -1.281 -1.03686 -1.0947 -0.0505 -1.52392 -1.013 -0.4181 -1.4581 -0.972 -0.80178 -1.72286 -0.98774 0.51098 -1.22204 -1.54174 -0.61638 1.85838 -0.35704 0.93914 0.55884 1.76384 -1.7555 1.03568 -1.24328 -0.10176 -1.61398 0.99608 -0.46192 1.88218 0.0341 1.20136 1.75858 0.0778 0.18234 -1.15656 1.0205 -0.64884 -1.88796 -0.38468 -0.03356 0.64096 0.98824 -1.98334 -1.2484 0.70954 0.63114 -1.59156 1.80964 -0.59948 -0.05084 -0.18848 -1.9933 -1.6575 1.8377 -1.46098 -1.52552 -0.07256 -1.85144 -1.94876 -1.90996 -0.0091 -1.9562 -1.34028 0.9939 -0.00314 -1.48146 0.93446 -1.67138 1.93452 -0.56224 -1.96756 1.74632 -1.97236 -1.02732 1.91786 -1.22442 -1.77216 0.28406 0.04718 1.26708 1.97756 1.18644 -1.86246 -0.067 -1.77744 1.19464 1.41608 0.24008 -0.35668 -1.63106 -0.90694 -0.7974 -1.93922 -0.47474 1.97552 0.59716 0.32852 -0.97726 0.75474 0.19098 1.69666 -1.9202 1.87512 1.96276 -0.08328 0.0652 1.97906 1.3698 1.91984 1.76342 -1.75336 1.64336 0.10138 -1.21584 -1.88752 0.80446 1.90624 0.72672 0.77134 0.80222 -0.89754 -1.30562 0.6853 1.56556 -1.6553 0.82984 1.68552 0.50238 -1.00284 -0.6793 0.44706 1.20508 1.52932 1.85618 1.5704 1.89774 1.3113 -1.82522 -1.98372 0.15734 1.21558 -1.95372 0.32024 -0.12012 -1.8777 -0.55032 1.1012 1.27662 -0.58724 -0.82894 0.6909 1.6018 0.2514 1.9525 -0.91148 1.00228 -0.6055 -1.69044 1.61804 1.08686 0.37966 -0.52334 0.37264 0.59912 -0.68364 -0.95846 -1.88596 0.2452 -0.78626 -1.78528 1.49314 1.73146 0.71042 -1.38602 1.58664 -0.94384 0.37412 -1.19458 1.44324 0.89502 1.72862 -1.59112 -0.9104 1.82608 0.6298 0.84524 -1.04632 1.5768 0.76764 -1.4319 0.50324 1.00174 -1.44328 -1.0706 1.77766 -0.2611 -0.32636 1.7211 -1.4365 1.08076 -0.66436 -1.144 0.06286 -0.80198 -0.32208 0.95942 -1.10864 -0.3626 -1.63414 -1.96766 -1.37186 -1.41094 -1.13368 -1.27698 1.35822 -0.02924 -1.61294 0.54654 1.96932 0.4711 -1.91214 -1.46278 1.47754 -1.35436 -0.28852 -1.5086 1.17472 -0.21898 -1.1637 -0.15226 1.38252 0.65302 -1.7581 -1.63752 -0.44064 0.87262 0.34602 1.89156 0.14816 1.67036 -0.04612 1.31626 1.21094 0.73528 1.93994 -0.08582 0.13542 1.83368 -0.42884 -0.1931 -0.64816 1.12708 1.75176 0.09238 0.99288 -1.2016 -0.62156 -0.58278 1.48654 -0.81348 1.7847 1.11034 -1.19892 0.51812 -1.35018 -0.02488 -1.65286 -1.49618 1.16364 -1.5144 1.62474 -1.50452 -1.60162 -1.70104 -1.48278 -1.22842 -0.67372 -1.25774 -1.29432 1.79728 0.35596 1.34102 -1.79016 1.0294 -1.5041 -1.74458 0.90126 0.14952 -0.63042 -1.23904 -0.50584 -1.07122 -1.595 -1.03836 1.88566 0.84354 0.51516 -1.3072 0.08546 -0.03518 -0.43298 -0.36842 -1.32998 -0.91444 0.18214 -1.14366 0.7287 1.4528 -0.42486 0.2213 1.47212 -1.36382 -1.28846 1.68924 0.83054 -1.55634 0.90048 -0.22832 0.02222 -1.60562 1.07384 0.19762 1.13424 0.40268 0.99142 0.69596 -1.90954 1.43672 -1.58672 -0.32632 0.2564 -1.36654 0.6568 0.74084 0.23026 -1.27562 0.67098 1.12426 -1.15274 1.63954 -0.47328 1.44844 -1.42564 1.14828 -0.71116 -1.14202 -1.78278 -1.28426 0.1311 1.44198 1.94304 -1.25652 0.67058 -0.30894 0.89096 1.3694 0.49732 0.26734 0.09414 1.48616 -1.23412 1.29196 1.0395 1.90146 1.96488 0.83864 -0.02064 -0.02932 -0.54102 0.10614 -0.22734 1.77622 -1.0756 0.38268 0.86766 1.6254 -0.37676 1.98596 -0.88616 0.13342 0.47872 1.3747 -0.69438 -1.0287 -0.26936 -0.48708 -0.03714 -1.03428 1.84986 0.86086 0.22704 -1.59636 -0.96988 -0.63892 0.87366 0.23474 -1.59106 -1.32712 1.1834 0.45018 0.8786 0.24652 1.25676 -1.97506 -0.3307 -1.83318 1.81906 -1.7121 0.8234 1.26556 -0.25386 0.51136 -0.84652 1.9607 -0.99258 -0.60884 -0.01368 0.0682 0.1708 0.45194 -1.12424 -0.98636 0.1208 0.59812 1.8791 -0.63098 0.74608 1.56332 1.509 -1.36708 1.21644 -1.04966 -1.19744 0.66366 1.25482 -1.7678 -1.88206 -0.71932 1.30198 -0.43618 -0.30616 -0.32504 0.14232 -1.4157 -0.88528 1.71568 1.25014 -0.93058 -1.64636 -0.5175 -1.7516 0.34072 0.50208 -1.26856 -0.4256 -0.13504 -1.8743 -1.34136 -1.85416 -1.69972 -0.57928 -1.74426 -1.22112 0.19048 -1.9509 -1.20422 -0.2912 0.48982 -1.29412 -1.22478 -0.7268 -1.29436 0.7662 -1.39302 -1.24192 1.2008 0.87132 -0.4635 -0.51662 -1.83658 0.11886 -0.32334 1.20966 0.0265 -1.6155 -1.12428 0.44826 -1.9289 -0.91074 -0.61016 -1.89352 1.4593 -0.86516 1.0017 -1.85692 -0.5619 -1.10392 1.95182 -1.46482 -1.68108 0.00686 -1.23968 -1.63646 1.57842 -1.79072 1.54276 1.57452 -0.10492 1.97334 0.37358 0.99362 0.5892 1.17524 1.9824 0.1814 1.74406 -0.95394 0.75236 -0.19404 1.17338 0.3475 -0.36232 -0.59944 1.31602 -1.33126 -0.1861 1.57078 1.76448 -1.53612 1.31998 0.30472 0.91948 -0.99868 -0.83554 0.15654 -0.64146 -0.6869 1.63124 -0.18278 -1.15826 -0.69882 -1.44682 -1.90224 0.71566 0.39622 -0.48274 -1.71594 -0.84758 -1.1797 -1.60098 -1.60796 0.1437 0.14586 -0.63822 -0.02858 -1.63084 1.35976 -0.95248 0.90966 0.39536 1.97196 1.81002 -0.56882 -1.34664 -1.93114 -1.92586 -0.41212 0.01078 -0.17414 -1.17716 0.43094 -0.5852 -1.06486 -1.0358 -0.1278 -0.2057 -0.46008 0.68488 -1.0802 1.15146 -0.47016 0.41834 0.94416 -1.93514 0.92794 -1.839 -1.22638 1.63952 1.19302 -0.21264 -0.00122 -1.73442 -1.27842 1.42184 -1.13024 -0.50886 1.12198 1.44438 0.64678 0.32206 1.92938 0.27328 1.32656 1.99746 -0.03194 0.97722 -0.79144 -0.81836 1.48958 -1.8229 0.82924 -1.32514 -1.8723 1.75818 -1.13448 -0.4464 -1.13414 -0.63368 -0.2746 1.90786 1.30052 -0.05166 0.81774 -1.96152 0.82404 0.16534 -1.30678 -0.48672 -1.90556 -1.61896 0.67232 0.09552 -1.96192 0.59772 1.22208 1.25656 1.09178 0.9467 0.09678 1.95072 0.95244 1.59196 -1.85006 1.0159 0.95812 -0.6761 -1.86214 -1.03662 0.5563 1.31616 -1.37472 -0.24436 -0.28102 0.73892 1.02154 -0.01896 1.45552 1.28806 -0.8266 1.8027 0.28398 1.69526 -0.9128 1.10854 -0.49522 -1.2663 -1.36324 -0.47002 -1.4639 -0.39104 0.4618 -0.08086 1.26954 -0.22532 -1.04458 1.70854 -0.2016 1.80182 -0.91964 -0.49986 0.02748 1.72984 0.95696 -1.22174 1.75574 -1.08334 -1.62346 -0.70084 1.57616 -0.75896 1.80102 1.80372 -0.2267 0.29406 -0.33328 1.25716 0.50476 -0.9586 -0.48888 0.2244 -1.31286 0.60786 -1.57274 -1.05266 -1.14566 0.70614 0.4861 1.94428 -0.2165 1.313 -1.81738 1.6537 0.20768 1.67326 -0.22478 0.55414 -1.2617 -1.69108 1.35278 -1.4119 -1.64284 1.3376 -0.04618 1.29506 -0.19206 0.65808 -1.85416 -1.02452 -1.89206 -0.30176 -0.79622 -1.243 0.29068 0.85596 -1.18702 1.4196 1.30256 0.00962 1.92392 -0.9504 0.43056 -1.56774 1.51566 -1.73684 -0.9416 -1.85268 -0.40396 0.10004 -1.48118 1.11258 0.51886 0.19582 -0.3114 -1.077 -0.13276 -0.65046 -1.34596 -0.8678 1.13938 0.19626 0.5603 -0.48938 1.83632 -1.91476 0.1092 1.42562 -0.637 1.35172 0.86026 0.35562 1.25156 0.72866 -1.615 0.30316 0.15754 1.92488 1.82192 -0.30936 0.23666 -0.3394 -0.93796 0.04578 -1.54336 -1.00464 1.17938 1.00796 1.06838 -0.63232 -1.01128 1.46344 0.76554 0.17034 0.87022 -0.27236 0.4893 -1.08008 -1.40406 1.4304 0.15396 -0.36724 0.78432 0.24432 1.23976 0.1632 1.861 1.79018 -0.1892 1.38544 0.76544 -0.05766 -0.4724 0.9634 0.89554 -0.52122 -0.86578 -1.4855 -0.94602 0.84094 -1.09416 1.10124 -1.64278 1.9953 0.36298 1.3968 1.59006 -0.91878 1.85844 0.65736 1.81386 -0.76238 1.32894 -1.6085 1.53668 -1.39612 0.87628 0.8177 0.80602 0.29342 -0.86566 1.3892 -0.80286 1.68294 0.60222 1.04636 -0.06416 1.80214 1.2748 -0.60856 -1.40658 -0.02522 1.86594 -0.24502 0.52456 1.0527 -0.72448 0.789 1.88132 1.84296 0.57312 0.77978 1.93174 1.15344 1.57156 -0.47218 0.61338 -0.86392 1.4267 0.29164 0.60248 0.3165 -0.29152 0.76054 -0.2934 -0.48336 -0.09592 -1.32572 -0.60692 1.31662 -0.53904 1.78792 -0.1936 0.46698 0.06392 -0.16094 -0.62834 -0.42604 -0.13306 -1.51604 1.32834 -1.91272 0.93638 0.96304 1.7203 0.35454 1.45746 0.0437 -1.88864 -0.92562 -1.56704 -1.20026 -1.62458 -1.01686 0.78896 0.2769 -1.7337 -0.8946 -1.95164 -0.9921 -0.85138 -1.39876 -0.6041 -1.43532 0.38198 0.7852 -1.02662 -0.53526 -0.9105 -0.2675 -1.84384 -0.96058 1.26912 0.94272 0.9633 0.51518 1.3801 0.74542 1.04022 1.35204 0.05918 1.86036 -1.43708 -1.6813 0.88364 -1.3388 1.41248 -1.17676 1.67802 1.78702 -0.42724 -1.73376 -0.47442 -1.14096 1.33534 0.7271 0.69138 0.37168 -1.41896 -1.0649 -0.61884 -0.0073 -1.0458 0.37886 -1.08178 1.39354 -0.46938 -0.5673 0.01984 -1.72624 0.8968 -0.47914 0.06516 -1.30368 0.94872 -0.71176 -1.9617 -0.9228 -0.31896 -0.27922 1.3727 -1.84988 -0.21328 -0.69752 -1.84026 1.8899 1.51382 0.41008 1.60738 -1.7638 1.8238 -0.9916 0.16436 0.10512 -0.02914 -1.93354 0.90616 0.18404 1.40048 1.4901 1.13058 -0.02022 0.8034 1.40424 -1.10978 -1.94812 0.20108 -1.17074 -0.0897 0.04708 0.68878 -0.38584 -1.30936 0.86026 -0.43762 -0.76896 -1.79402 1.6517 0.21912 -0.9717 1.8797 1.12052 -0.1747 -0.21638 -1.55004 -0.11162 1.3565 1.96004 0.72544 0.88224 0.38208 -0.14574 -0.32328 0.19094 0.5902 -0.60708 -0.65328 0.38246 -1.58774 -1.89216 -0.31118 0.68456 -1.50024 -0.4397 -0.45258 0.20962 -1.68224 1.3041 -1.45728 -1.26018 1.86048 1.25444 1.96492 0.37216 1.61038 -1.98994 -1.84554 -0.98024 0.95426 1.00182 -1.30464 0.24102 0.1038 1.02806 1.66498 -1.16548 1.93744 0.4997 -1.72994 -1.83054 1.88432 -0.1765 1.23944 0.11126 1.33946 -0.80486 0.62074 -1.73502 -1.7638 0.24034 -0.42938 -1.94762 1.4173 -0.01438 1.02174 1.12762 -0.11068 1.30454 0.58054 0.58012 -0.76156 -1.67306 1.4282 -0.58958 1.41246 1.44778 -1.41926 -0.5283 -0.1047 -1.28712 0.27216 -0.18196 1.03402 -1.62674 -1.1445 0.03698 -1.98502 -0.14636 1.03268 0.41522 -0.6107 1.88946 -1.21646 -1.28608 -0.5688 -1.35702 0.82372 -1.88182 -1.9937 -1.46264 0.94518 -1.3671 1.91914 -0.31008 0.93102 1.55736 0.3953 -0.17098 0.69878 1.89168 -1.3856 -0.85098 0.36968 1.5233 1.96816 1.75256 -0.98164 1.04404 -0.8699 -1.01524 1.11262 -1.96434 -1.72816 -1.83468 -0.80918 -0.65104 1.54338 0.71426 1.9792 0.76948 -1.37594 -1.53744 -0.53462 -0.64206 -0.2323 -0.36074 -0.10112 -0.6559 -0.55778 -0.70188 1.64168 0.18596 1.15486 1.141 -0.19918 -1.75974 -0.48022 -0.73978 -1.25426 -0.32138 1.6246 1.77968 0.98808 1.02154 -0.57528 0.9095 -1.63896 1.75382 -1.5009 -0.41796 -1.98602 1.68102 -0.15018 1.92928 1.2676 -1.84816 1.68362 -0.98828 -0.2444 0.3289 -0.14632 1.67424 -0.3982 1.83196 -0.65694 -1.07334 -1.1192 -0.86918 0.36448 -1.04946 1.82916 0.28314 -0.03148 0.30056 1.14486 -1.15562 -0.52554 0.44384 1.93322 0.85818 -0.7218 0.14504 -1.155 1.86018 -0.71586 1.96064 -1.66386 1.22556 1.8734 -0.35102 -1.44336 -1.49194 1.50462 0.41682 1.82494 1.95036 0.17788 1.1561 -0.32154 -1.50196 0.02868 1.23022 -0.61068 1.54854 -0.24712 -0.26918 -0.28752 1.54924 -1.21558 0.42322 0.67736 -0.76022 -0.9215 0.8974 -0.9493 1.70862 0.82924 -0.25838 0.5478 -0.61758 -1.4095 -0.34476 -0.74258 -1.2845 -1.6061 1.3211 0.77852 1.5517 0.47562 1.1945 0.6665 0.31836 -1.23464 1.43516 -1.1705 0.04798 -1.24428 -0.70356 0.10728 1.55332 0.24816 -1.2131 0.44114 -0.54984 0.97162 1.31684 1.42956 -1.3928 -0.6339 -1.8837 -0.8789 -1.56376 -1.3917 -1.70396 1.90754 -1.62656 -0.02722 -1.3262 1.15464 0.43176 0.95228 0.16078 -0.9264 -0.4101 1.75672 -1.641 -1.5256 -0.35668 0.0679 1.00272 0.9529 -0.46722 1.63432 0.99446 1.13424 1.8036 1.2141 1.80724 -0.25612 -0.92296 1.89154 0.1713 0.18558 0.3593 0.07338 0.23024 -0.28996 -1.53068 1.52762 -1.54396 -1.92482 -1.9181 0.1418 1.67552 -1.39898 -1.91262 1.71328 -1.14878 -0.30656 0.6126 0.84242 -0.21378 0.5393 0.36338 -0.8366 1.58832 -1.19808 -0.38618 -0.8382 -1.89608 -0.84066 0.16554 0.92992 0.07758 0.54022 -1.21902 1.97518 0.7143 1.5165 -0.47352 0.64894 -1.99492 0.1157 -0.38816 0.92752 0.87098 1.39096 1.95878 0.39342 1.04686 -1.90968 0.36286 0.1138 1.13126 0.23462 0.1053 1.632 1.82218 -0.8041 0.48506 -0.5717 -1.90378 1.30752 1.42368 1.2967 -0.09036 -0.84802 -1.93578 -0.8647 1.82004 -1.88782 -1.00104 -0.66528 -1.83304 1.96366 0.83734 1.67052 -1.07256 1.43586 0.2924 -1.80266 -1.15688 1.22038 0.11492 -1.98642 0.79648 -1.94828 1.79864 1.84294 -1.5651 -0.85102 -1.847 -0.4816 -0.96856 -1.90184 0.5527 -1.30244 0.692 0.31514 -0.98212 -0.281 1.32674 0.82348 0.57336 0.93466 1.09134 -0.97188 -0.05318 1.1676 1.39726 0.43478 0.70454 -1.61368 0.90348 0.2877 -1.41484 -1.12416 -0.80742 1.4101 -1.49978 -0.1421 -0.64668 -1.77874 -1.29962 0.67106 1.95918 1.48056 -1.69672 -1.93122 -0.58906 0.13976 -1.0215 0.6123 0.41796 -1.42662 -1.1294 0.01962 -1.353 1.18024 -1.07776 -0.23166 0.1049 -1.36896 -1.55434 0.0001 0.44442 1.76666 0.6149 0.74372 1.51298 -0.32314 1.50496 1.2819 -0.18508 1.15996 -1.63432 1.10546 0.1231 1.9023 0.97548 1.61076 -1.27516 -0.12198 -0.24336 -0.7425 -0.54374 -1.90778 -0.03166 0.33008 -0.5829 0.56552 -1.77118 0.01232 0.48784 0.73186 1.753 -1.27774 1.77558 0.70028 -1.77336 -1.8075 -1.13434 -0.44046 -1.4442 1.73408 0.6348 -0.3034 -1.20262 1.258 -1.7923 -0.23486 1.89652 -1.2553 -1.79524 -0.68854 -0.95652 -1.77314 0.8744 1.18816 -1.45618 0.3522 -0.2017 -1.71518 -0.6734 -1.05256 -0.55196 -0.50738 -1.20596 1.08304 1.40696 1.64342 1.32986 1.4228 1.67566 0.78296 0.7451 1.1653 -0.67778 0.02256 0.62268 1.75966 1.29482 0.71034 0.12238 1.65196 0.669 1.48412 -0.19244 -0.82362 -0.31162 1.52612 -0.15216 -1.41258 0.15644 -0.12558 0.3942 -1.41918 -1.76708 1.60834 0.28604 -0.85784 -1.09746 -0.28566 1.85102 -1.43572 0.43526 -1.5263 -0.93096 -0.57822 0.56634 -0.12182 0.90462 -1.14816 -1.43454 -1.21584 1.05736 1.08796 0.16244 -0.32536 0.27844 -0.0361 1.68506 1.61766 -0.60536 1.88084 -0.20444 0.74244 -0.73364 -0.19878 -1.61124 0.16428 0.93236 -0.28612 1.73652 -0.51948 0.8571 -0.41952 0.8593 -0.44192 -0.78332 0.19528 0.41506 -1.61422 0.61002 1.8102 -1.37852 -1.004 -1.97806 -0.62772 0.81706 1.30624 0.41838 0.55826 -0.67012 -1.67788 -0.5429 -0.71512 -1.68032 1.97018 0.7687 1.69282 1.20734 1.2678 -0.967 -1.59794 0.9458 -0.80926 -0.88468 1.08494 -0.07296 -0.52314 -1.77136 -1.39566 -1.54204 -1.91684 1.54882 1.29926 -0.99236 -0.41556 1.25934 -1.20044 0.72048 1.89406 0.98416 -0.91748 1.74588 -1.62592 -1.616 1.41438 -1.97658 -0.42778 -0.7392 0.88912 0.78938 -0.47616 0.98792 1.14726 1.35276 0.20794 -1.1356 1.43074 1.88066 -1.06302 1.44524 -0.65982 1.07758 -0.18598 0.1003 -0.7533 -1.22672 0.15782 -1.72278 0.73524 -1.28916 -0.03086 -1.02768 1.31328 -1.71636 1.95048 -1.34384 0.5717 -1.19326 -0.29908 1.0615 -1.6452 -1.78394 -0.66048 -0.18504 0.9341 -0.90476 -1.59844 1.9465 0.7997 -1.27996 1.8286 -1.08112 -0.21652 -1.55118 -0.35604 0.00492 -0.06814 0.27378 1.13728 0.6411 -0.1344 -0.705 0.52556 0.17826 -1.17978 -1.4485 1.67462 0.8636 1.40226 -0.44824 0.29268 0.62398 0.17974 -0.12452 1.09042 -0.87588 -0.26194 1.99906 1.16618 -1.84854 -1.6283 0.2113 -0.52248 0.01518 -1.11778 -0.94974 1.18884 0.86446 0.63966 -0.05444 0.7243 -1.70208 -0.33054 1.0598 -0.8041 1.0598 -0.30952 1.16124 -1.00528 0.3826 -0.5794 -0.46204 -1.45578 -0.75208 0.42734 -0.7954 0.73912 1.908 -0.64162 -1.48016 -1.73316 -0.06722 1.10758 0.9858 0.2694 1.65428 1.81746 -1.48964 -0.70396 1.76996 -0.63734 -1.18984 -1.77608 -0.5433 0.82744 -0.00524 -1.04548 1.11992 -1.32044 -1.9694 1.43362 0.57682 1.00432 -1.21642 0.73086 0.83372 -0.33292 -1.77042 1.58784 1.6776 0.31112 1.28082 -0.49394 0.11982 -0.3213 -1.20848 -0.80968 0.68364 -1.2096 -0.45838 1.24232 -0.81988 -0.13482 -0.77524 -0.98008 -1.38958 -0.68598 1.0875 0.42046 -1.56742 -1.74992 1.6192 1.22844 -0.67224 -0.9138 -0.30998 0.92846 0.32398 -1.74506 1.43566 -0.0128 1.58786 -1.0775 -0.38158 -0.54116 0.08184 1.30408 0.1041 1.778 0.03592 -1.19558 0.27088 0.3295 1.13794 -1.21172 0.2535 -1.28838 -0.22046 1.76366 0.12042 -0.4803 0.57956 -0.1909 1.15526 1.42752 0.6919 -1.94762 -1.82172 -0.9664 1.98868 -0.13696 0.86634 0.42868 -0.64526 1.55442 1.65444 -1.7424 -1.75324 1.76592 0.93808 -0.69368 1.20992 1.3095 -1.61546 1.62814 -0.0208 -0.71032 -1.90952 -1.46052 0.8327 -1.02162 -0.8511 0.56032 0.13452 -0.08406 1.40762 -0.22124 -0.23276 0.19088 0.76692 0.02946 1.1258 -0.92952 1.7893 -1.82714 -0.06192 1.84218 -1.02524 1.58352 -0.86618 -0.00412 -1.53514 0.01362 -1.17442 -1.18592 0.30976 1.27006 -0.57544 1.5271 -0.55168 -0.59778 1.96188 1.6388 0.20088 1.0103 -1.28586 -1.694 -1.70584 1.43878 -1.85322 -0.12432 0.49034 0.05586 -1.001 -1.0914 0.18052 0.13942 1.52018 -1.78834 -0.30994 0.137 -1.68508 -1.49304 1.40566 -1.16318 -1.4865 1.13526 -0.26526 -0.67958 1.60616 -1.86244 -1.64582 0.24012 -1.25744 -0.6353 0.06756 1.487 0.8696 -1.221 1.4587 -0.36794 1.548 -0.46402 1.43672 1.25812 1.50552 0.40898 -0.98538 1.91696 0.63354 -1.82966 1.74986 -0.7871 -0.16296 1.3113 -0.91272 1.45492 -1.76688 -0.63594 0.49678 -0.42114 0.57126 0.97374 1.8326 -1.99078 -0.4785 -1.74978 -0.6867 1.6343 0.84104 0.69352 1.26982 0.74116 -1.24706 -1.94202 0.58898 0.77894 -0.92978 -1.85248 -0.66872 0.10452 0.12064 -0.18224 0.68686 1.43582 -1.61232 1.14128 -1.59694 -0.56876 -1.7226 0.61262 1.25386 -0.49448 0.28222 -0.12018 1.06078 -1.42574 -0.29664 1.4275 -0.26338 1.2553 -0.90432 -0.61968 -0.9241 1.94002 -1.09948 -0.99132 -1.54006 -0.22094 -1.2777 0.30834 0.3847 -1.91442 -1.96724 -1.60776 1.45822 -1.2465 -1.71314 -1.60322 1.62152 0.3802 1.84714 1.88204 1.35688 -1.7716 1.43964 -0.23572 -1.54106 0.8731 -1.00282 0.01472 -0.92444 -0.3573 0.4109 0.07598 -0.99116 -1.25968 -1.25816 0.74684 0.53528 1.37898 0.68132 0.624 -1.29108 -0.03096 -1.77208 1.16828 -0.52724 -0.11004 0.4216 0.30728 -1.7126 -0.69342 1.80598 1.3564 1.40814 -0.78638 0.02342 -1.1525 -1.49964 1.13624 -1.45026 -0.41318 -1.21812 0.70758 -0.76722 -1.258 -0.32534 -0.04322 1.3834 0.7179 -1.98836 -0.45998 -0.13852 -1.75748 1.69886 -0.77686 1.1731 -0.61216 -1.99954 -1.72864 -1.70848 0.56896 -1.5485 0.68988 -0.2727 1.76896 -0.1633 1.0545 0.66782 1.7952 0.71688 1.89434 0.24646 1.39904 0.82924 -0.9055 -0.15788 0.00134 -1.26376 1.48592 -0.5064 1.51596 0.50654 1.7037 0.29564 0.74738 1.4451 1.56346 1.65752 0.185 0.0405 -1.36442 -1.15298 -1.771 0.8447 -0.01922 -0.86468 0.09198 -1.01974 -0.53618 0.90528 0.62016 1.28896 1.5882 -1.999 -1.88272 1.29354 0.46242 -0.58672 0.60436 1.38102 -0.82824 -1.34842 -1.48546 0.77776 -1.22446 -1.9376 -1.25222 -1.60576 0.97992 -1.67616 0.27324 1.39696 -1.5172 -0.24532 0.0813 1.0473 0.01746 -1.44566 -1.15156 1.95916 1.75012 -0.97894 1.27242 -1.41936 0.87342 -1.773 0.91834 1.70268 0.17834 1.45382 -1.01732 0.15016 -0.94684 0.80398 -1.13126 1.98398 -1.66752 -0.54878 0.06914 -0.08164 -1.61248 -0.30226 0.00034 -0.86004 -1.36798 1.2232 0.80614 -0.1665 -0.08032 -0.93002 -0.72392 -0.09194 -1.43518 0.6452 1.63088 -1.84932 -0.62086 1.9339 1.90432 -1.45146 -0.85596 -0.9549 0.21588 1.52608 1.34116 -1.87694 0.3438 -0.32118 -1.11406 0.0973 0.71482 -1.43378 0.48518 0.93006 1.57162 0.05238 1.02072 0.13246 1.9486 1.65022 -0.57916 -0.91516 -0.21702 -0.89164 0.17774 1.0746 -0.41466 0.40794 1.17308 -1.28194 0.60482 -1.60144 -0.4531 -0.4794 -1.22568 1.34242 1.48184 0.47424 -0.2012 -1.49104 -1.12062 -0.87268 -1.05246 1.82238 0.35514 -1.29016 1.42288 -0.36524 1.07356 -0.42152 -0.87006 1.24668 1.98528 -1.7459 1.12768 -1.94082 1.2621 -0.89248 -0.65168 -1.73346 0.53772 1.93584 0.50572 -1.83212 1.49246 0.31624 1.01932 -1.03544 0.15574 -1.77082 0.57052 -1.45354 -1.66634 1.43964 0.77082 -1.70648 -1.8627 -0.0394 0.7532 -0.5321 1.65172 1.95058 1.33438 -0.4054 1.5881 1.35814 -1.58672 -0.7072 0.3929 -1.28488 -1.91968 0.37432 -0.87408 -0.46776 -0.02878 -1.05646 0.62158 -1.22034 -1.6701 -1.96112 -0.30948 0.4583 1.479 0.84436 1.00794 -1.41654 0.913 -1.45436 -0.51674 0.83414 1.92188 -0.69852 0.3543 1.88042 -1.38518 0.58714 -1.39854 -1.08888 -1.42024 -1.86568 -0.09704 -0.27348 0.57166 -0.5594 -1.85114 -1.8038 1.42054 0.8014 -0.5316 -0.17272 -0.32806 1.35762 -0.3693 0.71432 1.77738 -0.8066 -1.52844 -1.51 0.58664 1.00462 -1.55486 1.86764 1.80952 1.55874 -1.20678 0.77884 -1.98 -0.7545 -1.08258 1.38408 -1.65792 -0.28954 -1.80012 -1.80442 0.13592 1.964 1.88664 0.0384 0.6955 0.81174 -0.83708 -1.88842 1.07722 1.65598 -0.8378 -1.43576 1.67076 1.63996 -1.89696 1.42142 0.11558 -1.88856 0.32448 -0.42486 1.68918 0.03532 -0.08302 1.0129 -1.35264 -0.62998 -1.8238 0.17504 -0.11602 0.08432 -0.51482 1.96146 1.15774 -0.56488 -1.4216 1.81336 -0.69326 0.43314 -0.2055 1.7749 -0.1583 -1.66646 -1.2096 -1.84648 0.39654 -1.77104 1.10806 -1.61998 -0.85754 -0.50402 -0.7315 -1.76936 1.38598 0.62474 -1.4936 -1.8994 0.047 -1.12626 -0.60898 -0.67454 0.63552 0.98786 0.22758 -1.0071 0.17078 -0.79928 -0.5935 0.23564 1.06156 -1.71034 0.11466 1.68242 0.31692 0.54958 1.73342 1.35562 -0.7551 -0.23656 -1.38364 -1.5816 0.26194 1.79616 -0.96742 -1.612 -1.1842 -0.74546 -1.42452 -1.467 -1.07128 -1.5222 -0.23364 -1.567 -0.95788 -1.53098 -0.86064 0.85382 0.10594 1.79748 -0.01728 -0.8042 0.82246 -1.12758 -0.68154 -1.14722 1.3813 -0.41394 -0.08628 -1.1636 0.8913 -0.84924 0.85568 -1.71646 -1.74262 -1.02738 1.06352 0.83936 -0.04472 -0.16042 -1.82292 -1.08376 -1.37476 -1.1265 -0.6931 0.58376 0.5233 -0.31834 0.64028 -0.15212 -0.5898 -1.12042 -0.75032 -0.5526 1.78072 1.42054 -0.40408 -0.61048 0.4777 -1.82022 -0.99332 1.22972 1.34082 1.73908 -0.3583 1.77794 -0.3779 -0.5172 -1.8244 -1.9305 -0.5945 0.29998 -1.10146 -1.73366 1.6204 -0.93352 -1.42944 -0.05106 1.5655 0.73468 0.32948 -0.30036 0.94576 -1.93418 1.42618 0.0117 1.90108 -0.59174 -1.49718 -1.16318 1.37668 -0.32602 -1.63834 -0.22452 -1.1671 -1.05266 -0.42458 -1.11386 1.2318 -0.47106 -1.03836 -0.95952 -0.49396 0.57078 -1.55764 1.11022 1.98104 -1.01668 -0.173 0.71422 0.84998 1.64696 -0.176 1.743 -0.1497 1.30704 -1.71606 1.27498 -1.6871 1.62998 1.87686 -1.78616 -1.02004 1.33878 -1.3072 1.73152 -0.0617 1.12306 1.43344 0.67304 1.49104 1.6844 0.71714 0.03654 -0.22696 -0.71102 -1.80642 -1.62502 1.62346 -1.68406 0.03066 0.91774 1.58126 -0.21142 -0.01318 1.7297 1.84998 -1.38134 1.92516 -0.47414 -1.33662 0.30042 -1.42676 1.6018 -0.34794 -1.2522 -1.93948 0.16726 -0.12202 -1.28916 -0.8281 -1.14204 -0.45012 1.15394 1.22316 1.16558 -1.07018 1.78744 -0.03004 -1.43868 1.11344 1.90896 1.65152 1.99694 -0.40068 -1.04088 -1.36742 1.19136 -0.64804 -1.03692 1.88154 -0.68036 1.19788 -0.09244 0.00964 -0.80938 1.11116 1.11534 -1.61554 -0.97478 -0.77154 0.02632 0.49698 0.9126 1.14404 -0.82732 -0.63214 -1.5727 0.5654 0.82124 0.79988 -1.93748 0.64868 1.36384 0.4124 -1.2456 0.6489 -1.42372 0.00246 -1.30706 -1.88478 -1.13086 -1.18472 -1.08512 -1.1707 1.85224 -0.33994 1.6423 -0.8557 0.03254 -1.9456 -0.18554 1.40298 -1.05528 1.33284 -0.91288 -0.58802 -1.2611 -1.1471 -1.57336 1.59126 -1.79474 -1.37406 0.5307 0.16318 1.81902 0.67094 1.83404 1.49516 -0.74478 0.5417 0.53488 -0.88714 1.69152 -1.09 -1.6407 -0.78898 -0.41792 0.0833 1.29178 1.5126 -0.27446 1.283 -1.46714 0.76682 -1.01458 -1.34048 -0.29604 -1.96902 -0.67474 1.34242 -0.09 1.72336 -0.42418 -0.89832 1.90994 -1.75682 0.28458 0.75168 -0.98972 -0.8187 -0.17398 -1.85286 1.88906 1.49084 -0.48048 -1.29842 1.71144 -1.96528 0.97354 1.8761 1.82988 0.65558 -0.43888 -1.08598 -0.13428 -1.07774 -1.90692 1.76386 -0.82224 1.15948 -1.03302 1.80304 0.16988 -0.0872 -1.3683 0.8115 1.53704 0.58982 -0.99996 -1.8839 0.92644 0.8304 -0.92698 0.11046 -0.31342 -0.42162 1.39394 -0.958 -0.7527 -1.71618 -1.05192 -0.33078 -0.94256 -0.55084 1.51254 1.2544 0.16222 -1.33822 1.23596 0.98768 -1.8499 0.5207 -0.4261 -0.1492 -1.7857 0.02298 -0.02274 -0.02376 0.85912 0.708 -0.83546 -0.8784 1.03466 0.85742 -1.05034 -1.00052 -0.41744 1.45064 1.22744 -1.71268 -0.47168 1.05106 0.51656 -1.10606 0.21138 1.29774 0.74558 -1.2793 0.40024 -0.6227 -1.35074 0.87524 1.35386 0.01236 1.966 -1.59428 -0.74352 1.22222 -0.10384 1.6636 1.6011 -0.58232 0.18288 0.5393 1.11926 1.82646 0.63456 0.20002 -1.5005 0.51306 -0.32816 0.71158 -0.56566 0.94862 -0.54066 -0.90098 -1.99588 -1.32006 1.6394 -1.08346 1.27738 -0.74344 1.576 -0.51818 0.05872 0.28928 -0.23226 -0.97772 0.8914 -1.45608 1.74298 0.36034 -0.44552 1.56384 -1.31378 -1.88936 -1.13182 1.97726 -0.22532 0.38492 -1.33682 -1.45446 -1.7788 1.88718 1.70544 -0.06232 -0.5591 -1.59476 -1.447 0.86698 -1.59842 -1.42348 1.5828 -1.0204 -1.6138 0.34454 -0.15834 -1.29896 -1.51944 -1.17004 0.0587 -0.38774 1.30862 1.95556 0.77006 1.3115 -0.84292 -0.1295 0.2624 -0.6513 -1.76918 -1.97314 0.90526 -0.74554 -1.74664 0.73182 -0.96466 1.6888 -0.22364 -1.87896 -1.15162 -0.63752 -1.53072 -1.97558 -1.85768 1.16646 0.77752 -1.42514 1.17762 0.34166 0.26896 -1.83286 1.49668 -1.0553 -1.6738 1.0509 -0.76308 -1.73438 -0.8829 -1.60606 -1.21942 1.57038 0.14284 1.2043 0.63614 -1.62528 -0.32876 0.32834 -1.27376 -0.34562 -0.69082 0.15286 0.92466 -1.64048 1.98158 -1.30378 -0.85702 1.28418 1.81324 1.6036 -1.46602 -1.41778 0.69288 1.92072 1.07972 -1.93632 -1.46984 -0.03944 -1.07176 -0.79756 -0.50512 -1.23028 0.5717 -0.61758 1.34044 -0.722 1.21964 -0.73504 -0.61174 1.7676 -0.5048 -1.55084 1.8486 -0.47676 -0.96752 -1.8839 -0.75752 1.13716 -1.03688 1.62998 -0.09208 -0.04728 -1.54762 -0.4865 1.85996 -1.80166 -1.1225 0.22212 -1.87544 0.57246 1.84454 1.71066 -0.59992 1.52378 -1.84052 -1.46054 1.58114 -0.45776 -0.98092 0.70356 -0.52344 1.87802 -0.10408 -1.95436 0.10838 -1.9152 -1.26638 -0.83036 0.88822 0.96362 0.8212 -0.607 -1.00256 -0.70176 1.29452 1.54216 -1.68268 -0.94182 -0.47756 1.14208 -1.59952 -1.00248 -0.85962 0.8158 1.92304 -0.21548 1.04906 -1.6752 -0.63626 -1.507 -1.46506 1.70022 0.11808 0.25954 0.15342 0.0299 -1.9432 -1.59326 1.40512 1.77514 1.46472 1.70786 1.33388 -0.83906 1.75124 0.45154 0.71322 -1.89816 -1.77074 -1.38268 -1.77788 0.52296 -1.98022 -0.12302 0.30306 -1.52096 0.73762 1.0801 -1.87742 -1.67616 -0.96426 -1.5912 1.80588 0.3952 0.42868 1.12096 1.2749 0.7379 1.14482 -0.73538 1.48534 1.91058 -0.34694 -0.25272 1.67734 -1.30738 -0.33638 1.97944 1.06454 -0.5285 1.0713 0.94722 -1.90446 -1.25358 -1.72912 0.01198 1.68044 -1.75892 1.95646 -0.32564 1.29226 -1.02332 -1.71586 1.08126 0.7394 1.05592 1.90196 -1.06134 0.73226 -1.36972 1.17662 1.97532 -1.043 0.96462 -0.86804 -1.68848 -1.13012 0.27248 0.19964 -0.38958 0.81542 0.75818 -1.98446 0.65108 -0.74746 0.0885 -1.68676 1.05944 0.12432 -1.58332 1.44052 1.0338 0.78142 -0.52956 -0.02764 0.50864 1.62644 0.5718 1.00786 -1.3786 -1.20934 -1.27506 -0.75284 0.43426 0.29486 1.09596 -0.0098 -0.8691 1.61444 1.95934 -0.85792 -0.59206 0.04144 0.34602 0.85894 -1.46594 -1.03886 -0.36694 -0.17128 -1.3491 0.74266 -1.1575 0.81434 0.31556 -0.81026 -1.85718 -0.80612 1.48656 -1.00774 0.62332 -1.31492 0.29808 1.26462 -0.42178 -1.18024 0.09046 -0.48898 -0.41874 -1.64378 0.15656 -1.9017 1.18234 1.445 0.16498 1.27458 0.03256 -1.00764 -1.5646 0.6115 -0.56172 -0.4525 -0.00662 -1.25694 0.35696 -0.12126 1.94814 -0.0894 0.93158 -0.7555 0.15204 -0.09792 0.50362 -1.86138 -1.00888 1.27424 0.844 0.14332 -1.5368 -0.47376 -1.23152 1.02304 1.37986 -0.72318 1.67216 -1.44742 1.5603 -0.6025 -1.35066 1.04096 1.15718 1.15044 -1.24154 -1.12494 1.55398 -0.9242 0.6917 -0.445 -1.09236 1.69948 -1.1284 -1.82016 0.57942 -1.66326 0.20418 -1.74554 -0.40534 1.04372 0.45386 0.89072 -1.56942 1.88924 -1.47086 0.90914 -0.157 0.41524 0.16762 -1.28346 -0.9291 -0.19564 0.31842 0.55064 -0.73874 1.89062 0.08732 1.00158 -0.8564 -0.37144 -1.41536 1.9153 -1.41746 -0.71102 -0.76434 -1.23628 -1.34536 -1.41138 -1.55638 1.0431 1.07264 1.41768 0.95792 -1.48342 0.94364 -0.2414 0.61038 1.26792 0.6213 -0.1507 1.03204 -0.86126 0.90818 -0.02484 -1.5159 1.10326 -0.61896 0.32096 0.91858 0.6888 0.24942 1.20258 1.11084 1.96608 0.45906 0.53854 0.30818 1.14158 0.65356 1.7654 0.2545 -0.74562 -0.0284 1.1245 -0.35612 -0.3468 0.84644 -0.19818 1.607 1.50264 -0.71978 0.81938 -1.61974 1.29428 0.59652 1.44588 -0.99288 0.60738 -1.19514 0.1324 1.38268 0.33366 -0.32998 -0.24518 -1.20632 1.87006 -1.69318 0.99182 0.0575 -1.59492 1.45042 1.46878 -1.38564 0.85588 1.59478 -0.22234 1.16712 1.78366 -1.66874 0.8309 -1.7432 1.5792 0.71394 1.41594 -0.59144 1.43002 0.8223 1.81654 -0.63044 1.01316 -0.4686 1.7008 0.33672 -1.47884 -1.61728 1.92084 1.58434 -1.78322 0.33082 -0.22618 -0.65364 1.85462 1.74432 1.2019 -1.9478 -0.18856 0.20502 -0.47562 1.6995 -1.18114 -1.72124 -0.77654 0.2761 -0.02604 -0.12442 1.80346 1.6197 0.25408 -1.65376 -0.63636 -0.95226 -1.50972 -0.37776 1.04432 0.87366 1.74962 -0.86794 -1.9068 0.47314 1.67394 0.1933 0.95032 -0.54718 0.55744 -0.51548 -1.59782 1.83488 1.51204 1.36374 1.5971 -0.775 -0.70208 -1.88296 -1.4493 0.7344 -1.69206 -0.57532 -1.63726 0.64558 -1.42074 -1.69888 -0.66974 1.87052 -1.03282 -1.27394 -1.14392 0.23236 -1.30002 -1.67178 -1.69742 -1.32062 0.11182 1.05122 -1.97446 0.62554 -0.67158 1.77062 1.71866 -1.51058 -0.52662 1.96856 -1.89234 0.89032 -1.25086 -1.86136 1.7498 -1.62678 -0.92846 -1.69008 0.56572 0.32492 -1.2307 -0.5524 -0.10612 1.37282 -1.13698 1.07978 -1.51436 -0.16864 -1.37156 0.16982 1.1349 1.1838 1.06114 0.91772 1.11318 0.2467 -1.9085 -0.07486 -0.59404 -1.4627 -0.29398 1.8733 -0.82782 -1.38932 -1.80656 0.43992 1.12138 -1.17148 -1.02374 -1.51714 -0.8392 -1.60996 -0.2375 -0.02236 1.91006 -1.3358 -0.84268 -1.3473 -0.2375 0.24864 1.28496 -0.11272 1.86098 1.30356 -1.16634 -1.07614 1.82916 -0.1686 -0.97456 -0.4969 -1.7183 1.1464 0.90394 0.0284 -1.3811 -1.104 -1.72458 -0.71682 1.17938 0.4231 1.95838 1.6571 -1.1449 -1.85442 -0.991 0.74484 -0.5787 -0.9165 1.00766 0.44896 -0.91064 1.4388 -1.83738 1.15732 -0.74766 1.81872 -1.98768 -0.1314 1.77702 1.26958 0.61074 -0.71002 1.80308 1.47314 -1.79886 0.01438 -0.51392 1.73408 -0.64126 1.01404 -1.61124 1.87414 -0.52668 1.3394 0.29024 1.62784 -0.96782 1.7154 0.29456 0.0888 1.50254 0.74566 0.82374 0.57648 -1.58626 -1.1571 0.98378 1.74662 -1.22394 -1.19984 -1.11632 0.4068 -0.49384 1.9098 1.81234 0.6684 1.85402 -0.61804 1.94442 0.9946 -0.74126 -0.3128 1.72476 1.9936 0.06018 -0.78478 -0.03454 -1.1768 -1.13294 -0.37552 0.78654 -1.70308 1.57404 -0.31178 1.76702 1.86508 0.46622 -0.77342 1.05938 1.35822 1.0306 -0.26056 0.95802 -1.44144 0.13036 -0.01806 0.36798 -0.43648 1.52704 1.62182 1.77382 1.6502 1.77096 1.29994 -1.16996 -0.18468 1.02088 0.83014 -1.48372 1.19852 0.87742 0.16056 0.87956 1.15158 0.0136 -1.41324 0.83276 1.81792 -1.85724 1.94726 -1.79784 0.62742 0.32256 -1.4138 1.964 1.51928 0.72918 1.16618 -0.13678 -1.92176 0.84722 -1.59806 -0.70384 -0.75478 -0.14936 1.13632 -1.47406 -1.72592 -1.14184 -0.04832 -1.15582 1.63608 -1.2897 1.86086 -1.5192 -1.12998 0.85988 1.80642 0.54496 -0.4564 1.14918 0.55004 -0.57926 1.57976 1.41964 -0.85362 -0.67236 1.18476 1.33594 -0.68926 1.08614 1.8547 -1.0331 -1.56196 -1.64872 0.47546 -1.1356 -0.36568 -0.69908 0.87726 -1.9392 0.55866 0.95974 0.19108 1.10308 -1.43392 -0.08288 0.46168 -1.89462 1.09396 -1.3406 0.92274 -1.37878 -1.68038 -1.07096 -1.70282 0.9812 -0.28362 -0.17444 -1.29574 -0.19132 -0.65882 -1.06186 1.5474 0.86554 -1.01052 0.66918 -1.72774 1.50956 0.00532 -1.99438 -0.77444 0.5055 1.66768 -0.5172 -1.40948 1.59028 1.22966 -1.52332 0.85356 1.22926 0.86594 1.07936 -1.75802 -1.34866 -1.83662 1.23346 -1.35274 1.50898 -1.9459 1.49426 1.148 1.80874 -1.40336 -0.93142 0.7196 -0.3795 1.41232 1.32552 0.1136 -0.10312 -0.35516 0.95212 0.10006 1.08834 1.43382 -1.58278 -1.04648 0.83682 -1.66148 -1.29312 1.75152 -0.7603 0.97198 -0.525 0.94272 0.26182 -1.30384 0.89606 0.70214 -0.244 0.0219 -1.23674 1.45546 0.51106 -1.1424 -0.5832 -0.09114 0.5991 0.76318 0.97 -1.82206 1.90412 0.36306 -1.04332 -0.4156 1.91382 -1.02072 -0.84638 -0.7825 1.74614 0.27992 -0.18956 1.17046 1.3472 1.74272 -0.0917 -1.16326 1.12164 0.12584 -1.54224 -1.07566 -1.48374 -1.37662 -1.64242 1.87498 -1.11844 1.49664 1.589 0.23072 0.01702 0.50836 0.35442 -1.92638 -0.63148 -1.47106 1.8474 0.87664 0.0153 1.89058 1.0289 -0.71748 1.54252 -0.32146 0.956 1.47606 -1.78856 -0.4072 -1.89174 0.76832 0.9493 -1.41996 0.7872 -1.52674 0.30542 0.04564 1.66168 1.28074 0.00546 -0.9183 -1.29718 -1.58284 -0.60972 0.9229 1.20048 -0.76224 1.9255 -0.26318 -0.19806 0.81826 1.8953 1.03164 0.82144 1.23106 1.09692 1.17522 -0.6182 0.83772 -0.33262 -1.11848 1.66352 1.28874 1.38836 -1.17934 1.28142 -0.56304 1.72116 -0.11886 -0.23182 1.32286 -1.13274 -1.43334 -1.12884 -1.0664 1.18774 0.61172 1.89224 -1.38038 0.47804 -0.28178 1.55056 0.47462 1.79086 -0.71 0.873 1.91764 -0.2414 1.55614 -0.62368 1.1302 -1.33616 -1.17606 -0.38664 -0.87606 -0.58182 -0.58592 -0.9712 -1.43038 1.64148 -0.23648 -0.4834 0.04434 1.96862 0.47906 -0.04902 1.32864 0.16048 -0.11216 -1.9567 -1.51482 1.28298 -1.23782 -1.64034 1.94914 -0.66906 -0.8111 1.49788 0.09836 -0.05236 1.36376 1.67834 -1.83498 -1.49518 0.63798 0.659 -1.9567 0.95328 1.7472 1.51542 -0.22634 -0.41708 1.32262 -1.02186 -1.28548 -1.79838 -0.49378 0.50598 -0.68822 1.339 1.54434 -0.24284 1.87076 1.51282 -1.10888 1.8472 1.90166 -1.53572 -0.3358 1.793 -1.77074 -0.08382 0.93042 0.62196 -1.7223 0.08516 -0.64842 -0.46048 -0.66936 1.82006 -0.09232 -1.62466 0.41326 0.3724 0.26962 0.90226 1.96034 1.78404 1.64512 1.74752 1.82472 0.68292 0.18608 0.75934 0.40328 -0.3934 1.80758 -1.34782 1.61368 0.79076 0.75734 1.579 -0.71092 1.9542 1.28614 1.85746 0.65248 -1.29936 -1.29958 0.62936 0.85002 1.96668 -0.82468 -0.50828 -0.5687 1.16898 1.34388 -0.50166 -0.75682 -0.01114 1.88686 -1.8824 -1.18084 -0.08334 1.96826 -0.45366 1.7301 -1.82894 -1.78134 0.6711 0.27758 -1.30062 -0.07416 0.53986 -0.9373 0.32868 1.08626 0.45904 1.08626 0.41216 -1.75024 1.25968 1.0836 -0.98424 -1.10252 1.85802 -0.49242 -1.30566 -0.67196 1.2343 0.2627 0.30922 1.40898 -0.3752 0.9039 0.63972 0.75984 1.3724 1.98594 -0.26022 -1.87266 0.4814 -1.51802 0.0293 -1.64822 0.15062 0.04084 0.63546 -1.57098 1.10262 -1.91728 -1.11516 0.41208 0.83102 -0.26092 -1.37284 -0.966 1.8034 -0.98082 -1.88978 -1.96124 1.03576 0.84302 -1.01564 -1.5916 1.96834 -0.7096 -1.69898 1.63596 0.42296 1.56884 1.71386 0.4731 -0.65354 0.2848 -0.23166 0.7777 -0.94572 -1.33602 0.74684 -0.18282 0.87212 -1.73468 0.2254 1.15156 -0.62214 1.89714 -1.42206 1.8857 0.27674 -0.39428 0.95644 0.35322 1.8757 -0.29898 -0.90842 1.63836 1.49762 -0.3791 -1.61658 -1.13978 -0.2602 0.9995 0.00604 1.53376 -1.63114 0.41172 -0.9344 -1.4538 1.97072 -0.15056 1.9797 1.1394 0.27232 0.29304 -0.83338 0.77044 -1.38238 -0.16722 1.03052 -1.9288 -1.28756 -1.5847 -0.6408 -1.18278 -1.3876 -0.63938 0.5974 1.64542 -0.80678 0.12996 1.28008 1.43338 -1.71946 -0.11338 -1.92262 1.87262 0.25926 0.69162 0.7827 0.96612 0.83152 -1.96826 1.91496 -1.57272 -0.37398 1.81702 -1.9191 -0.41734 -1.4656 0.32114 1.02074 -0.33518 0.59036 -1.68778 -1.85224 -0.67552 -0.35972 -0.81118 0.92136 1.00822 1.81432 -0.57984 1.35298 -0.15924 0.56936 -1.4537 0.85884 -1.61432 0.21566 -0.706 -1.48882 -0.07402 1.05006 -1.9356 -0.76034 -1.3193 -1.49966 -1.0681 1.19118 -1.20464 -0.72028 -0.98528 1.11102 0.87206 1.10922 -0.38476 -1.157 1.96832 -0.26114 0.75288 0.23232 -0.92958 1.77026 1.77448 1.15178 -0.58864 -1.32126 0.0742 -0.14208 -0.9203 -1.04184 1.6952 1.36698 1.24038 -0.19004 -0.90524 0.61476 0.52596 1.07254 1.46706 -1.17586 -1.29164 -0.00238 0.12598 -0.27152 0.7996 0.30914 -1.5191 0.73152 -1.04588 1.7033 0.89052 0.64682 1.46276 1.06166 1.44074 0.1557 1.27558 -1.08738 1.8283 -1.99806 0.42612 1.07398 0.11146 1.8372 -0.41548 -0.35228 1.87062 -0.9379 0.01444 1.00046 0.31704 -1.10422 0.2718 -0.07126 -0.47604 1.0728 -0.35574 0.046 -1.64782 1.10222 -1.80216 1.34266 -1.09622 -0.6236 0.06764 -0.95164 1.90422 -1.82128 0.3692 0.93906 1.33918 -0.38668 1.24424 1.4651 0.398 -0.36564 1.88614 0.28876 -1.85606 -0.84814 0.4385 1.41878 -1.28292 -0.04636 -0.61374 -0.00528 -1.62498 -0.46598 -0.4623 -1.63206 -1.48858 -0.77044 -1.43956 -1.27392 1.8041 1.08344 0.1702 -1.26494 -0.23044 -1.46386 -0.2565 1.6919 0.6929 1.07538 1.66128 -1.2963 -0.34848 0.80668 1.53072 1.88958 1.18664 1.35548 -0.09796 1.20032 -1.3363 -1.22096 0.62558 0.95012 1.99012 -1.9271 -1.32666 0.3702 0.641 0.00126 0.42762 0.1096 -0.94712 0.51816 1.66098 1.31456 1.46416 1.15106 -1.4808 1.6078 1.40834 0.74658 -1.27412 -0.3583 0.29236 -1.31746 -1.6568 -0.43168 0.00328 -0.35188 -0.81872 -0.84408 1.32752 -0.63988 -1.93764 1.02506 -1.54214 1.22006 -1.25506 -0.30336 1.8628 1.3733 -0.94912 -1.30838 -1.35226 -0.44834 1.65082 1.13334 1.1457 -1.78384 -1.5746 -1.96442 0.83628 0.29424 1.79196 -0.0829 -1.94686 -1.01612 -1.34224 1.30756 1.72968 1.105 -1.6331 -1.00712 -1.18002 -0.72832 0.78208 1.69276 0.4558 -1.36408 0.85668 -1.7559 0.40612 0.82254 1.74498 -1.96496 -0.3043 -1.96576 -1.00606 -1.25932 -0.96828 -0.79016 0.42262 -0.21288 -0.7773 -0.8543 0.31964 -0.96672 -0.43186 0.14524 0.9719 1.47396 0.5623 -0.56264 -0.03304 -1.24222 1.00638 -1.942 1.87164 1.37606 0.76958 1.95804 -1.32246 0.50978 -0.64054 -1.8187 -0.37056 -1.98628 0.54924 1.75692 -1.7786 -1.9811 1.98994 1.91708 0.27584 0.51982 -1.31762 0.57978 1.77016 1.67426 0.95202 -0.25122 0.1246 -1.68946 -0.336 1.38272 -0.31822 -1.03124 -1.14442 0.98718 -0.97136 -0.36232 -1.8374 -0.38214 -0.02892 -0.92634 -1.4677 1.91282 -1.57236 -0.9586 1.51624 0.30592 0.48402 -0.18878 -0.07616 0.953 1.48402 0.6452 1.16152 1.44712 -1.9246 -1.5734 -1.71216 -1.80264 -1.57598 -0.9792 -0.16656 -1.633 -1.15424 -0.02326 0.4995 -1.33932 1.15814 1.56204 0.72828 0.5837 1.85628 0.37206 -0.05402 -0.79784 -0.01248 -1.23046 0.15212 0.72876 -1.842 -1.3539 1.26474 -1.68662 0.38668 0.711 1.89868 1.03658 -0.19278 -0.59154 0.91178 -1.39798 -0.65016 1.96522 -0.80618 -1.04972 1.24022 -1.83472 1.06706 0.4509 0.54188 0.85556 1.14778 0.92198 1.08294 1.34012 1.0967 -0.88804 -1.30078 -0.04064 -0.54042 1.30584 0.27448 -0.44094 -1.96064 1.77792 -0.24396 -0.47996 -0.0197 0.13474 0.07806 1.46292 0.85344 -0.25034 -1.34974 0.12624 -0.76614 1.89106 -0.82178 -1.0043 -0.03808 -0.17778 -0.29752 1.70122 -1.81314 -0.69756 -0.50168 -1.65724 -0.76956 1.04654 1.6143 0.7867 0.33736 1.84786 1.94886 1.60592 0.32754 1.79076 1.92586 -0.5841 1.19422 -0.27984 0.18498 -1.0677 -1.62716 1.07896 -1.9979 -0.6019 0.27172 -1.04332 0.10626 1.20562 1.93372 1.7035 1.99742 1.63734 -0.39664 0.57326 -0.6278 0.7369 0.2796 -0.58674 -1.7104 0.93374 0.52044 1.29134 -0.87444 1.00558 -0.1992 -0.95568 1.79868 -0.55692 1.9652 1.76232 -0.19854 -1.75826 1.63724 -1.22984 1.32836 -0.8921 -0.69966 -1.89978 0.07104 -1.72626 -1.05972 -1.59134 0.85298 0.63384 1.85042 -1.6885 0.00254 1.75428 0.41856 -0.81106 1.1363 -0.21906 -0.56944 1.25122 0.41186 -0.91852 -0.04662 -1.0035 1.59728 -0.77262 -0.842 -1.33682 1.24042 -1.8286 -0.09798 1.75566 -1.9999 -1.1668 1.24488 -1.7357 -0.56344 0.17936 1.34222 -1.98414 -0.00654 0.11176 -1.56164 0.4917 1.15514 -0.51072 1.04176 -1.9556 1.02452 0.77624 -1.37398 -1.9795 0.81118 -1.61398 0.3583 0.24688 1.1545 -1.69618 -1.49708 -1.15636 1.11574 -1.7229 -0.83176 0.68158 -1.26818 -1.90524 -1.6886 -0.83066 -1.49062 0.15424 1.75238 -1.04308 0.43872 -0.5853 -0.74224 -1.69992 -1.35688 1.46168 -0.15866 0.10798 0.1856 -0.88642 -0.36136 -1.53584 1.54538 -0.1185 -1.05552 1.61408 0.47488 -1.002 -0.89022 -0.86726 -0.32356 0.49858 -1.0999 -0.28364 -1.05648 -0.24324 -0.24012 1.06038 -0.82212 -0.12758 1.535 -1.12974 1.02386 1.66908 -0.41822 -0.60352 1.12826 0.0582 -0.39626 1.69282 0.46246 0.39492 0.65802 0.00214 0.63844 -1.29594 1.1362 0.8503 1.15028 -1.30268 0.69444 1.51138 -0.95554 0.61964 1.28048 1.94012 -1.48542 1.54138 1.35656 0.88634 -0.29822 0.78096 -1.0699 -1.68682 -0.42142 -1.23162 -0.5597 1.87628 -1.7003 1.54798 -1.51418 -1.58332 1.39426 -0.58304 0.67026 1.2815 1.84056 0.89796 1.0779 -1.76056 0.62056 0.90958 1.9101 -1.51944 1.17796 -1.9764 1.8258 -1.5958 -1.6114 -0.35834 -1.11812 1.58686 0.70162 0.71738 -0.00898 1.6815 -0.53518 0.34482 -1.57644 -0.12994 1.26374 1.2599 0.55058 1.60228 -1.78852 0.27776 -1.88288 1.62748 1.94936 1.99896 -1.90044 -0.38338 -1.53654 1.11712 -1.73422 0.7922 0.87084 -1.55048 -0.8648 -0.44504 -1.05742 -0.96392 1.48766 0.65804 0.66608 -1.10106 -0.28496 -1.32314 1.42594 0.98876 -0.18334 -0.50428 0.47438 -0.79216 -1.02432 1.36066 -1.64102 -1.6922 -1.73094 -1.0998 1.90648 -1.8017 -1.54516 -1.61038 -0.4579 1.26526 1.12338 1.5845 0.4516 1.19882 -1.18936 -0.9847 -0.79038 0.8686 -1.07254 0.22766 1.77222 1.89252 -1.06382 1.31254 -1.4373 1.44024 -1.79846 -1.0394 0.1823 0.60382 1.14222 1.2556 0.14142 -1.0949 0.4332 0.56302 -1.81956 -1.76502 -0.35154 -1.25574 -1.41876 1.09804 -0.88406 1.4008 -0.22444 0.13052 0.22526 -1.7729 0.17812 -1.19864 -1.7139 1.60576 -1.71964 0.74802 1.58842 -1.53356 1.37162 -1.04348 -1.6625 -1.53378 1.99676 1.49422 0.20732 0.93826 -1.87696 1.86776 -0.55692 -0.45352 -1.23438 0.2476 -1.16516 -1.02538 -0.77986 -1.8168 -0.3536 -1.32582 0.77658 -0.46464 -0.46304 0.43216 -0.78502 1.97442 0.78248 -0.61906 0.31772 1.53644 0.97524 1.39338 -0.68332 -0.03326 1.1914 1.22392 1.89748 -0.81778 -1.25252 -0.913 -1.10928 0.17766 1.27776 -0.09222 -1.31256 -1.32124 1.46148 1.9305 1.9665 1.31148 0.38562 -1.90284 -0.89838 0.91422 -0.31014 -0.16376 1.41954 -0.09468 1.25124 -1.97768 -1.28826 -1.17364 -1.37946 -1.41342 -1.10748 0.04968 -1.7702 0.79886 1.05618 -0.38908 -0.92288 -1.9621 1.43572 -1.44062 1.78346 -1.4011 0.2576 1.62918 -0.25528 -1.4638 -1.48706 0.85196 -0.58558 1.00624 -0.8492 0.87808 0.29176 0.40244 -1.72312 -0.64484 1.80436 -0.00784 -0.06902 -1.27486 -1.62476 -1.93566 -0.44288 0.69118 -0.98474 0.63774 -1.55104 -1.3374 -1.1257 0.35558 0.23434 0.34772 -1.33858 -1.45778 1.13076 -0.90906 1.57864 1.79036 -1.83942 0.71502 1.50938 -0.14022 1.41192 -0.38572 1.43576 0.01444 1.75792 -0.17266 0.52198 -0.29898 -0.19346 1.08496 0.1069 0.71056 -1.81588 1.71912 1.04176 1.5664 0.6139 1.10698 -1.91278 1.85032 -0.02236 1.05884 -1.22812 0.80308 0.21664 -0.25046 1.27166 1.18592 -0.2235 -1.986 -0.16844 1.21596 -0.78424 0.51546 -1.3476 1.94282 1.25542 1.00082 0.87982 0.62162 0.14062 1.17328 -1.45096 1.14936 -1.75918 -0.04916 -1.64192 1.41164 0.04916 -1.98778 -0.82354 -0.9464 0.62778 1.65904 1.88212 -1.64692 -1.1576 -1.36732 1.79778 0.00836 0.55566 1.33604 1.9245 -0.20748 -0.7466 0.89092 -0.5052 -0.33134 1.06672 1.09892 -1.68902 1.61308 -1.77284 -0.5344 -0.2903 0.80436 0.5098 -0.37748 0.56224 -1.7342 -0.60854 1.86002 -0.86326 -0.23572 0.83754 -1.22204 -1.41184 -0.4433 0.63334 -1.7007 1.10042 0.62272 1.20302 -1.12856 -1.93406 0.80456 1.24876 0.7565 -0.10404 -0.65012 -1.54398 0.68942 -1.65508 0.95024 1.70124 -0.43664 -1.17356 -0.83784 -0.05066 -0.92226 -0.15672 1.21988 0.07042 1.53198 -1.3831 0.69564 0.1993 0.16022 0.95498 -1.52456 0.30274 1.9381 1.0353 0.7674 1.99848 -0.31176 -1.58996 1.3557 -0.60034 0.90514 1.5556 1.75328 1.72654 -0.78766 1.80976 0.70202 1.5151 0.1865 0.06302 -0.72584 1.9515 1.426 1.60736 -0.4444 0.45602 1.88054 -1.44772 1.67102 -1.74548 -0.6297 -1.39474 -0.91146 1.80152 -0.57948 1.04714 -1.48208 1.6541 -0.4225 0.95174 0.013 -0.8467 -0.52928 1.7625 1.04418 -0.47786 0.08998 1.49332 -1.14192 1.72222 -0.08514 1.18052 -1.98722 -1.9028 -0.3192 -1.47608 0.87674 -1.66928 -0.52032 -1.68862 -1.88206 -0.86406 -1.26098 1.10116 -1.97064 0.29986 0.46706 1.95176 0.306 0.1652 1.29182 1.04792 -0.06242 1.23476 -1.94998 -1.87916 0.48076 1.6635 -1.43684 -1.96654 -1.63398 -1.61278 1.6942 1.9488 0.33964 0.18976 -1.40754 -1.00868 0.1207 -1.1034 -1.82962 -1.8128 0.1744 -0.73388 0.83378 -1.12296 -1.58572 0.36954 1.73312 -1.25568 1.05508 0.13822 -0.8127 0.69288 -1.5696 0.86694 -0.75708 -1.222 -1.95284 -0.44006 0.04314 1.21324 1.76756 -0.55378 1.94534 1.73072 -0.55826 -1.2098 -1.2385 -0.16042 -0.29262 -0.52428 -0.16896 -0.5906 -0.0052 1.10462 -1.1265 -1.32854 -1.59904 1.17296 1.70656 -1.88878 1.93036 1.81884 -1.02162 0.2278 1.1999 -0.9987 1.5184 1.4727 -1.05318 1.81446 -1.05584 -1.43926 0.85344 -1.04288 -1.58038 -1.27182 -0.67922 1.10306 1.4353 1.62406 -0.39196 -0.10648 1.03692 -0.42066 -1.69284 1.7779 -1.30194 -0.67424 -0.00656 -1.42854 -1.62298 -1.1258 -0.14662 -0.06808 1.28288 1.9487 -1.53216 -0.28248 -1.4692 -1.55958 -0.7282 -0.7112 -1.10724 -0.10708 -1.46846 -0.7297 0.55594 -0.96232 0.68498 -1.85468 1.35066 -0.70212 1.73764 -1.91752 0.50316 0.03682 -1.21808 1.39902 -0.07936 1.42198 -1.69676 0.19262 -0.52074 -1.62466 1.43742 -1.93006 0.70736 -1.07848 -0.32576 -1.52908 -1.73968 1.60324 0.57226 0.99488 0.35226 -1.68078 -0.99924 -0.85602 -0.9522 1.03684 -0.77806 1.66038 0.64078 -0.15188 -0.77922 1.07914 -0.86346 -0.2291 1.42874 -0.75396 1.16678 -0.93118 1.79686 -0.89118 -1.86284 1.07918 1.80954 -1.4826 0.4555 -1.5384 0.56292 -0.36558 1.36342 0.21406 1.88498 1.7474 0.72562 -1.25724 -0.26978 0.18394 -0.96394 1.63792 0.3512 0.88378 0.20002 -1.35714 1.55184 1.63112 1.15454 -1.64172 0.93338 -1.06354 -0.50722 -1.5718 -0.69588 1.19148 1.80638 -0.53658 0.8577 1.27308 -1.49032 -1.51666 0.68848 -1.41382 -1.52608 1.58752 -1.70306 -1.57328 -0.03688 -0.52662 -1.6465 -1.60622 -1.95932 -0.75522 -1.79004 1.52886 0.7176 -1.08694 0.90878 1.4943 1.52732 -1.8216 -0.63716 0.0972 -0.4718 -0.37354 -1.85836 0.93522 -1.09008 -1.30652 1.94102 -0.7378 -0.11496 0.45712 -0.32574 -1.4473 -1.05058 -0.23498 0.40986 0.61248 -1.6541 1.12512 -0.332 -0.31884 -1.99522 0.5396 -1.10422 -1.75202 -1.78178 -0.22474 -1.52614 0.8933 0.55464 1.3634 1.74574 -1.66874 1.1205 -1.40872 1.05798 0.84744 1.44588 -0.63828 1.51678 -0.73038 -0.46766 1.0913 0.50874 -0.41646 1.57052 1.65726 0.57942 -1.04742 0.5032 -1.70372 1.1484 -1.5978 0.5104 1.68166 0.09242 0.9886 -1.26932 1.89364 0.717 1.13464 -1.78038 -0.95228 0.70754 0.52164 0.71138 -0.65702 -0.5678 -1.64186 0.70702 1.56242 1.1666 0.98416 1.60832 -1.60164 -1.85118 -1.08652 -1.96916 1.31224 -1.32256 -1.43906 1.19584 1.52128 -1.6099 0.25834 -1.78502 1.34352 -0.17914 1.43882 0.49884 -1.93062 0.11676 1.55222 0.64472 -1.61786 -0.95 -1.51538 -1.61626 1.9871 0.87214 0.22752 0.22504 0.22126 0.24554 0.94076 -0.87032 -1.83578 -1.20612 0.11202 1.53284 -0.82106 0.95774 -0.58156 1.2162 0.15604 1.9388 -1.30168 -1.34238 -1.5508 0.30664 1.36784 1.52212 -0.00664 -0.1407 0.63764 -0.55436 1.61436 -1.66056 1.22616 1.34834 1.6642 -1.47028 -1.95626 -1.55992 0.4499 0.3359 -1.02544 -0.72428 -0.55068 -0.87134 -1.94924 0.54964 1.70882 1.90598 -0.6801 -0.88836 -1.30168 -1.66398 -1.51132 -1.55666 -1.64834 1.827 1.93454 -0.31954 1.5043 0.7054 -1.76834 -1.63804 1.6079 -0.5049 -0.48468 1.82478 -0.43228 0.76366 1.86862 -1.3508 0.91398 -1.02166 -1.23372 1.82012 0.96422 1.4226 1.20828 1.32052 0.25586 -1.1818 1.8133 0.08738 -1.46062 -0.47402 -1.25268 1.27834 1.85074 0.78282 0.99668 1.8372 -1.40482 0.36328 -1.06422 1.7445 0.10422 -1.3874 -0.3322 1.9542 1.61334 -1.77402 -1.01808 -1.05486 -1.96266 -1.32932 0.19766 1.71996 1.56972 -1.33146 -0.52088 -1.07094 -1.3813 -1.386 1.42458 0.68608 0.89208 0.14428 1.82256 0.08192 -1.25224 0.23698 1.97402 0.78488 1.76698 -1.96858 -1.946 -1.44932 -1.95744 -0.97822 -0.2841 0.35162 -0.24522 1.25408 1.70718 0.02988 1.83628 0.86816 0.05002 1.8687 1.32832 -0.97264 1.7086 1.1822 -0.6963 0.0676 1.2185 1.98118 0.9387 0.24968 -1.1476 1.95994 -1.20998 1.58588 1.20642 -0.62364 -1.74804 0.19702 -0.82186 -1.99408 -1.38334 -0.35304 1.67738 0.54794 0.95262 1.1275 1.17428 -0.63538 -1.0932 -0.6053 0.84978 -1.97608 -1.90576 1.95386 0.75358 1.7204 0.52836 -1.2082 -0.51882 -0.30062 -1.18708 -1.92718 -0.38802 -0.20714 -1.83064 -0.24404 -0.43842 0.16888 -1.95236 0.33082 -0.2221 -0.36074 -0.31 0.0441 1.25202 -0.31866 -0.65002 -0.83934 -1.77044 0.1762 0.8933 -0.14614 1.07438 -0.456 1.39988 -1.17152 1.86568 -1.16384 -1.16772 1.48602 0.84798 1.46014 -1.28418 1.47876 1.193 -1.45616 -1.96502 -0.1155 0.37856 -0.80334 -0.4341 -0.99462 -0.68304 0.57596 1.61678 -0.78948 0.33392 0.05014 -1.29818 -0.92778 0.3704 -0.6323 -1.43778 1.30498 0.80606 0.95904 -1.00158 -1.93202 0.39298 1.34088 -0.10972 -1.2746 -0.6634 -1.43838 1.48284 0.31776 -1.07656 0.21124 0.85108 0.70818 -0.35364 1.46546 0.78208 1.0329 -1.38972 -0.11208 -1.4631 -1.50158 -0.0728 0.18936 0.49454 -0.18446 -1.86568 1.76004 -0.8844 -0.51972 0.89792 -0.58918 -1.32732 -1.76604 1.5454 1.967 1.49152 1.03768 1.30636 -1.15952 1.66878 -1.24468 1.09312 -0.70098 -1.71292 -1.87734 1.19906 -0.00636 1.42586 0.90494 0.58562 -0.4707 0.6947 -1.08188 0.42212 -1.5 0.14076 -1.7964 -1.15368 -1.92526 -1.40894 -0.42346 1.446 0.00256 1.41984 1.51262 -0.46144 0.6171 1.16276 -0.32064 1.97394 1.74438 1.72652 1.76978 0.21914 1.78156 -0.59472 -1.37182 -0.09772 0.37188 0.61648 0.14068 -1.66582 0.21066 0.89464 -0.6314 0.7161 1.75454 -0.18816 1.0454 -0.17378 1.2879 0.19136 1.23162 -1.7506 0.09222 -0.69068 -0.90946 -0.12082 -1.22554 0.5841 -1.41806 0.83088 -0.2535 0.93098 0.84122 -0.19722 0.9249 0.69898 0.64054 1.0947 -0.48742 0.30132 0.47444 -0.54174 0.45038 -0.75766 -0.76466 1.1079 0.05124 -1.2035 -0.216 -1.19474 -1.88264 1.85312 -1.31398 -0.44698 -1.50512 1.52038 -1.8731 0.47224 -1.68526 0.749 -0.87218 1.78776 0.03452 1.3098 0.58766 1.27966 -1.94658 1.5658 1.7912 -0.94444 1.17128 1.95068 -1.68636 -1.01342 1.7169 -0.22664 -0.20098 -1.15014 -1.92604 -0.01736 1.82794 1.97794 -1.1999 1.77666 0.7135 -0.10662 0.24496 -0.71182 -0.69212 1.40452 0.57206 -1.8317 0.77996 0.76356 -0.8265 0.68666 1.42372 1.14056 0.65468 