-0.26566 0.88838 -0.56248 1.33252 1.46904 -1.40306 -1.01008 -1.89384 -0.38594 1.62466 -0.622 0.80562 -1.06232 -0.33474 1.80646 -1.97932 0.32906 -0.71868 -1.11574 0.29796 0.46084 -0.93524 0.04662 -0.61348 -1.31008 -1.21018 -1.74044 1.8254 -1.1211 -1.03178 -0.73062 -1.82442 1.69416 1.65456 1.30512 0.37094 0.66616 -1.4299 1.76776 1.79234 -1.3397 1.2465 1.05436 -0.60896 0.26406 -0.3672 1.18992 1.90472 0.57742 1.26446 -0.1377 -1.16724 -0.11126 -0.92922 -0.21116 -1.33044 -1.15824 -1.949 0.6426 0.6792 -1.66264 -0.83548 1.22724 -1.35418 0.35526 -0.7976 1.11144 -0.71688 0.36012 -0.5645 -0.64548 -0.24104 -0.48644 -0.9081 -0.36234 1.21432 0.01038 -1.34442 1.12244 1.05712 -0.40012 -1.64516 -0.75204 -0.38558 1.10592 -1.5634 0.28684 0.62336 -0.13428 0.63554 -0.47082 0.61514 -0.0725 -0.91146 1.45496 1.49576 -1.98076 0.40854 1.03576 -0.93836 0.52134 -0.0932 -0.45542 -0.85808 -0.09006 -1.89668 1.3192 -1.20318 1.43312 0.5745 0.65918 -1.81384 -1.07146 1.58546 -0.9207 1.98252 1.91656 -0.38718 -0.4601 -0.08134 0.91556 -1.51192 1.4174 1.72456 1.9063 0.73936 1.83146 -1.575 -0.36308 0.14188 1.19508 1.60184 -0.38018 0.0608 -1.46424 1.69308 0.81024 -1.89398 1.70446 1.00258 -0.8826 -0.51 1.19024 1.29122 1.97636 -0.657 -0.3134 0.34202 -1.99078 1.47244 1.5792 0.40642 -1.13138 -0.8829 0.14608 0.03326 0.4894 -0.18 -0.76438 1.17058 -1.72814 0.89418 1.1599 -0.70876 1.3794 1.05734 0.56634 0.86774 1.0497 -0.61378 -0.82774 1.81054 -0.09166 0.5373 -1.19876 -0.57446 -0.70218 -1.87382 1.7482 0.56328 -0.94724 -0.51056 -1.58424 0.16446 0.56266 -1.21134 0.7332 -1.4973 1.91472 0.50248 -0.79632 -1.00976 0.87038 -1.46612 0.73072 0.2232 0.3301 -0.101 1.9118 -1.081 0.77664 0.81886 1.2923 0.623 0.30018 1.76866 -1.50194 0.3313 -1.68416 -1.27948 -1.26456 0.36322 0.0718 0.67232 0.1178 0.7824 0.4784 -1.00458 0.72856 0.59074 -1.67588 0.06362 0.953 -1.4528 -1.81746 -1.818 -1.05986 -0.62556 1.80658 0.57802 1.09544 1.39882 -1.78564 0.82918 1.78662 0.2339 0.19712 -0.20724 1.86428 0.794 -1.70942 -1.59812 -1.81314 1.1942 -0.23296 0.84044 0.91844 -1.80196 0.41606 1.9483 1.7448 -0.66534 1.17044 -0.67896 -1.40514 -1.28698 1.86584 0.74508 0.44044 0.11816 0.8285 1.12362 0.52472 -0.26218 -0.37494 -0.6634 0.14884 1.2426 0.8857 1.8839 -1.41474 -1.31436 -0.86886 1.93454 0.30016 1.92224 -0.12324 1.7588 0.78016 -0.65792 -0.73644 -1.25792 0.95836 1.85826 0.83322 -0.23924 -1.77164 0.8933 0.23432 1.0736 0.36804 1.45204 1.3523 -0.2539 1.9655 -0.83306 -0.12284 0.44902 -0.43088 -1.56958 -1.3084 1.67584 -0.68766 0.53216 1.36304 1.05916 -1.79648 1.23588 1.02088 -1.32738 0.83624 -1.89296 1.96492 -0.90164 -1.14542 0.0864 -1.83476 0.66646 0.9046 1.86428 -0.89176 1.25552 -0.99174 1.81208 -0.48416 -0.86678 -0.66668 1.38502 1.96904 -0.8668 0.04508 1.42774 0.18966 0.34972 -1.34952 -0.41228 1.42974 -1.5738 -1.50478 1.77406 -0.44276 -1.00752 1.87242 -0.43832 -1.76264 0.261 1.4871 0.25394 -1.1085 -0.12092 -0.9983 1.2107 1.54442 -0.29516 1.32218 -0.56394 0.66756 -0.49976 -0.9837 0.2298 -0.27418 -1.1815 1.26684 -0.11234 0.62754 1.4085 -0.08262 -0.38482 -1.55214 1.26686 0.65666 1.73904 0.17122 1.13054 0.30704 -1.88426 1.3831 1.44658 1.57472 1.25484 -0.3539 1.07936 0.4935 0.08994 -1.8685 0.83438 1.8833 -1.5152 1.02752 1.2144 0.92016 -0.07052 1.40988 0.2654 0.04822 -1.26126 -0.27438 -0.01524 0.93412 -1.17114 -1.65638 -0.12808 -0.19394 -0.37536 1.2224 -0.73736 -0.96054 -1.58612 1.3978 1.20642 0.05296 1.22096 -0.0745 -0.23854 -1.4163 0.64646 0.32498 -0.82312 -0.24386 1.79316 1.52518 -0.56744 0.58766 -0.76654 -1.65332 -1.27284 -1.67084 1.90582 -0.9177 -0.4317 0.39012 -0.60168 -1.48756 0.74586 0.9112 1.77418 -0.7267 -1.13116 0.86754 0.86886 -0.2051 1.4694 -0.913 1.8211 -0.83856 1.6992 -1.99604 -0.3516 -0.31832 1.40176 0.41374 -1.45128 -1.7714 1.14096 -0.69634 0.91104 1.28426 -1.4274 -0.72204 0.49524 -1.06652 -0.86638 1.33156 -0.1705 -1.1837 -1.34538 0.70852 1.17964 0.85024 -1.19048 -0.62684 -0.54388 0.30934 0.88728 -0.00176 -1.94424 -1.65444 0.76654 -1.928 -1.35252 -1.27682 0.68074 0.22412 -0.31946 1.15454 -0.15862 -0.83028 -0.62852 -0.55782 -1.99986 -1.51008 -1.29932 1.59088 -1.6277 -0.06464 -1.33872 -1.86218 1.2575 1.0048 -1.49318 -1.00932 -1.17568 0.79814 -1.12784 0.0286 -1.04238 0.23938 -0.65868 -0.8573 -0.75212 0.56548 -1.4823 -1.49942 -1.36952 -0.22796 0.25274 0.9095 -0.34898 0.67494 0.9749 1.4849 -0.66296 -0.26254 0.8501 -1.68042 -1.32754 -0.13478 -0.06296 -1.0481 -0.66304 1.91792 -0.91196 1.76174 1.56518 1.6568 1.89886 1.88258 -0.64806 1.65194 0.19692 1.602 1.82838 -1.77124 -1.80572 -0.56534 1.97222 -1.79992 0.9604 0.60024 1.68262 -0.24822 0.4868 -1.41746 -1.97012 -0.9781 1.65362 1.08686 1.94804 -1.44742 -0.64388 1.09238 -1.69768 -1.61058 1.80574 -0.67006 -0.52256 -1.24406 -1.0646 -1.02634 -0.12684 0.37014 -0.44246 -0.00094 -1.522 1.3729 1.6565 -0.89174 -0.45684 -0.58456 -1.65264 -1.52764 0.90482 1.33678 -0.73074 1.58518 -0.56888 -1.4945 1.73186 0.54326 -1.99684 -1.188 1.93454 -1.20064 0.29582 1.10454 1.29966 1.43896 -1.577 0.86434 1.95722 1.21626 1.26468 -0.01328 -1.27292 -0.68752 -1.80578 -1.51226 -1.89548 -1.34304 -0.6346 0.54534 -0.45632 0.5326 -1.7948 -1.11626 -1.81246 -1.03446 1.12014 -1.77944 1.89882 -1.02808 -0.97594 0.39212 -1.0295 -0.93884 0.4356 -1.24182 1.70324 -0.62654 -1.92676 -1.78246 -1.31474 0.67882 -0.54178 -0.86892 -0.79232 -1.0819 0.6097 1.95678 1.39094 -1.05664 -1.59904 1.07488 -0.82214 -0.5422 1.2683 -0.59808 -1.40586 -0.58794 0.91698 0.3341 -1.68118 -1.79756 0.9655 0.98528 0.19218 -1.12744 -0.9838 1.66592 0.87686 1.43604 -1.2155 0.73106 -1.41628 -0.85214 -0.13992 0.86486 -0.92562 1.0741 1.67606 1.26944 0.35584 1.16334 -1.1704 0.95544 -1.42904 -0.05082 -0.78576 1.5127 -0.20716 -0.96632 -1.83598 0.29118 0.45646 -0.26088 1.8987 -1.51718 1.7133 0.47292 0.9389 -1.66488 1.90188 0.94378 -0.9201 1.9549 -1.84114 -0.3301 0.49114 -1.97 1.5977 -1.59658 -1.67248 -0.47998 -0.26402 1.64754 1.97826 -0.84454 1.37282 -1.98996 0.4143 -1.757 1.6583 -0.4965 -0.12694 -0.15682 1.272 0.49332 -1.72542 0.8446 -0.75086 -0.62274 1.15154 0.60144 -1.8648 1.34094 1.36756 1.41204 0.08342 -1.1253 0.79658 0.90106 1.45802 -0.81576 1.91498 -0.6106 -1.29386 0.644 -1.44482 0.80892 -0.23916 0.74324 -0.89 1.70326 -1.94138 0.69588 -1.3232 0.39838 -0.92928 1.23672 -1.31712 -0.33446 -0.6047 1.64654 0.78086 0.22044 -0.74814 -0.27392 -0.6152 0.39502 -1.72002 -1.43378 1.07202 0.4981 -0.78654 1.51322 -1.21502 0.47406 -0.4115 -1.51636 -0.86296 -1.372 -0.06188 -0.53434 -0.91626 0.5059 -1.73276 1.44828 0.54282 -0.56068 0.66412 -1.03084 0.34132 0.8467 -1.80818 -0.86898 -0.49424 1.81146 0.40336 -0.30548 -1.86248 0.98004 -0.74082 0.16014 0.52892 -0.80538 1.6712 0.61188 0.48978 -1.45462 -0.0891 0.20274 -1.19014 -1.41294 0.09966 -1.94514 1.72742 1.92962 0.56278 -1.72506 -0.04682 -0.19642 1.18326 1.94548 1.7309 1.3108 0.22488 -1.77468 0.30628 -1.91756 0.00746 -1.0265 -1.92932 1.89396 -1.6539 0.15698 1.36882 1.77796 0.93672 1.88912 0.8347 -0.34464 -1.04152 -0.00258 1.5284 -1.53862 -1.8407 -0.24576 -1.25296 -1.86306 -0.59642 -0.42388 -0.75134 0.12842 1.74134 0.33394 1.79678 -0.68632 0.42924 1.21812 0.96974 1.44586 -1.6944 0.40734 0.5379 -1.0626 0.13206 -1.08412 -1.75904 1.94266 -1.31396 1.94944 -1.00712 0.67366 -0.55976 -1.70218 -1.15492 -0.81418 -1.58294 1.26952 1.1515 -1.52938 1.47828 0.16932 0.67884 -1.56866 1.72482 -0.05774 -1.84738 0.01214 0.3602 0.05512 -0.65128 1.7186 -1.08062 1.38882 -0.65026 0.55114 1.4595 0.591 0.3293 1.2434 -0.48672 -1.19564 1.4509 -0.54586 -1.41678 0.575 -1.31184 1.4435 -0.51114 0.61096 -1.10338 1.15972 -1.93338 0.4991 1.96758 0.13628 1.7285 0.10656 -0.78744 -1.8102 -1.23674 0.2288 -0.41754 0.63092 0.60072 -0.72574 -0.24572 0.05142 0.94808 0.29394 -0.2737 -0.17394 -1.0598 1.90808 0.95732 0.6739 0.71842 -0.77532 1.8481 -0.85018 -0.74592 -1.29088 -1.47672 1.74922 -0.8415 0.18898 1.65198 0.42026 1.42124 1.21346 0.82264 -0.64706 -0.62158 0.13948 0.48014 1.28446 1.22188 -1.18002 0.85342 1.30894 -1.1793 0.63674 -1.50458 1.1949 -1.11536 1.07056 0.2195 -1.84148 1.54176 -0.70634 1.41786 0.5038 0.25846 -1.93726 0.9357 -1.94588 -0.29448 -0.16678 -0.52758 -1.58828 -0.37772 1.33402 0.63016 1.73462 1.47128 -1.62664 -1.55238 0.8007 -0.57208 1.67286 1.45202 -0.10156 0.37126 -1.46086 -1.6709 0.61734 -1.78632 -0.67164 0.86458 0.08794 1.96946 1.49344 0.87848 0.12756 1.79558 -1.68116 1.09448 -0.68432 1.20376 0.426 -0.42106 -0.61136 1.34754 0.44168 -0.31334 -0.51332 -1.99344 -1.2392 1.72362 -1.48874 0.62292 1.4188 0.7306 1.8689 -0.15836 -0.48058 -1.86748 -0.2807 1.73362 -1.68164 1.84044 -1.62286 0.96864 1.38448 -1.55774 0.12882 -1.54446 -1.4974 1.93902 1.15244 -0.72112 1.13192 1.59692 1.00192 0.09392 0.06336 0.55088 1.92958 0.85248 0.84242 0.61076 1.45288 -0.39526 0.3533 1.465 -1.44934 -1.23716 1.00956 -1.71408 0.27616 -1.8137 -0.62484 -0.41796 0.8854 0.58556 -0.79822 0.42 1.96306 -0.00058 1.55784 -0.96886 1.50396 -1.17824 -1.42884 1.23238 1.49098 1.82186 1.72866 -0.22502 1.77826 0.96852 -1.79708 0.86682 -1.1088 -0.29242 -1.61246 0.7724 -1.38466 1.91946 1.89158 -0.63404 -0.55404 -1.78334 -0.33716 0.96612 1.9037 -0.45012 -1.28848 -1.58366 -1.10788 1.64336 0.5878 -0.06984 1.29462 -0.18874 1.1068 0.6311 -0.96644 1.1209 1.974 -1.2712 -0.96584 -0.76542 -1.49234 1.30762 1.98338 0.50834 -1.30918 -0.8222 0.198 0.42938 -0.19534 -1.95642 0.10782 0.19188 1.58516 1.28728 1.15892 -0.39496 1.32868 -0.0589 1.11032 1.31232 -1.11716 -1.86512 -1.61928 0.27276 1.57218 1.07992 0.60078 -0.24358 -0.26118 -0.50558 1.94546 1.16278 -1.66822 -1.78864 1.709 0.35522 0.98274 -0.60466 -1.14096 1.53372 0.21832 0.46274 -0.1613 0.5442 1.82234 -0.89726 0.2261 1.81952 1.47218 1.42852 1.79222 0.03288 -0.38154 -0.27816 -1.64826 -1.62724 0.9269 -0.28938 0.93616 -0.38912 0.57702 -1.55842 -1.30946 -1.68978 -1.90188 0.94504 -0.13992 1.3738 1.57828 -1.1963 0.6223 -0.06668 -0.91796 1.57658 -0.90602 0.42008 0.29616 -0.1635 0.45042 0.46942 -1.14618 0.78124 0.28424 0.3103 -0.29782 -0.08744 -0.4557 0.60992 1.85962 1.33622 1.42832 -0.72788 0.45916 1.24814 -1.0433 -0.22326 -0.22782 -0.47154 0.44608 -1.1227 1.24264 0.85228 -1.75876 0.66848 -1.19378 -0.14112 -1.04918 0.04186 -1.37216 -0.06836 0.0766 -0.90962 1.2602 -1.53326 -1.24294 1.79576 0.15732 0.38024 0.60804 0.18556 -0.59928 1.25014 1.51418 -1.75794 -0.62462 -0.64982 1.47416 -0.1661 0.61988 1.31724 -1.35212 -1.2323 1.39042 -0.42688 1.22676 0.00152 0.54 1.61574 -0.49592 1.8433 -1.03828 1.50242 -0.01792 -0.07204 -0.74038 0.33792 0.0119 -0.00758 0.49108 -0.83908 1.6194 1.39194 0.92042 -1.7395 1.47656 1.9925 1.3381 1.99916 -0.7069 1.45604 0.38472 1.11692 1.42198 -0.6894 -0.71626 -0.69112 -0.30006 -0.31292 -0.76004 0.75552 -0.74426 0.54156 -1.12386 0.76472 -0.77618 -0.10172 -0.73194 -0.4138 0.98242 1.03744 1.33826 -0.51828 1.3428 -0.54106 1.69782 -0.74406 -0.15274 1.1299 0.09654 1.23426 0.6634 0.54082 0.32264 0.04804 -0.54144 -0.15522 -1.91956 -1.32854 -1.3558 1.95072 -1.36202 -1.67518 -1.24756 1.73556 1.90516 -0.92218 0.51578 -1.84432 1.03668 -0.42172 0.72442 -0.24812 -0.98328 0.25566 -1.88224 -1.09702 1.77412 -0.03698 -0.38724 -1.9722 1.46162 0.57002 1.59052 0.0057 -1.9079 0.71492 -1.78108 0.8281 -0.69384 1.37902 -0.18218 -1.40342 -1.058 1.0317 0.39944 1.01342 -1.27072 1.60724 -0.44624 0.62 0.74014 -0.30842 -1.90678 -1.48174 -1.49018 -1.08848 -0.47592 -1.93302 -0.06974 -1.44442 0.07066 0.11742 1.0587 -1.38362 -1.5109 0.06796 -1.26572 0.74674 1.64344 -0.80976 -1.1411 1.68768 0.84952 1.65766 1.76044 0.12782 -1.19012 -0.01498 1.8562 -0.89566 -1.82632 -1.83314 -1.59076 0.99276 -0.71236 -0.22996 0.47678 1.07226 -0.50414 1.18058 -0.80918 -1.84808 -1.10216 -1.24944 -0.69166 1.7004 -0.46212 -1.6744 0.5426 -1.66854 0.27912 -0.01746 1.96378 -1.63648 -0.23892 1.05246 0.84204 -1.56444 -1.2422 0.382 -1.89838 1.53906 -1.78924 -1.1741 -1.61812 -0.09622 -0.29182 -1.93406 1.32872 0.71904 1.59116 -0.33798 -0.74914 -1.53714 1.99942 -1.29304 0.78982 0.09896 0.3493 -1.93996 -1.41006 -1.51574 1.4424 1.52474 0.8252 0.19114 -1.79692 -1.95428 -0.76834 0.23518 0.92798 0.04122 0.31446 1.11386 1.07894 -0.34826 1.94116 -1.92808 -1.63134 1.40454 -0.0078 -0.52806 -1.00314 1.82354 -1.25972 -1.3829 -1.26834 1.5009 -1.63592 -0.94588 -1.73738 -1.25692 0.08626 -1.30226 -0.20794 1.61736 -1.90336 -1.31398 0.00068 0.19074 -0.2993 -0.33756 0.83426 -0.90646 1.79106 -0.45006 1.34754 0.137 -0.61608 0.34768 -1.2342 0.71788 -0.26972 0.94474 0.06782 1.11798 1.48738 1.61886 0.78444 0.2081 -0.54052 -1.29784 1.68164 -1.82246 -0.02746 0.1849 1.95496 -0.3833 -0.67822 1.46158 -0.4449 1.25512 0.07124 0.17792 -0.29616 -1.67026 0.63766 1.90332 -1.96752 1.19034 -0.73044 0.59466 0.11698 0.0164 -1.71168 -0.45528 1.01278 1.1415 0.6299 0.67406 -1.87002 -1.52222 -0.09842 1.79258 -1.26876 -1.00148 -0.0192 0.65672 1.12098 -0.39386 -0.40504 -0.26918 -1.1848 -0.07768 -1.20744 -0.48934 -1.35336 1.55234 -0.75912 -0.26192 -1.51968 1.58404 1.58636 1.59408 -1.06146 0.8648 0.58516 -0.33478 1.8892 -1.5722 1.1721 -1.18656 0.9868 0.64772 1.33158 -0.9227 -0.64646 0.27864 -0.55334 -1.2947 0.34892 1.98092 -1.21768 0.42632 -0.40464 1.53872 -0.22056 -1.80536 -0.77618 0.77764 -1.10194 1.46044 -0.0994 -1.10818 0.19374 -1.45408 -1.1086 0.30748 0.85402 -0.13356 0.41334 -1.68442 0.7675 0.69318 0.43404 -1.21848 0.74402 0.16748 0.59074 1.71526 -1.8429 0.368 0.10566 -1.46442 1.38914 -1.50062 0.80172 -0.83996 -0.0013 -0.6002 -0.91464 0.3905 -1.5586 -0.88846 1.52972 1.71166 0.91282 0.09496 -1.54602 0.78566 -1.8141 1.04606 1.4246 1.58022 0.29194 0.03334 -0.7866 0.08914 1.99228 -1.18616 -1.2053 1.61194 -0.3961 -0.49144 0.62054 0.53006 -0.64524 -0.63498 -0.49732 -0.30566 -0.25582 1.73136 -1.69124 -0.5458 -1.21894 -1.97716 1.87416 -0.34406 1.16344 0.72238 -0.13132 -1.35096 -0.2865 1.80506 1.52936 -0.88896 0.94338 0.52544 0.24362 -0.64422 1.28596 -1.28744 -0.83226 -0.81514 -1.3949 -0.5266 -1.2134 0.93284 0.491 -1.00034 0.35688 -0.4522 -1.40772 0.75962 -0.95854 -1.54548 0.73728 -0.0296 0.79916 0.2691 0.15918 1.55744 0.9257 -0.7301 0.94514 -1.85436 -0.10156 -0.20116 -0.0208 -0.49052 1.58668 0.82932 1.12138 -1.8531 0.40836 -0.96838 0.5636 1.1239 -1.1509 1.30764 1.23622 -1.05868 1.16494 0.16378 -1.63452 -1.67912 -1.94324 0.95386 0.76358 1.07482 0.37376 -1.02702 1.72628 1.9745 1.1966 1.72852 -0.21314 1.89784 0.23972 -1.54054 1.57494 0.98774 -1.04636 -1.0185 -0.58704 1.52756 0.4264 -1.55464 -1.64874 -1.99016 -0.1091 1.61336 -0.87872 1.4915 1.03286 -0.78216 -1.6075 -1.2381 -1.0956 0.62424 -1.91114 0.94458 1.03526 0.90436 1.13572 0.6137 1.10304 1.14686 -1.04972 0.67984 1.24474 0.66576 -1.11582 -1.61038 1.7327 -1.75152 1.98768 0.18342 -1.2492 -1.1621 -0.10552 1.61138 0.60258 0.75372 -0.8161 0.76038 1.85168 -1.76524 -1.05836 -0.02126 1.336 -0.97506 0.99342 1.61546 -1.62942 -1.36964 1.95248 0.04926 -0.15422 0.79926 -1.57548 1.27952 1.49508 -0.32858 -1.2349 1.22514 0.72918 -1.26834 1.7588 0.78438 -0.76984 0.20906 -1.9889 -1.9335 -1.27024 -1.52254 -1.65802 -1.71848 -0.27954 -1.62466 0.762 0.86826 0.20522 0.97152 1.34382 0.2198 1.67232 -0.7313 -1.98096 1.10232 -1.704 -0.0616 -1.66236 -0.04846 -1.58664 0.61496 -1.8837 -1.06884 -0.01138 -0.04126 -1.96882 1.12002 -1.52404 0.15724 -1.25142 -0.87308 -0.98616 0.92692 0.88568 1.8931 -1.71164 1.67094 -1.6712 -0.52958 -1.96276 -0.44374 -0.92572 -1.47646 0.32758 0.54528 1.55282 -0.53954 -1.2874 -1.34354 0.48838 1.29176 -0.12858 0.05954 1.65312 0.1148 -1.63884 1.41082 0.2929 1.7617 -1.65586 1.64198 0.39228 -1.95204 0.22294 0.2169 -0.79406 -1.2546 0.38302 -1.87408 0.81396 -1.37496 -0.3904 0.8672 -0.0857 0.8571 -0.45934 1.59274 0.60358 1.44332 0.40592 0.5707 0.4074 1.8195 1.66886 -0.54318 1.2555 0.95428 1.27378 -1.22912 1.53194 -1.12246 -0.62198 -1.4329 -0.87372 -1.60476 1.16396 -0.9737 0.3006 -1.88934 -0.66066 0.80742 1.07744 -1.41332 -0.1575 -0.13668 -0.31784 1.0042 -1.85476 -1.20398 -1.42588 -1.2316 -1.19278 0.84958 -0.64424 -0.22658 -0.76542 0.57278 -1.6209 -1.23388 0.9614 0.25164 -0.5284 -0.38788 -1.40604 -0.0636 1.24702 -0.95752 -0.25908 -0.48096 1.69312 -1.48564 -0.70786 0.49292 0.10398 1.5985 1.49326 -0.1793 -0.02302 -0.19446 1.77466 -1.74872 0.80904 0.47776 -1.80326 0.76352 -1.92968 0.52844 1.21132 1.35284 1.16066 -1.40884 -1.3528 -0.46554 -0.85074 1.08768 -0.66418 -0.5347 1.9927 1.90608 0.6163 -1.36034 -0.73672 0.62618 -0.89712 -1.94024 1.47624 0.3143 -1.25442 -0.24274 0.28016 1.41386 -1.40422 0.57354 -1.00854 0.7101 1.4426 0.99382 -0.58464 -0.16956 -0.13392 -1.28144 -0.16884 0.38806 0.35838 1.10194 1.86714 1.75768 -0.65636 1.01628 0.26268 0.02794 -0.17202 0.0709 1.18924 1.13498 0.98798 -1.81716 -0.62514 -1.86302 1.28728 -0.24398 -0.21716 -0.54596 -0.92734 1.74678 1.99538 0.07364 -1.457 0.43914 1.64506 0.34198 -1.95008 0.16226 0.03998 -0.10228 0.80848 0.8752 -1.7322 0.00094 -1.8074 1.71856 -1.02936 -0.27072 1.49458 -1.74778 -0.41414 0.52488 1.3843 -0.14354 1.7221 1.25976 -0.38106 -0.72162 0.54314 -1.88994 0.9357 -1.6229 -0.6846 0.61158 1.10656 -0.2065 1.21468 0.9045 1.37122 1.92068 -0.022 1.6657 -1.9691 -0.7085 -1.6735 -1.88722 1.91502 1.37392 1.94438 1.5687 -1.21462 -1.94646 -0.04054 -1.17956 0.1609 -0.52952 0.68932 0.68652 0.71702 -1.6147 -1.27698 0.77154 1.6191 -0.07008 0.962 0.43136 -0.4402 -0.34378 0.89436 0.39908 -1.49612 0.06612 0.35806 1.57388 0.2742 -0.07986 0.49396 0.09278 -0.47006 1.60932 1.34472 0.245 -0.666 0.97444 1.32468 0.88214 0.41764 -1.50504 -1.54934 -0.36394 1.10418 -1.47186 -1.81252 0.9859 1.19766 1.20646 -1.9534 0.10098 0.3295 -0.10486 0.55298 0.2588 -1.52044 -0.45472 1.06482 0.71924 -0.30452 0.38558 0.54622 -1.75926 0.97652 -1.40348 -0.84344 1.10768 -0.95944 0.47802 -0.56248 -1.35534 0.60524 -1.92016 -1.98628 -0.93516 -0.79446 -0.7417 1.2949 1.97572 -0.12136 1.37214 -1.62378 1.06774 -0.12646 -1.60702 1.76328 1.6348 -0.94366 -0.9141 -0.23456 1.7887 1.9096 -1.39458 -0.81334 -1.96796 -0.05128 -1.79008 0.65954 0.50764 1.37156 -0.92022 -0.05468 -1.28038 -0.23108 1.40192 1.49572 0.24964 -0.1186 -0.51186 -0.94674 1.22126 0.25036 1.08908 -1.1594 0.32332 0.00936 1.47848 0.36718 0.58352 -1.16676 -0.47824 0.05134 1.95466 -1.28744 -0.35118 -1.26496 -0.0002 0.89316 1.98166 1.1161 -1.0044 0.59874 -1.21274 -1.39584 -1.20116 -0.57318 1.65658 -0.7012 0.47162 -1.10276 -0.48636 -0.24662 1.56818 -1.96736 0.54418 -0.46166 -1.17948 1.7648 0.86334 0.02268 0.47022 -0.15728 -1.924 -0.3256 -0.1502 1.02842 -0.00934 -1.99294 -1.8799 0.66686 -0.5041 1.35646 -0.10028 0.37202 -1.94236 -1.3775 -0.5369 0.48492 -1.95826 -1.1035 0.35278 0.17966 1.89556 -0.31374 1.31958 1.76836 0.48316 1.92202 0.16838 -1.88954 1.91452 0.235 -1.97018 -0.04102 -1.35414 1.15288 0.52272 1.11286 0.75434 -0.22958 1.43614 1.6495 -0.8213 1.80474 1.40134 0.15716 1.85366 -0.80386 1.97498 -0.07834 -1.92478 0.3356 1.72304 -0.03316 1.66988 -1.70944 -0.05286 0.38974 0.3548 0.08144 -1.45474 0.06864 -0.16134 -1.99038 0.75234 1.2609 1.32662 1.94072 -0.27384 -1.09524 0.09976 0.35024 1.73056 0.27132 -0.53966 0.70326 -0.99904 -1.90918 0.28492 -0.83758 1.9147 -0.713 1.94704 -1.7533 -1.96476 -0.4211 0.51194 0.06298 0.2891 -1.6447 -0.79428 -1.86702 -1.24196 -1.3271 -0.77486 -0.63252 -0.18916 -0.83094 -0.94762 -1.85958 0.83052 1.91292 1.46998 1.0702 1.8219 -0.27504 0.60502 -0.54828 -1.49352 -1.03338 1.28958 -0.14368 -1.8952 -0.80764 0.16674 1.25826 0.1216 -0.40804 1.97438 -0.82656 -1.25104 -0.73636 -0.34838 -0.62916 1.69904 -0.03324 -0.40782 1.05764 -0.95382 -1.90714 -1.10758 1.8319 1.03842 0.14448 0.33188 -1.99822 -0.183 -1.12318 -1.57522 0.31026 0.97388 -0.93978 -0.4435 -0.67754 -0.9343 1.34938 -1.97182 1.56566 0.50616 -0.03312 1.24588 -1.78114 -0.80532 1.87894 1.39146 -0.43312 0.26128 0.09912 1.37114 -0.14488 -1.86722 1.54736 -1.59448 -1.58638 -1.9258 1.45768 0.8179 -0.0397 0.86048 0.16496 -0.55876 -0.75524 -0.83284 -0.3359 0.19954 1.68874 1.70714 -1.67084 -1.69488 -1.65034 -0.06142 0.0265 -1.44852 1.0793 -1.15304 -1.32646 0.6372 1.15948 0.75302 -1.235 -0.25952 1.71786 -0.49432 0.56964 0.17748 1.4265 -1.34532 -0.85714 -0.75174 -0.39198 -1.46852 0.06786 -1.29482 -1.6588 -1.47438 0.0011 1.05168 1.53058 -0.32062 1.70272 -0.14028 -0.0679 -0.20602 1.02148 1.91654 0.10626 0.99588 -0.67378 1.56664 1.40064 -1.17954 1.6584 1.20728 0.09546 -1.57554 -0.27662 1.73908 0.5975 1.4866 0.77304 1.03404 0.56426 1.08088 0.6971 1.81816 1.8707 -0.67868 -1.78972 0.55368 0.84584 -0.37814 1.10662 -0.51992 1.0503 0.90528 1.80836 -0.07614 0.48418 0.6531 -1.92878 -1.56938 1.32844 -0.42378 -0.15238 -1.21246 -1.12694 0.86058 0.6097 1.91674 0.80222 0.26202 -1.54584 -1.95604 0.90634 -1.33134 1.29546 0.85122 1.09688 1.2033 -1.95416 -1.21508 0.7856 0.77254 -1.27922 -0.22122 -0.28618 0.17832 -1.84302 1.19018 -1.38392 1.7995 -0.7451 1.9444 1.41538 0.34242 1.70558 -1.01196 -0.76674 -0.09046 0.9451 -0.98988 0.7116 -1.70646 1.75144 -1.41618 -0.83232 1.06266 0.57374 0.38162 1.6098 -1.04286 0.82698 1.28086 0.60724 1.28628 -0.35498 -1.4441 -1.14458 -1.93116 1.0737 0.69474 0.7036 1.41952 1.30064 1.00272 -0.99288 -1.49024 -1.37144 -1.4361 -1.03694 0.3074 -0.38206 -0.81266 -1.74182 1.03572 0.07332 0.49206 1.0211 -1.86304 -1.38892 0.65116 1.60456 -0.22466 1.58036 1.65892 -1.02748 -0.02598 -0.66286 -1.87092 -1.3026 1.14968 -1.8674 -0.83558 0.83582 -1.74964 0.30652 1.29208 -1.00712 -1.2513 1.5767 -1.34208 0.43408 0.00982 -0.58144 -0.69762 1.3392 -0.36038 1.02266 1.57152 -0.78704 1.15294 -0.4652 -1.28156 1.45774 -1.57746 1.09016 -1.07176 1.83914 1.6417 0.03018 1.03308 1.1726 -1.50052 1.8665 -0.18662 0.1748 -1.5465 0.3515 -1.99218 -1.27082 0.78122 -0.50084 0.27238 -1.43974 1.95316 -1.78294 -0.40528 -1.64322 0.27796 -1.68028 1.33288 0.95134 -0.23438 0.9161 -0.45556 -0.38512 1.41414 -0.29332 0.41326 -0.83982 -0.62174 1.45294 -0.64884 0.71852 -1.4564 -0.51468 -0.0654 0.14332 1.60516 1.12758 0.88568 1.28812 1.01484 0.84232 0.43172 -0.34622 1.2624 -1.84182 1.50458 -1.79454 -0.50456 -1.42856 -0.43884 1.32196 0.6973 -1.91826 -0.59302 -0.41664 0.32206 -1.8015 0.76064 0.74682 1.93822 0.84764 1.35092 1.32828 -1.852 1.55386 -1.98336 0.46784 0.28246 1.4514 -1.2484 1.15038 -0.56596 -1.95524 1.9365 0.92328 -1.51564 1.89064 0.35246 1.25596 0.2021 0.2078 1.66474 -1.1932 -0.10824 0.02918 -1.97878 -1.53814 -1.92168 -1.64878 1.82124 1.40666 -1.63306 -1.86116 1.34988 -1.8328 1.4914 1.10344 -0.49422 1.70854 -1.85848 -0.96328 -0.077 0.04402 1.81984 0.41078 -0.11208 0.65252 -1.85476 0.48368 -0.90102 0.4314 -0.15398 1.50466 -1.45528 -0.26958 1.18288 0.5441 -0.56348 0.1188 1.53264 1.55478 0.3895 -0.06878 1.63014 -0.65506 0.78342 -0.70482 -1.30514 1.76928 1.43186 -0.61908 0.38486 0.64392 1.11442 -0.83464 -1.7152 -0.3793 -1.01304 1.48096 -1.85874 -0.63132 -1.68338 -0.40536 1.25224 -0.61018 -0.43938 -1.13774 1.59412 -0.38054 -1.0157 -1.0527 -0.33308 1.38696 -1.8241 -1.41326 0.64722 1.99176 0.41388 0.47488 1.62736 -1.40728 -0.04236 -1.62406 1.05182 1.71806 -1.95346 1.2021 -1.60976 1.37936 -0.55438 -0.43782 -0.44288 -0.04446 -0.02248 0.16394 1.23816 -1.20514 0.67898 0.24032 1.78432 -0.07886 -0.29894 1.0754 0.78498 0.48456 1.714 0.99788 0.46802 0.52768 0.51812 -1.70698 1.20682 0.51208 1.8536 1.54852 1.41102 1.94068 0.54282 1.53418 -0.65672 0.3585 -1.52798 -1.78524 -1.82618 1.4221 1.39016 1.71138 -0.59058 0.01194 -0.65142 -0.14764 -0.68722 -1.82646 0.69056 -0.2938 0.89164 0.88224 -0.40906 -1.43276 -1.99596 -0.95136 -1.26592 -0.13744 -1.13878 -0.84742 0.35536 1.04504 0.10192 0.429 0.75292 1.29746 0.25202 1.14478 -1.10298 -0.5742 -0.55088 -0.5137 0.90156 1.36288 1.0944 -1.99738 -0.41156 -1.54394 -0.8209 -1.33424 0.98024 1.03326 1.82152 0.1474 -1.34312 -1.47122 0.34972 -0.02444 1.53012 -1.70536 -0.3756 0.60946 1.35352 1.02122 -0.93328 -1.6549 -0.39056 0.98042 1.259 0.0511 1.60032 0.16798 1.27652 -0.73526 -1.74294 -0.59466 1.98066 0.22806 -0.52716 -1.99858 1.46018 -1.722 -1.31656 -1.80454 0.17234 1.3221 1.22352 1.9545 -0.2279 0.22412 -1.05226 -1.72354 1.61466 -1.39762 1.80138 0.83966 0.13278 1.88034 0.29614 0.74928 0.39316 0.608 -0.80294 1.12798 -0.93458 -1.18776 1.75674 0.55676 -0.10966 1.25154 -1.45188 -1.87834 -1.49728 1.52868 -1.16556 -0.65362 -0.074 1.15806 -1.15112 -0.25538 -0.87842 -0.34506 -0.79168 -0.96512 -0.89664 1.32386 0.55332 0.67412 -0.53664 -0.58262 1.27256 -1.89968 1.9319 0.72354 -0.39174 -1.14782 1.08094 -0.44454 1.13002 -0.6399 1.56536 -1.33324 0.06416 0.52056 -0.324 -1.17394 1.77372 -1.91404 1.76794 0.45498 -1.08634 0.9747 1.03146 -1.44848 -0.37232 -1.26178 -0.60032 -1.83782 0.02462 -0.25844 0.25892 -0.9174 -0.9066 -1.52706 1.97898 -1.5522 -1.81026 -0.22084 -0.07958 1.98226 0.26544 -1.62946 -1.97198 1.48878 0.17924 -1.54518 1.59078 0.68774 1.35886 -1.72272 1.55012 0.46734 0.90616 1.00836 -1.49628 -1.70216 -0.93114 1.38038 -0.90414 -1.12996 1.45248 0.91876 1.53082 -0.61154 1.10116 0.48274 1.57334 -0.4088 0.54158 -0.7718 -1.3637 -0.00544 0.16554 1.78568 -1.81046 -1.45688 0.94668 1.54266 0.37226 -0.82714 -0.85258 0.71194 -1.1967 -0.25266 0.19142 1.79158 0.17644 0.08502 1.9692 1.68112 1.37894 -1.19064 -1.3167 -0.94964 -1.47024 1.34666 -1.1603 0.63956 -1.6124 1.6965 -1.11854 -0.00044 -1.85386 0.13066 1.64096 -0.44446 -1.6982 1.12048 0.8188 1.9606 -0.64884 -0.47382 -0.9919 1.92298 1.7226 -1.25948 0.11546 -0.21652 1.19702 1.30958 -1.6937 -0.51168 -0.37802 0.86046 -0.15074 1.82694 -0.68874 -0.88484 1.2559 -1.15712 1.7034 -1.6929 1.15506 0.67576 -1.7086 1.14786 0.5658 0.67264 0.10636 -1.36412 1.48978 1.05594 1.26622 -1.9914 0.32996 -0.14724 1.80124 -1.2397 -0.67224 1.78924 -0.7688 1.05622 1.44252 -0.92198 1.3902 1.39314 -1.62244 -0.71432 -1.71862 1.81402 -1.75572 1.18662 1.86456 -0.02408 -1.74282 -0.95596 0.3711 0.33234 1.63158 -1.42526 0.17472 1.4428 1.6771 0.56114 1.81978 -0.74966 0.22208 -0.38664 -1.46952 1.9965 -1.97432 -1.44906 1.7874 1.46666 1.61166 -1.35282 -1.13542 0.07702 1.28556 -1.10176 0.77028 -0.71988 0.39124 0.29234 -1.60842 -1.69686 1.19138 -0.70972 1.75142 -0.7141 1.48164 -0.5311 -0.8713 -1.24698 -0.3855 -0.21162 1.3791 -1.11862 -0.74178 0.13986 -0.82896 0.76418 -1.24482 -1.71512 1.78832 1.69332 1.39922 -1.6021 0.36424 1.61 -1.82054 -1.70594 1.04678 0.73332 -0.19556 -1.1054 -0.94844 -0.61524 0.16956 1.51664 0.05894 -1.0682 -0.13806 1.24456 -1.48516 0.55676 1.42222 1.03438 -0.14784 -0.17672 -0.73194 1.98318 -1.1812 -0.85432 1.7272 -1.99392 -1.47508 0.10634 0.504 -1.30176 -1.0961 0.79348 0.92604 -1.85858 -0.89356 1.18756 0.42212 0.39538 0.94856 -1.2801 -1.26318 -0.00566 0.71182 -0.25842 -1.9191 -1.76076 -1.09776 -0.4894 1.77002 -0.76844 -1.7289 -1.63516 0.54574 -1.45904 0.34192 -1.80374 1.47526 -0.09892 1.00612 -0.20164 -1.63034 0.9452 0.88074 -0.5287 0.61272 1.26546 0.00574 -0.27948 0.13812 -0.67272 -1.86536 -0.97316 -1.9142 -0.86776 -0.91354 1.2737 -0.72864 1.07722 -0.93522 1.48794 1.10384 1.01432 0.33632 -0.72756 -1.57286 -1.46094 -1.75226 0.38506 -0.20052 -1.08984 1.71228 -1.47896 1.38924 -0.84982 -1.64978 -0.20838 1.1136 -0.7595 1.12884 -1.18456 0.23348 1.1817 1.37246 0.44274 -0.90308 1.24424 -1.72098 -0.58652 1.4545 1.0682 0.92488 -1.60196 -1.16372 1.51816 0.6945 -0.64466 -1.39112 -0.3917 -0.95584 0.07366 1.01772 1.62068 1.92104 -0.77206 -0.38502 1.61358 -0.36242 0.9356 -1.21798 1.29484 -1.8399 -1.96914 1.94836 -1.75066 -0.74554 1.92214 1.64184 1.89356 -1.82448 -0.81712 -1.73998 0.83424 0.93056 0.73126 -0.01472 1.31424 1.68474 1.87108 0.45566 0.99488 -0.81728 -0.4947 -1.80368 -0.94482 -0.2023 0.6128 1.26066 0.14452 -1.17226 -0.51668 -0.39334 -0.6566 -1.36854 -1.84036 0.9081 0.89402 -1.55032 -1.41306 0.26368 0.77236 -0.28652 -1.2847 -0.56724 1.86128 -0.18638 -1.81654 -1.3099 -0.81024 1.24266 0.30074 1.92884 -0.2335 -1.52008 -0.21288 0.1121 0.6548 1.83452 0.89316 0.45162 0.64166 -1.33852 -0.5027 1.06582 0.69218 1.57622 0.9166 0.20278 0.7709 1.82316 1.09124 0.86456 1.09778 -0.39262 1.6833 -0.71862 -1.53258 -1.92748 -1.66496 1.24156 -0.38576 -0.0773 0.07088 0.90186 0.527 -0.44554 1.84016 -1.13654 0.84432 0.04754 -1.74672 1.05948 -0.4435 0.13532 1.62202 0.11088 -1.78384 -0.35054 0.74056 -1.71494 0.897 -0.01934 -0.08082 -0.63342 -1.8486 1.43618 -1.16896 -1.8409 -1.20338 -1.49428 -0.35534 0.58228 1.49948 1.6516 -1.16264 -1.28104 0.59058 0.59544 -1.46118 -0.86228 1.73606 0.05312 1.35846 -1.27664 1.56988 -1.96824 -0.69196 -1.03754 -0.01464 -0.4276 -0.9348 0.81796 -0.66806 -1.95002 -1.65546 1.63358 -1.99648 -1.29572 0.75044 1.0908 -1.27658 1.68104 -1.93318 0.33858 -1.59712 -0.32902 1.56 -0.0951 -0.70206 0.90306 1.5203 -0.37928 -0.88936 -0.39716 -1.451 -1.15614 0.6222 -0.80418 -0.2033 -1.88036 0.12814 1.86858 0.17374 1.22422 1.44052 0.8267 -0.74966 1.4495 1.30704 -0.79622 -1.28458 -0.11372 1.845 -0.552 -1.5857 -1.945 -0.01372 -0.98014 -1.67954 -0.10112 -1.52824 1.40312 1.66452 1.08228 0.0521 1.44448 -0.2927 1.72908 1.50096 1.50068 -0.98862 0.8077 0.90758 0.6308 -1.03734 -1.14518 -0.4927 -1.1574 0.89806 -0.42382 -1.57936 -1.88952 0.59786 -1.90586 0.18762 -0.366 -0.2243 1.66262 -0.81146 -1.50602 0.85756 -0.39768 -1.12466 1.8978 1.64786 0.725 -1.79596 1.09144 -0.82788 1.99602 -0.88062 -0.47876 1.94852 1.80634 -1.8076 -0.09228 0.9787 -0.78582 -1.51466 1.55946 0.5477 -0.85632 0.1218 0.74428 -0.52178 -1.63874 -1.19474 1.57038 -1.10534 -1.58192 -0.33124 0.04468 0.54052 1.00698 -1.3569 1.40904 -0.06766 1.00976 0.98294 0.23766 -1.34922 0.41584 1.67046 0.90202 -1.54322 0.89938 -1.83804 0.7915 1.90172 -1.72012 0.6553 -1.43848 1.17728 -0.37092 -0.05372 -0.28612 1.4805 0.13104 0.41958 1.2866 -0.08026 -1.36634 0.19678 -1.24596 0.32724 1.07468 0.98072 -1.05846 1.16324 -1.21666 1.97538 1.96892 0.23124 0.24766 0.90866 -1.86816 -0.5268 1.21976 0.28748 0.57882 -1.8007 0.01374 1.66864 -1.38524 -0.23722 -0.89276 0.8674 -1.08856 -0.93932 0.92922 1.92854 1.8013 -1.40982 1.69632 -1.68208 -1.98288 -1.78096 0.91642 -1.42522 -0.6179 1.91866 1.22042 1.62826 1.11838 -1.6955 0.68636 0.33026 -1.0704 0.7204 -0.18556 -1.75934 -1.73926 1.84354 1.84074 1.08728 1.90598 -1.035 -0.41798 0.99124 -0.78002 -1.79272 0.06926 1.88084 -1.766 -1.1452 -1.82594 1.37874 0.5349 -0.07026 0.89154 1.91278 0.55676 0.64498 -1.09462 0.66014 -1.02112 0.38548 -1.44974 -1.68976 1.0764 0.77696 -0.06222 0.19102 1.24624 0.68856 1.66778 1.95774 -1.25058 -1.39096 -1.58808 1.0521 0.63702 1.92516 1.35478 -0.8252 -0.1506 1.33956 1.39426 0.26356 -1.86958 1.30762 1.79536 0.99984 1.82886 -0.09836 -0.31612 -0.38426 0.93816 -0.81942 0.1084 -0.4795 -1.58526 -0.72824 1.91484 0.443 0.26948 1.87824 -1.3654 -0.45458 -0.813 -1.78368 0.6293 -0.07414 -0.4822 1.83942 -0.72424 0.63158 1.29018 1.73056 -1.18926 -0.3607 0.99122 0.28668 -1.82018 1.76876 0.9816 0.93792 0.36214 -0.6554 -0.99534 0.05204 -0.98042 1.56882 0.50062 0.89142 0.63736 -0.63474 -1.98968 -1.08824 0.90532 -0.02884 0.70494 -0.15118 -0.92344 1.91408 -1.32168 -0.13052 -0.51796 1.98942 -1.37412 1.05228 0.32556 1.20758 -1.63016 -1.53092 0.52926 0.12804 -0.90808 -1.85394 1.4614 1.33154 -0.48392 1.29 -1.45924 1.13496 1.19674 1.06046 1.42522 0.62636 -0.79794 1.91048 0.62126 0.37842 -1.17476 0.83958 0.93434 -0.85762 -0.78988 -1.73428 1.09044 -0.88788 -0.54412 0.37272 -1.2813 -0.04764 1.72648 -0.18802 1.19898 0.03152 -1.63786 -1.4907 -1.72668 1.86424 -0.54964 1.57376 -1.54494 1.41494 -0.69196 -0.05842 -1.28266 -0.38216 0.44424 0.85566 0.78736 -1.28462 -1.56898 1.94712 0.38232 -0.46974 -0.46528 -0.61312 -1.08208 -1.1738 -0.9444 0.34926 -0.12434 1.14336 0.57128 0.58838 1.40848 -0.61526 1.86146 -0.6063 0.2642 -1.30726 1.63716 0.757 -1.07196 -0.74852 0.3845 1.5194 1.83432 1.26852 1.54838 -0.5274 0.66786 0.6002 1.58534 -1.99668 -0.47866 1.77934 1.42964 -0.33128 -1.50322 0.97526 1.59138 1.4471 0.80862 1.10108 -0.3019 -0.6883 -1.15636 0.71966 0.5331 1.33258 -0.24364 -0.94946 -1.40854 0.0946 -0.9218 -0.32598 1.01906 -0.86916 1.14574 0.01532 -0.44746 -0.35062 -0.72218 1.583 1.6814 1.27544 1.558 0.56796 -0.93296 1.62912 -0.0449 0.19274 -1.1031 1.28892 -0.89864 -1.80996 1.94836 -0.17304 1.55336 -0.9272 0.67576 -0.88534 -1.26458 -1.78422 1.71622 -0.38268 0.00874 -0.50928 0.92512 1.8473 -1.23974 0.2988 0.52296 0.48146 -0.57728 -0.058 0.16928 1.22562 1.41968 0.42264 -0.24632 0.27568 -0.3474 0.90396 -0.62252 1.56362 -1.84638 -0.69748 -1.00676 -1.11186 -0.27436 -0.8079 -0.42254 0.07294 1.33956 -1.56214 -1.08606 -0.93798 1.86678 0.06408 -0.73332 0.06728 1.64284 -0.78028 0.86886 1.6563 1.66976 0.41544 -0.1338 1.15934 0.02076 -1.27726 0.40726 -0.86928 1.3191 -1.59994 1.46204 -0.16856 0.8383 -1.8474 -0.53632 -1.29378 -1.50254 0.03696 0.12164 1.56814 -1.27868 -1.54998 1.1419 -1.01516 -0.97196 -0.89274 1.35882 -0.64442 -0.84406 1.6864 0.63284 -1.56712 -1.96492 -0.27882 1.89384 -0.26184 1.4363 -0.1661 0.86738 -0.9971 0.78484 -1.55326 0.75384 0.93948 -1.02418 1.0825 0.22372 1.71418 -1.39962 -1.43954 -0.4302 -0.39414 1.09806 1.30072 0.93496 1.21972 1.27354 -1.11866 0.1313 -1.0865 -0.6361 -0.94834 1.97476 1.63268 -0.23278 1.02916 -0.20366 -0.8829 -1.74126 1.7255 -0.73008 0.66356 1.16958 -0.88126 -1.2167 -1.72544 -0.30382 -1.7976 -1.99098 -0.05446 0.88354 1.64464 -1.2448 -1.40452 0.1166 -0.97304 -0.6652 -1.26564 0.7862 -1.3259 0.46462 0.55494 1.70258 -0.04612 1.639 -0.26684 -1.52804 1.12116 -0.82774 -0.05336 -0.71386 -0.8934 1.45542 -1.12514 1.29052 0.90622 0.43628 -0.02068 0.5174 0.66038 -0.47646 1.07112 -1.12768 -1.81424 0.02996 -0.28074 -1.70354 1.37928 -0.48394 -1.25976 -0.30566 -0.93802 0.3309 1.58462 -0.73912 0.71496 0.96098 -0.7843 -0.52026 1.05012 1.8026 0.57502 1.03014 0.06236 -1.3406 -0.22308 -1.8108 1.88032 -0.69506 1.21036 0.59068 1.35546 0.21694 -1.8742 1.15056 1.39348 -0.31738 1.51682 1.9239 -0.08028 -0.56332 -0.90732 -0.39492 -1.568 -1.7477 -1.77586 0.77568 1.8708 1.61398 -1.42444 1.94524 -0.77942 -1.50042 1.46726 0.85778 0.94852 -1.95902 0.80994 1.52636 -1.74698 -0.46996 -1.58388 0.07432 0.30568 0.14954 0.33888 0.84502 0.20508 -1.56594 -0.1326 -0.96766 1.44414 -0.70822 1.56 -0.38656 0.7099 -1.03008 0.59812 -0.18994 -1.56476 1.00124 -1.6816 -1.73366 -1.27064 1.26512 -0.6299 0.85588 0.74968 -0.732 -1.79798 1.3525 0.87266 1.99044 1.67088 -1.61032 -0.97946 1.01834 1.2994 0.28244 -0.08658 -0.62088 -1.4294 1.43672 -0.25344 1.54322 -1.49892 1.92878 -1.06042 -0.14618 -1.85212 -0.02142 -0.55716 -1.00012 1.09112 -0.74822 -0.78836 -1.85022 -0.65506 1.04056 -1.22056 1.48298 -1.90466 -1.06294 -1.76798 0.5149 0.15966 1.45368 -0.37912 1.1703 -1.40712 1.69154 -0.32948 -1.68434 1.89664 1.0561 0.43062 -1.11832 0.51976 -0.81386 0.76402 -0.5587 -0.0837 -1.10416 -0.87988 0.22342 -0.09036 -0.12724 -1.10068 0.4191 1.17804 -1.12924 -0.3266 -1.74118 -0.497 0.43042 -0.71622 1.63352 1.20468 1.23166 -0.61646 -0.95262 0.30788 -0.23074 -0.73906 -1.54368 -1.69194 -0.87282 -0.89676 -1.965 0.82114 -1.67004 -0.37 -1.8412 -1.72348 1.33812 -0.43332 1.19948 1.81692 0.00858 -1.39476 -1.71312 0.55436 1.20178 1.99226 1.7221 0.01814 -0.58832 0.81264 -0.5338 -0.2277 0.7971 -0.32302 1.28808 1.8026 -0.28336 1.13342 -1.85298 1.63488 -1.3362 -0.08464 -1.21756 -1.23048 -1.1357 1.59794 0.84808 1.24074 -0.48542 1.9823 0.16488 -1.13628 0.08428 1.81658 -0.80392 0.62642 -0.90336 0.49302 1.10608 -0.223 -0.46116 0.43816 0.89636 0.31452 1.63702 0.2627 -1.97596 0.65296 0.34192 -1.6438 0.55988 -1.7953 -0.58034 1.5646 1.15312 -1.90678 1.82278 1.51736 -0.30996 1.60384 -0.85582 -1.51866 -1.49646 -0.57062 -1.35224 -1.39754 1.688 0.9805 -1.51912 -1.33834 0.70594 1.2236 -1.97268 0.37002 0.09604 0.22562 1.01898 0.46792 -0.8675 0.6016 1.5739 -1.8049 -1.10118 -0.84162 -0.5776 -0.03982 1.44406 0.51968 -1.33654 -0.89714 0.80362 -0.42072 -1.19702 1.50224 -1.3672 -0.94252 -0.0654 -0.53302 -0.33326 1.03454 0.57468 -0.95646 0.17208 -0.31976 -0.34976 1.33626 -1.82264 1.04962 -0.53144 -1.07252 -0.92578 -0.64514 0.38486 1.08842 -1.97008 -1.05094 1.58252 1.34514 -1.99304 0.68758 -0.84162 -0.83168 0.31704 1.378 -0.14196 -0.87336 0.42062 -1.47494 -0.2628 -0.96146 -1.709 -0.448 -1.19884 0.09794 -1.97308 0.53036 0.02302 1.21856 1.50814 0.08614 -0.2172 -1.60556 -0.9489 1.73596 -1.97136 -0.55124 1.19442 -0.28546 1.4723 1.68374 -0.52506 0.58946 -0.53998 0.97916 -0.12386 -0.59366 0.72648 0.79406 1.8222 -1.4764 -1.08436 1.6523 -0.6876 -1.57 -1.36352 1.52222 -1.44632 -1.7131 1.0615 -0.50044 0.92604 -1.63604 1.837 -0.07918 -1.09522 -1.23606 -1.8828 0.58108 1.34936 -1.59072 -0.06778 -1.29392 -0.94726 0.05346 1.56358 -0.29846 -1.90802 -0.178 -1.77822 0.62056 1.80386 1.22894 1.39634 0.98452 -0.82952 0.13048 1.08202 -1.3789 1.09946 -1.49358 -1.10494 0.9075 0.65304 -0.02726 -1.24232 -0.88902 0.75244 1.5392 0.07436 -0.8878 -0.71086 -1.8546 1.4447 1.41292 0.59136 -1.79044 0.59954 1.25894 -1.13358 0.93492 1.43024 0.73166 -1.93488 -1.55908 -0.3043 1.69708 -1.0324 -1.14754 -1.24968 0.77428 -0.3181 1.4961 1.4816 0.84294 1.5142 1.02472 0.05302 1.08 -0.70424 0.45258 0.9491 -1.44724 1.74764 1.10958 -0.66858 1.65844 1.78424 1.98342 -1.60684 -1.03908 1.53092 1.82308 1.75466 -1.83546 -0.92382 0.1634 0.84238 0.2121 -1.72298 -0.93942 -1.85662 -0.10004 0.78886 1.30008 1.43028 -0.20698 -1.3362 -1.39826 1.8987 1.56664 0.15652 1.51954 -0.03684 0.41382 1.98582 0.87746 0.98402 -1.04448 1.1095 0.03724 1.91284 -1.01584 -1.5407 1.78938 1.24334 -0.14118 1.74142 1.31706 -0.23324 -0.64922 -1.81766 1.84092 0.80296 -1.76482 0.30918 -0.95088 -0.2361 -1.55246 1.6793 1.53838 0.99464 1.18248 -1.9153 -1.17348 0.8044 -1.98862 -0.1401 -0.65916 -1.8213 0.1987 1.17938 -0.11316 1.10258 0.23978 -0.85226 1.15922 -0.55934 0.99948 -1.94328 -0.42856 0.0516 -0.65326 0.83498 0.5479 1.3843 0.31558 -1.28344 -0.27202 -1.89538 0.93668 -0.88646 0.53646 -0.72378 1.57112 1.04258 -1.26966 -1.10056 1.63278 -1.01502 1.23196 1.9989 0.40058 1.13834 1.56804 0.1714 0.29548 -1.26166 -1.43682 1.08742 1.14996 1.60846 0.76442 -1.60918 0.10784 -0.51322 -0.3521 -1.6525 -0.46322 -0.55778 -1.5112 1.2948 -1.86808 -0.7638 -0.75798 -0.91484 -1.35708 -1.38938 1.53144 1.19718 -1.58262 0.25976 -0.19214 0.01448 -1.17524 -0.42748 1.651 0.20838 1.26692 -1.6235 -0.9112 -0.42276 -1.84662 0.64054 -1.04536 1.3282 0.34912 0.14562 1.16836 0.08434 -0.60532 -1.61716 1.36264 0.19056 -1.50382 1.93714 1.86698 -0.83564 -0.1037 0.48288 -0.47152 -0.31514 -0.79312 -0.634 0.67004 -1.1098 -0.19942 -1.25008 1.56604 -1.4647 -0.16424 1.4395 -0.91944 -0.83972 -1.64658 0.91154 1.14142 -0.50864 -1.71846 -0.0862 0.73602 0.49728 -0.55776 -0.5529 -0.19752 -1.96548 0.8971 1.6173 -0.4817 -1.1124 -0.29446 0.48664 -1.68792 -1.21596 0.84802 1.40392 -1.62964 0.78736 1.9705 -1.93556 -0.47238 -0.4008 0.57956 0.63304 -1.75142 -0.04484 1.30228 0.20236 -0.16286 -0.41538 -1.2043 0.3756 -1.1172 1.9825 1.74686 1.03118 -1.75738 1.75976 1.5635 0.6355 -0.00692 0.18328 1.2316 0.67844 0.82976 1.3491 1.12742 -1.7035 0.31226 -1.05052 0.54116 -1.64594 -0.47914 -1.7829 -1.61382 -0.8632 1.9177 0.80918 -0.80148 1.84732 -1.26776 -1.30526 -0.21984 1.93366 -1.9081 1.32994 -0.39618 -1.67044 -0.96282 1.81682 1.16128 -1.38942 1.22384 -0.66502 0.07136 1.34434 0.36758 1.90112 1.80328 -1.10054 0.82772 1.00576 1.89008 -1.11236 1.04344 -1.55836 -1.14526 -1.3343 1.5963 0.61004 1.11348 -0.56658 0.56124 1.71616 -0.09676 -0.70168 -1.5969 1.29792 0.58652 1.49982 -0.25472 0.79784 1.25932 0.49544 -0.21182 -0.06942 -0.8698 -1.81414 0.14572 -0.95816 0.7692 -1.98344 1.0059 -1.70096 -0.9804 -0.27352 -1.19534 -1.10748 -1.10978 1.65024 0.47518 -1.06188 -1.26676 0.42712 -1.29668 -0.27214 0.04932 1.50766 1.43172 -1.22696 0.94122 1.06964 -0.68542 -1.69654 1.15418 -1.97014 1.74642 -0.60536 1.09944 -0.88714 1.31144 -1.33114 0.51996 0.55446 1.84084 1.0969 0.4275 0.2622 0.69656 -1.82324 -1.50636 1.51058 0.4077 0.93628 -0.97538 -1.19286 0.0646 -1.1678 -0.2079 -1.93968 1.88124 -0.37748 -1.24588 -0.62732 0.1006 1.69954 0.70196 0.70244 -0.85514 -1.01028 -0.01996 1.41 -0.20692 1.77734 -1.6612 -0.19368 0.41814 0.17878 0.58628 -0.39358 1.30034 1.78712 -1.18892 1.25496 -1.72062 1.43064 -1.33806 0.3783 1.27884 0.34702 -0.03474 0.91422 1.60252 1.0391 -0.76838 -0.3111 1.91474 -0.85272 -1.54616 -1.85872 -1.60508 1.72506 -0.88266 -0.29316 0.19672 -0.91638 -0.2825 0.63036 0.59748 1.2183 0.389 1.8858 0.2459 -1.81434 -1.24004 -1.9059 -1.18858 -0.50084 -0.90672 0.66996 1.0376 -1.67634 1.42358 0.79782 1.02444 1.0658 1.80748 0.75396 0.5457 0.64988 -0.10844 -0.72916 -0.27508 0.445 -0.78852 1.57528 0.66978 1.10424 -0.94178 1.19574 -0.28686 0.03156 1.78082 -1.93946 1.95802 0.07944 -1.33168 1.41686 0.27914 -0.8625 -1.12254 0.41558 -1.946 -0.21612 -0.89634 -1.92876 -1.69854 0.3195 0.68238 1.1309 -0.72386 0.96354 -1.91536 1.94758 -0.67328 -0.88186 0.16088 1.8009 0.97416 -0.81532 -0.57568 -0.29282 -1.55908 -0.10248 -1.04318 -0.99396 -1.45716 1.36304 0.83978 -1.055 0.39748 -1.6094 -1.52518 -0.5918 -0.2276 1.47598 -0.78316 1.94104 -0.65868 -0.85978 1.2738 -1.64974 -1.57816 -0.0727 -0.08042 0.7496 -0.05308 1.83322 0.7338 0.83986 1.91856 -1.1326 -1.55732 -0.90556 1.71318 1.17028 -0.02536 0.15646 -1.17296 -1.90238 1.5284 -1.0616 1.4797 -0.26262 -1.26658 -1.11448 0.4887 0.67644 0.17516 -0.14926 1.9013 0.21982 0.45956 -0.16606 -0.08914 -0.92596 -0.71468 0.5136 1.97794 0.20722 1.05912 -1.29038 -1.37076 1.99992 -0.97358 -0.46994 1.94792 1.38036 -0.305 0.60212 -0.49868 1.06036 1.11398 -0.7563 -0.38818 0.33538 -1.12946 0.68446 -0.80612 -0.96596 -1.73912 1.27046 -0.34196 -1.11694 0.93856 -0.30128 0.40782 0.60874 1.18356 0.63914 -0.11506 1.46102 0.17852 0.61982 -0.9615 0.81878 -1.69084 1.47978 -1.28906 1.20334 -1.0624 1.10834 -1.01856 1.57304 -1.6506 -1.15908 1.10584 -0.78414 -1.7779 1.57546 -1.79652 0.60086 -0.68028 0.94388 -0.05366 1.78864 1.05156 1.74618 -0.93866 1.3277 1.12222 -0.66082 -1.80322 1.05586 -1.28284 0.04028 -1.11816 -1.50584 -1.79482 0.79304 0.02622 -0.60926 -0.0265 -0.00948 -1.90356 -0.84748 0.28902 0.085 -1.46636 0.09762 0.59288 -0.80804 0.38662 1.6081 0.43564 1.28408 0.1413 1.23462 -1.32654 -0.75016 1.7672 -1.43702 0.41844 -0.61676 -1.9189 1.5984 0.91154 -0.07444 0.85586 0.30912 1.95906 0.61166 -0.98934 -0.57094 -0.45076 0.81274 -1.37266 1.3292 0.84744 -1.2062 -0.5004 -1.03344 1.21252 0.9637 -1.2652 -0.06974 0.95256 -1.41132 -1.3798 -0.56694 1.89898 -0.35278 1.8207 0.95534 1.02582 -0.53678 0.9723 -1.40974 -0.0906 -1.50196 0.24096 -1.63656 1.22912 0.2245 0.13854 1.98122 -1.81872 -1.04244 0.05884 1.6229 0.65674 0.81208 -1.61282 1.87964 1.75022 0.80064 -0.64956 1.45472 -1.35158 0.15084 -1.35416 0.32286 -0.69464 -0.5772 0.41012 0.31184 0.79096 0.05532 0.40322 -1.914 1.84042 -1.96294 -0.58022 0.34938 0.55284 -0.86384 -0.26258 -1.012 -1.17484 -1.24642 -0.25104 -0.00502 0.52982 -1.0027 0.77632 -0.91312 -0.73998 1.94104 1.2051 -1.77482 -1.88724 1.51758 1.94184 1.75856 1.8522 1.9181 1.05808 -0.19368 1.81438 1.8267 -0.80976 0.12596 0.55434 -0.02718 1.78246 0.61968 -0.6077 0.03778 -0.6732 0.61406 -0.9368 -1.63758 0.62956 1.89482 -1.59812 0.65084 1.79302 -1.69196 0.64648 -0.67678 -0.9482 0.84992 0.85022 0.17802 1.97322 -1.67716 -1.90478 -0.33878 0.49718 0.63474 0.07806 1.9311 -0.82638 -1.00156 1.56332 1.62298 1.44064 -1.44302 -0.78518 -1.84338 1.69458 1.22224 0.61422 -1.40898 1.16198 1.75034 -1.11198 -1.953 1.35668 -0.79866 -1.87494 0.75002 1.15984 0.49114 0.77488 0.34032 1.27574 -1.6237 -0.0004 1.45962 0.52446 1.73106 1.54058 0.69206 -1.464 -0.86792 1.1888 -0.3689 -1.6685 -1.22112 1.2102 1.23604 1.0932 0.48984 -0.37138 -0.17044 -1.76432 0.25918 1.01604 -1.77712 1.43482 -1.9518 0.30454 -0.70416 0.50968 1.32802 -1.22874 0.68246 0.22356 -0.77702 -1.65276 1.06432 0.55738 -0.2448 -0.36784 1.9635 1.68164 1.92216 -1.94498 0.02988 -1.43848 1.2569 1.7155 0.57778 -0.00886 -1.11098 1.65682 -1.33002 -1.1375 -1.0547 0.10464 -0.98346 -0.63974 -0.2233 -1.9752 0.47624 -0.57348 0.24474 -1.81762 -0.79204 -1.63918 -1.49368 1.40754 1.1085 -1.56838 -1.85414 -1.32136 -0.662 -1.14234 -0.3349 0.1479 -1.6865 0.20416 -1.01384 1.66136 -1.8221 -1.6673 1.72674 1.30468 -0.37936 1.6712 -1.89874 -0.18006 -0.72176 1.11834 1.3307 -0.29594 -1.21932 -0.2696 1.15592 0.53698 -0.5631 1.73978 0.84704 -0.33094 -1.94482 1.84936 -1.39302 0.14616 -0.15472 -1.78964 0.3188 1.81232 1.1974 0.7974 -0.20888 0.81236 -1.62592 0.11534 1.8469 0.14354 -0.30022 0.94004 0.56172 -0.46326 -1.74046 0.68638 0.12928 1.99016 -0.89908 0.44178 1.89796 1.6076 -0.29828 1.12812 -1.289 -1.42628 1.3571 1.31708 1.60616 -1.67148 1.7257 -0.41942 -0.5406 -0.58972 -0.64762 -1.71108 0.62254 0.48084 -0.6728 -1.48168 -0.67004 0.66532 -0.11652 -0.98762 -1.1628 0.49686 -0.82196 -0.6897 -0.5905 -0.6312 -0.27992 -1.38318 -0.95478 1.40348 -1.6876 0.7112 0.1106 -1.93074 0.08638 -0.78262 1.45526 -0.943 0.50916 1.51836 0.41782 -1.88082 -0.51938 -0.84856 -1.81566 1.9706 -1.93618 1.64844 0.66294 -1.4174 -0.8882 -0.76738 -0.2759 -1.31066 0.29092 0.21414 1.39568 0.0468 -0.09244 0.23736 0.60844 1.10886 -1.46466 0.05592 -0.90214 0.64116 0.17832 0.55328 -1.60556 -1.89018 -0.93694 -1.72704 -1.84384 0.36512 0.59454 -1.282 -0.98378 -1.9734 -0.87406 -0.5611 -0.69504 0.07162 -0.04612 -1.53738 0.29166 1.07976 -1.0129 -0.57876 -0.22166 1.87224 -0.1783 -0.59156 1.14942 -1.72822 -1.09008 1.30896 1.58384 1.4247 -1.94644 -0.45684 -0.20774 -0.48946 1.254 0.55312 1.51954 -1.16118 -0.92354 1.35896 0.09478 -0.42708 -0.8021 1.36908 -1.07914 -1.53134 -1.0676 -1.4632 -0.84504 -1.92728 1.76424 0.0181 -0.34594 -1.24294 -1.22508 -1.4778 0.2881 1.6546 -0.87646 1.88436 -0.54482 1.28558 -0.86584 -0.40848 1.97302 1.58276 1.64662 1.7944 0.81762 1.40076 -1.05692 -0.54718 0.0033 -0.37188 1.32646 -1.79458 0.67432 0.45262 -1.51242 0.68074 1.33938 -1.6269 0.15398 1.5111 1.66044 0.03546 1.8891 -0.9648 -1.26438 0.7318 -1.735 1.86492 1.71528 -0.80792 -0.09622 0.80918 -1.56126 1.60638 1.39604 -0.66192 -1.17796 -0.86202 -0.28082 -0.2458 1.12964 0.31142 -1.98522 -1.97408 -0.5694 -1.4305 -0.15214 1.83548 1.16702 0.4428 -1.45504 -0.91794 -0.8684 -0.37696 -0.06892 -0.06244 1.69364 0.61142 1.05878 -1.91418 1.13576 -0.92186 -0.26246 -1.1888 1.72434 -1.48272 1.76666 1.06794 1.05658 1.14948 -0.14132 0.2014 0.65392 -1.60024 -1.61856 -0.65098 0.02066 1.86318 1.6046 -1.8339 -1.11608 -1.5705 -1.3021 -0.72754 -1.3529 -1.1783 -0.32244 0.8157 -0.32472 -0.54154 -0.35558 0.21062 0.07918 -0.36666 0.61844 0.05148 -1.42614 1.20358 -1.69842 -1.0867 -1.19716 0.77992 -1.2211 -1.98248 -1.4159 0.34356 0.42812 -1.26818 -0.7584 -1.41794 1.9169 1.83046 1.0068 0.89268 1.20188 0.70624 -1.61976 -1.53494 -1.83592 0.90262 0.8397 -1.04904 -0.60736 -0.40188 -0.49494 1.64806 -1.8778 -0.97942 -0.21868 0.32994 -1.22486 0.81706 1.56158 0.69128 1.36326 0.104 1.6506 -1.31964 -1.31164 0.30354 0.39356 -1.05426 -0.42592 -0.90678 -0.45846 -0.18606 1.2038 1.1865 0.43144 1.9122 -0.32876 -1.8912 1.03948 -0.60106 0.0736 1.85186 -0.61274 1.18078 0.51244 -1.06396 0.22134 -0.59246 0.9505 0.91164 1.8069 -0.90016 -1.73112 -1.68448 1.5294 -0.90212 1.05564 1.69986 1.7767 -0.13946 -1.49096 -0.10604 1.37686 -1.7006 -1.94344 1.6911 -1.55576 -1.06432 0.58912 -0.13088 -1.3413 -1.33366 1.77758 0.16264 -1.38234 1.51138 -1.28328 -1.5302 0.1679 1.75232 -1.91782 -1.01398 -0.00478 0.66244 -0.71368 -1.5583 -0.45494 0.88828 1.6571 -0.66644 -1.14346 -0.02864 -1.66792 -0.82106 -1.11012 -1.82036 -1.525 -0.91214 1.1242 0.82134 -1.50822 -0.71434 0.81842 -0.91862 0.25292 1.14056 -0.67776 0.10622 1.69784 -1.982 -1.61886 0.58582 -0.46804 -1.97562 -0.22166 1.52302 1.89872 -1.2856 1.01308 1.61486 0.14602 -0.44404 -0.72142 -0.74446 -0.98744 0.68734 -1.66576 0.59862 -0.72724 -1.56198 1.03638 1.62886 -0.6544 1.34656 1.26052 0.79652 0.16758 -1.08618 -1.5905 0.14574 1.11944 1.43884 1.19042 1.63908 -1.04758 0.27072 -1.5606 -1.6923 1.40058 -0.63316 -1.7191 1.76058 0.07476 1.50934 -1.3247 0.9358 -1.99294 -0.43712 -1.93118 1.56558 0.80632 0.72362 -1.16654 1.25982 -1.01838 -1.24774 -0.75978 0.18538 -1.23616 0.98182 -0.64456 0.9849 -1.6951 -1.13268 -1.50458 0.70718 0.36554 -0.3605 -1.6969 0.74182 0.24792 -1.97348 1.19802 1.9059 -1.8429 1.2758 -0.4459 -0.16374 0.67124 -1.67528 0.78946 -1.3953 -1.155 -1.1561 1.33942 -1.6042 0.60536 1.93058 0.65746 -1.79984 -0.9695 0.254 1.54386 -1.58124 -1.9886 -0.704 1.45568 -0.79258 1.0139 -0.03188 -1.42974 0.36754 -0.74024 -0.67302 -0.68234 0.77978 1.52558 -1.07244 1.10272 -0.29418 1.19816 1.40394 1.51414 -1.56088 -1.80764 -1.24926 0.13988 1.46098 -0.4721 -1.9004 -1.89818 0.43494 0.98204 -1.89706 -0.2887 1.99392 -1.51736 0.77926 1.8945 0.86108 1.8201 -1.65334 0.82234 -1.29688 1.75444 -1.5781 1.34492 1.518 1.52624 -1.44036 -1.12978 -0.3222 -1.17214 -1.04836 -0.998 -0.37346 0.73986 1.10474 -1.7736 1.26066 1.15612 1.99468 1.67952 0.9143 -0.1337 0.1353 1.3855 -0.8432 1.61568 -0.67628 0.29712 -1.25368 -0.96694 -1.75838 -0.1143 0.85148 -1.4184 0.811 -1.31534 1.77046 -0.5942 0.62188 1.93472 -1.03174 1.22938 0.424 -0.39292 0.03038 1.10094 -1.91524 -0.74596 -0.6221 0.55284 -1.36618 1.70496 1.8254 -1.33286 1.90804 0.83682 -0.38088 -0.96362 0.18812 1.90232 0.2025 0.2625 -1.87612 -1.35526 -1.41378 1.06594 0.1505 -0.95506 1.92884 0.42008 -1.54406 -0.14514 -1.46578 -1.94004 0.71124 1.6849 1.44228 -1.47178 -0.6449 0.05584 1.5309 -1.93032 -1.08078 0.19346 -1.60078 -1.46334 0.06028 0.18434 -1.32644 1.97418 1.06552 0.73406 1.21766 0.71954 -0.26778 0.70576 1.10548 -0.22074 -0.97914 0.96444 -1.04956 1.0398 -0.6748 0.9578 0.0969 0.77896 1.17072 1.76544 -0.04412 -1.77688 1.39452 -0.9091 1.68126 -1.86774 -1.6286 0.13282 -0.65674 -0.0696 -1.75448 -1.95046 -0.99436 1.96616 -1.62862 1.95464 1.35454 -0.27814 0.63718 -0.18534 0.32774 -1.99452 -1.42058 -0.33698 1.50736 0.39066 -0.8946 -1.5089 0.74446 -0.0386 -1.90344 -0.37976 -0.63408 0.29482 -1.77156 -1.54958 -1.42034 -0.02538 1.0528 1.0854 0.34814 1.59938 -0.63752 -0.82494 -0.46626 -1.0287 -0.0412 -1.01574 0.66842 -0.62946 1.60326 -1.62498 -1.85822 -0.64396 -0.5623 -0.04962 1.64368 -0.2685 -0.41648 -0.7094 1.02684 1.8803 1.38834 1.38184 -0.16616 0.62526 0.68362 0.71082 1.7377 1.92094 1.37498 -0.6201 0.66906 1.55178 1.46652 0.72834 0.643 1.40434 -1.87072 0.53604 -1.56814 -1.87886 -0.17734 -0.6261 0.35814 1.72152 -0.52154 -1.99014 -1.1429 0.27806 -1.19326 0.84814 -1.60892 -0.23782 -1.94146 0.46784 -1.78898 -0.01936 1.34122 0.90846 0.28768 1.24796 -0.75346 0.74748 -0.00444 0.22336 -0.29404 -1.41002 -0.11048 0.70936 1.30738 -1.76066 -0.39778 1.04748 -1.14126 0.9057 0.05762 0.01444 -0.9763 0.11232 -0.85322 0.67374 -0.1463 -0.54036 1.1142 -1.47318 -1.0112 -1.09312 1.49322 -1.00132 0.5173 -1.33764 -1.93688 -0.7792 -1.75164 -0.81612 0.87458 1.07518 1.37834 -1.86524 0.01556 -1.11152 0.12034 0.14774 0.97066 -1.43262 -0.75408 -0.6564 -1.09658 -0.84716 -1.5898 0.19658 -1.04308 -0.77112 -0.23832 1.61392 -0.60576 1.78688 1.63328 -0.53126 -0.76546 -1.20092 -0.90326 -1.10916 -1.80796 0.64502 -1.8238 -1.61858 0.7991 1.67486 -1.9689 0.98244 0.6361 -1.11108 -1.90326 -1.7417 -1.4466 1.70596 0.48896 0.5468 1.28088 1.6452 -1.99656 0.34038 -1.41154 -1.67928 1.70542 0.83422 1.4591 -1.36558 1.78962 1.08768 1.44188 -0.09042 0.90022 -0.78352 1.79172 -0.77052 -0.04432 -1.67436 -1.60882 -1.1355 0.54448 -0.77144 -0.87828 -0.57226 1.56048 -1.932 -0.86786 -0.49664 1.06052 -0.31172 -0.7021 -0.91352 0.18784 -0.41066 -1.20438 0.75634 -1.69762 1.87132 0.93958 -0.65804 -1.0777 0.16466 1.88522 -1.0566 1.54054 -1.2735 -0.0113 0.88026 -1.53342 1.32392 -0.24974 0.16332 0.1556 0.41638 -0.8993 0.77486 -0.78134 1.1607 -1.23978 1.63742 -0.29792 -0.04426 -0.4261 0.10134 -0.21022 0.3554 1.72174 -0.68914 -1.57916 -0.96464 -1.0729 0.08436 -0.61394 1.0492 1.9422 -1.62018 -0.65666 -1.8217 -0.1128 0.83398 0.07928 0.25188 -0.96322 1.7366 1.938 1.13458 0.93086 1.77146 -1.51136 0.02076 -0.46232 -0.85834 1.11108 1.30216 1.63988 0.96654 -1.40926 -0.21612 1.15362 -0.81488 -0.99524 -1.32218 0.4594 1.4312 0.3968 1.6659 -1.22276 1.10638 0.47416 -1.27914 -0.56848 -0.95966 -0.7265 -0.07376 -0.44188 1.4502 -1.08104 -0.1627 0.16332 0.65518 1.42454 1.95026 -1.17778 0.40006 1.49766 1.78544 0.97326 0.0839 1.40932 -1.02436 1.78906 1.55944 -0.97532 -1.29794 -0.1708 -0.59854 1.79246 -0.39444 -0.66022 -1.72792 0.35734 1.82446 -0.70272 1.76776 -1.41076 -1.50266 1.86814 -0.81516 -0.25598 -1.81032 0.04758 0.75342 1.62056 -1.50156 -0.23942 -0.94552 1.85558 -1.94066 1.93354 0.61136 -1.30736 0.69334 1.69706 -0.50148 -1.0682 -0.12794 -1.98434 -1.42856 -1.90298 -1.84334 1.65772 1.31338 -1.50248 -0.10878 -1.70218 1.60006 0.65298 -0.94554 -0.18918 1.00032 1.91728 -0.21158 -1.66014 1.21964 0.92804 -0.96438 1.93888 -1.47378 0.94146 -1.22528 -0.45414 1.73312 -0.32798 0.7284 1.57944 1.66398 -1.8726 1.79874 0.83596 0.71716 -1.51834 1.2967 -0.9122 -0.41264 -1.46806 0.73418 0.2559 -0.27068 -1.7994 0.1605 0.40148 0.80112 0.24852 -1.0668 0.69408 0.90422 0.35346 -1.5226 0.57046 1.89616 -0.06682 1.48942 -0.37004 1.32228 0.61078 1.9246 -0.35864 -0.2309 0.31178 -1.36616 1.47266 0.85422 0.21848 1.09364 0.51864 -1.37942 -1.2994 0.7525 0.6877 -1.80616 0.77972 0.20954 -1.6744 -1.21906 0.37324 0.74474 -0.51542 -1.2612 -1.96568 -1.32478 -0.68948 1.65 -0.77172 0.93978 -1.21602 -1.00776 -0.33328 -0.2345 0.97658 -1.39268 -0.90718 -1.51322 1.41754 1.56676 0.68784 1.54726 -1.41738 1.15488 0.41454 0.0735 0.2036 1.60096 -0.21032 0.3766 -0.88356 1.72362 1.1638 -1.15098 -1.05096 1.86602 0.44 -1.09746 -0.26522 -0.36344 1.3233 1.82266 -0.37406 1.2787 0.30964 -0.4736 0.95384 0.9351 1.77592 0.08038 1.10102 0.29292 0.792 -1.24116 0.0931 0.82598 0.1621 0.3297 0.32426 -0.0392 0.4716 -0.29044 -0.1397 0.85166 -0.17666 -0.93964 -0.17158 -1.18232 -1.18356 1.11054 0.1673 -1.80972 0.75198 -0.21904 -1.75656 0.86518 -0.0787 -0.69608 -1.15478 -1.11186 1.11964 1.2685 1.82504 1.7093 1.27558 0.82352 -1.06838 0.40496 0.75592 0.12306 -0.29608 -1.88972 0.57828 1.77396 1.16494 -0.38626 -0.03764 0.77428 -0.54464 -0.75072 1.69796 0.13616 0.11864 -1.33464 1.91306 0.91074 1.54092 -0.98898 -1.48462 1.2279 -1.09534 -1.14182 -0.51552 -0.56388 0.84116 1.20308 -0.11548 0.15098 1.57608 0.99982 -1.87128 1.42346 0.06176 0.69336 -0.59338 0.057 -0.388 0.978 0.61602 0.62968 -1.09718 1.14702 1.84856 1.59594 -0.80984 -1.01652 -0.85016 1.15966 1.79624 -1.63516 1.28258 1.92058 -0.11044 1.528 -0.7816 -1.15428 0.6258 -0.85786 -1.0672 1.96184 1.72922 1.81138 1.19818 0.45554 -0.87946 -1.7255 -1.92562 1.42526 1.25872 -0.14396 -0.70126 -1.4371 0.395 -0.11432 0.32508 -0.24238 -0.99038 -0.11148 -1.75406 -0.14232 0.05322 0.72484 0.35472 1.21124 1.71722 -1.79186 -0.4661 0.53376 -0.52504 -1.43912 1.43118 -1.53016 0.0452 0.65416 0.90046 -0.90856 1.94882 -0.607 0.47538 -1.08436 -1.09092 -0.27542 1.90092 -0.05982 1.06608 0.71966 -0.47442 -1.99614 -0.79708 1.46076 1.8361 -1.26274 -1.10382 1.0751 -0.09138 -0.99562 -0.54336 1.98694 0.7383 -1.0876 0.7406 -0.45938 -0.0497 0.69784 0.42484 -1.17112 0.51768 1.74084 0.98522 -0.76636 -0.1912 1.6166 1.41312 1.3303 -1.05142 -1.67136 0.8239 -1.58546 -1.85486 -1.00244 0.68256 -0.46998 -0.66918 0.0142 -1.27522 0.69392 1.57364 0.9701 -1.25446 -0.10392 1.6348 1.96186 0.6547 -0.43702 0.17504 1.36846 1.77428 -0.79692 1.51532 0.23718 -1.79804 -0.21528 -0.98138 1.96926 -0.34806 -1.7805 -0.67588 -0.43412 0.1265 -0.42004 0.18046 -0.95792 1.8418 -0.25928 0.22982 -0.78944 -1.79022 1.9361 -0.02696 1.73092 -0.74476 1.54758 0.9953 -0.91086 -0.40116 -0.15308 -1.03812 -0.14988 -0.84476 -0.41988 -1.44564 -0.37918 -1.10078 -0.09206 -1.2044 -1.10218 -1.48862 -0.63846 -1.63776 -1.49474 -0.63022 0.00774 -1.15642 1.16556 1.7156 0.5927 -1.87994 -1.08604 1.33316 -1.03554 1.15866 1.83818 1.23002 1.78438 -1.01806 -1.34564 0.78942 1.92948 0.37042 1.80502 1.25762 1.47398 -1.58936 -1.45364 -0.9744 -1.44036 -1.85714 -0.06614 -1.05488 -0.668 -1.30082 0.84822 1.57384 -0.53222 0.36114 1.2475 0.70398 1.82972 -0.62648 1.00612 -0.27314 -1.9521 0.51696 -1.80924 0.42144 -1.28382 0.39078 -0.88518 -1.074 -1.85878 0.10838 -1.4181 0.99112 -1.4428 -0.75236 -0.10422 -0.4029 -1.70278 0.13996 1.15596 0.44984 0.1862 1.96884 0.00114 -1.73472 -1.68958 -1.73568 -0.23776 -0.57676 -0.26558 -0.04962 0.95968 0.55594 1.3643 0.07814 1.2097 -1.04298 -1.78014 0.1249 -1.69058 0.16884 1.02802 -0.99216 -1.1961 1.2236 -1.88274 1.8571 1.01664 -1.77986 -1.53464 -0.3496 0.40676 -0.31024 0.21756 -1.44374 1.54066 -1.92094 -1.48418 1.92548 0.111 -1.54816 -1.37146 1.69158 1.19156 0.19082 1.14868 0.02596 1.6268 0.47906 0.03792 -1.06124 -0.62278 0.1723 -0.16946 -1.0129 1.42182 -0.82166 1.16494 0.77754 -1.85198 -1.54668 -0.75232 -0.45792 -1.04214 -1.91598 1.54362 -0.73008 -1.66162 0.80802 0.53748 1.13064 -1.5588 -1.70562 -1.9861 1.85756 -0.4597 1.33642 -0.18372 0.61306 -1.9251 0.0913 -1.76972 -1.46244 0.18222 1.5266 -1.72684 -1.76554 1.8592 -0.76956 -0.86556 0.36232 -1.08588 -0.26174 1.77746 -0.34232 1.20416 1.08644 0.7337 1.10752 0.6472 -0.12126 -0.31244 -1.18124 1.94158 0.90728 -1.50244 -0.91716 0.1584 -0.02702 1.4468 -1.91462 1.36204 -1.44814 0.70262 0.0567 -1.77698 -1.2899 1.35986 -0.56874 1.81086 1.30914 -0.58928 1.10792 -0.32642 -1.82484 0.2165 0.70292 -1.48308 0.3562 -1.34662 0.45384 -1.3973 0.70874 1.96584 0.19614 -1.59628 1.4115 -1.40402 1.27492 1.02904 1.19032 0.07606 -0.11378 -0.21636 -0.95094 1.00026 -1.63776 1.03564 -0.27926 -0.56536 0.49406 1.72658 -0.69756 1.29666 1.33806 -1.53198 0.57964 1.14518 1.76642 -1.30924 -0.20538 -1.43408 1.80218 -0.6804 -1.00706 1.48266 -1.34672 -1.41398 -1.49352 -0.34702 -1.1885 -1.8859 -1.91506 0.40222 -1.37948 -0.76692 1.5245 -0.67572 -1.37548 -0.82512 -0.14576 1.66728 0.79616 -1.07846 0.1593 0.72726 1.30026 1.41208 -1.37224 -0.2719 -0.17592 -1.73368 -1.17044 0.58414 -0.7656 0.6244 0.27386 -1.43338 -1.2093 -0.43362 0.34696 1.77622 0.52916 -1.93224 -1.37686 0.37996 1.64164 0.90022 0.67612 0.10496 -1.05648 -0.74466 0.52066 0.59152 0.83652 0.12734 -0.23026 0.88062 1.16028 0.26566 -1.8176 -0.7588 1.95824 0.77836 1.82888 -1.45482 1.28452 -0.49922 -0.8322 -0.00388 0.9592 0.95788 -1.46642 1.05812 0.82792 0.07802 -0.86188 0.7284 -1.7016 1.77934 1.08562 -1.59996 -1.26404 0.52278 -1.21542 -1.43128 -0.25436 0.23804 1.74762 1.10706 -1.14536 1.39324 -0.59368 0.52502 -0.61602 -0.89424 1.81796 1.7508 -1.76114 -1.92206 1.09542 0.14084 -0.2676 -1.32002 1.14576 -0.01436 -1.27824 1.46252 1.7636 -1.24152 -1.01078 1.04132 0.58222 1.38094 1.18002 1.78234 -1.49476 -0.56456 -0.00624 1.26016 0.79954 -0.95352 -0.24686 0.06074 -0.85854 1.56596 -0.44846 0.00854 -0.32586 -0.27786 0.26006 -0.61268 0.48952 -1.77956 -1.31608 -1.05522 0.66764 -1.94404 1.37702 0.79892 1.84696 0.2831 0.47444 0.98914 0.11784 -0.1867 -1.189 0.02538 1.34498 -0.39838 -1.39948 0.3825 -0.24298 -1.0213 -0.7216 0.04894 -1.61232 1.67164 1.53852 1.5798 -1.5659 0.7132 -0.21162 0.04144 0.4984 1.60188 -1.4482 0.36176 0.697 0.23524 -0.8853 -1.55074 0.05842 1.19482 1.41318 -1.48358 0.57204 0.764 1.9429 1.32814 0.75494 1.52616 0.66356 -1.9275 -0.87838 1.87754 1.63028 -0.4892 0.94204 0.63496 -1.44292 0.99598 -1.48258 1.79722 0.36482 -0.86626 -1.50528 -1.56702 -1.50928 0.51594 -0.7385 0.44924 1.32836 -0.89028 -1.51308 -1.84876 -1.67592 0.56218 -0.4345 -1.23802 1.47688 -0.37634 1.72872 -1.78964 -1.17516 -1.09206 -1.95036 -0.28412 -1.0802 0.62086 1.97158 1.04098 1.4197 -1.93796 -0.32184 0.1187 1.93184 0.26118 -1.17 0.27944 -1.9783 0.13904 0.27328 -0.57304 0.06664 -1.69432 -1.80222 -0.44618 1.58556 -1.02962 1.55346 -0.9319 1.94528 0.18006 1.15806 0.9334 1.26726 -1.69294 0.97236 -0.54312 -0.9159 0.77882 1.51318 -0.13014 0.54434 0.22052 1.02952 1.26632 1.43156 0.36822 -1.7806 0.06288 -0.26782 1.28606 -1.25972 -0.66216 1.35038 0.30174 0.14372 -1.48086 -1.28986 0.4958 0.1303 1.94942 1.06738 0.90348 1.09568 -0.76036 -1.09604 0.74476 0.85144 1.62476 1.2888 1.3731 -0.80466 -0.75714 0.62586 -1.59658 0.88262 1.84612 -0.72386 -1.06854 0.12226 -0.78266 -1.24902 -0.50944 1.33592 -1.34078 -0.56022 -0.17978 1.583 -1.0345 0.16332 0.4532 -1.25326 0.58828 -1.35148 1.56376 0.80246 1.64084 1.12482 -0.21012 0.36236 -1.3132 1.51678 -1.40538 0.77406 0.35906 0.09072 1.4974 0.71198 0.94696 1.41912 0.2976 1.243 1.77868 -1.62648 -1.08704 1.19842 -0.42318 1.56756 0.43646 1.79986 1.08372 1.16174 -0.11408 -0.53858 -1.1644 0.62636 0.60704 -1.40568 1.0621 -0.39906 1.24176 -1.27872 1.48626 0.56908 -0.56454 -0.29944 -1.84364 0.7165 -1.02316 0.5685 -0.05764 1.10822 -1.36396 -0.45364 1.86572 1.2102 -1.03196 0.21474 1.73556 -1.63468 -0.77436 -1.92672 -1.31164 -0.00998 1.27862 -0.47496 -0.36916 1.13318 -0.06154 1.73268 1.48366 0.90308 1.64988 -0.654 -1.82266 -0.4237 1.75672 -0.79042 0.93806 1.21238 1.04206 0.8603 0.5907 1.86794 -0.14252 1.97548 0.52568 -1.66046 -0.4043 -0.37462 -0.3417 -1.6077 -1.14124 0.69676 -1.6247 1.16848 -1.96708 -0.50378 1.29046 1.9104 -1.9303 -0.97684 -1.22198 -0.75584 1.08484 1.03928 1.45834 1.29004 -0.63098 0.2894 1.45348 1.75846 1.27668 -1.47684 -0.67676 0.36532 -0.51744 -1.1796 -1.86748 1.30312 0.99936 -0.70872 -0.46252 -1.68692 0.07438 1.09136 0.0443 -1.0469 -1.0293 -0.99114 -0.45662 0.26048 -0.0809 1.02764 1.14268 0.01888 0.08228 -0.65346 -1.2169 0.8182 -1.48286 1.23562 0.97052 1.30628 0.17188 -0.10016 -0.88438 -1.66442 -0.62648 0.00996 -0.3141 1.2125 -0.63632 1.98732 -1.08896 0.77842 1.48568 -1.53506 1.16976 1.99348 -1.00504 0.50524 0.31934 -1.63984 -1.25398 -0.80702 -0.16066 -1.75098 -0.61952 1.30434 -1.71698 -1.86398 -1.9627 -0.68568 0.78598 1.76372 0.32074 0.23118 0.14118 -1.82546 -0.02428 -0.2913 1.57958 0.96072 1.32294 0.33088 -1.10322 -0.06822 0.1166 -1.63576 0.5332 -0.38266 0.17676 -1.21038 -0.17678 0.0119 -1.08372 0.61036 0.56026 -1.0211 -1.93952 -1.13342 0.9551 0.06916 -0.27308 -0.45012 1.17518 -1.95064 -0.79868 -0.8527 -1.54234 -0.7455 0.32374 0.99522 0.01774 1.28624 0.92564 1.35862 -0.9628 0.41514 -1.70382 1.90756 0.1324 -0.98378 -1.22886 0.66568 -0.04076 1.24768 1.4911 -1.22592 0.84742 1.71036 1.67092 -0.83772 -1.88596 -0.89086 0.7536 -0.48958 -0.76622 -0.22696 1.15568 -1.15258 -1.26956 -1.0307 1.90656 -0.72132 1.29358 1.18152 0.77186 0.53696 1.08624 -0.44234 -0.42686 -1.8549 -1.3173 -1.8471 0.73418 -0.06114 -0.702 1.06124 1.59062 1.9275 -1.44176 -1.57276 0.29986 -1.25272 -0.41644 -0.83854 0.88118 -1.0914 -1.46736 -0.58478 0.12484 1.26416 1.25944 1.44874 1.17712 -0.8369 -0.89036 1.49244 1.37208 0.77772 -1.5242 -1.04586 -0.31216 -0.71024 0.1372 1.5258 -1.52044 1.96114 0.37496 -1.18526 -1.78758 0.17252 0.18242 1.22818 -1.71082 -1.69682 0.66942 1.15926 1.6951 0.13212 -1.69966 -0.13674 0.00432 -0.32898 1.43282 0.30898 -1.11436 -0.76604 -1.02422 -0.42894 -1.1708 -0.19446 1.68914 -1.1871 1.45168 1.6041 0.7394 -0.98992 0.61006 0.05776 -1.3181 0.92004 0.53362 1.71788 -0.7972 1.9523 -0.91828 -1.96874 1.15956 0.87392 0.49366 -0.04964 1.79732 -0.76004 0.47736 0.61252 0.94982 -1.9832 -0.14306 1.82822 0.64014 1.24558 0.98534 -1.19612 1.98552 0.40686 0.48338 -0.63048 1.77648 -1.31492 -0.43622 -0.34068 -1.45082 -0.36266 -0.5498 -0.6197 1.32962 0.28642 -1.53178 1.4805 -0.77276 -1.14562 0.0744 0.10186 1.0774 0.87882 0.0082 0.44916 0.33552 -1.16086 -1.34572 0.72258 1.15314 0.78184 1.41762 -0.5637 1.93468 -0.27026 1.73234 0.79592 -0.53108 1.7122 -1.74522 0.47448 -0.68988 -1.16568 -0.59884 0.15998 1.78976 -0.90294 1.28288 -1.33662 1.54858 0.37642 0.60096 -0.21424 -0.82882 -1.11654 -0.27354 -0.8933 -1.60136 -1.9658 1.03398 0.93732 -1.96922 0.8412 0.50618 -0.23266 0.21972 -1.98612 -0.5544 -0.40012 0.55406 -0.32772 0.01158 -0.48496 -1.40042 1.59992 -1.20826 0.24308 -0.52236 1.84822 0.6594 -0.76156 -0.44374 1.99088 1.17398 -1.22328 -1.81912 -0.36816 -1.73488 1.05122 -1.99674 0.62564 0.39726 -0.5653 -1.3218 -0.68254 0.44368 0.46892 0.32814 1.63382 1.94024 1.77586 1.65144 -0.317 0.10932 -0.1237 -1.63518 -0.9141 -0.81382 -0.42874 -1.90828 1.48338 1.62906 -1.44958 -0.62522 -0.20446 -0.61894 -1.9601 1.6672 -0.27056 -0.41356 -1.41214 1.74876 0.39438 -0.4034 1.92842 1.275 -1.42312 -1.16318 1.28212 -0.84376 0.3228 1.91494 -0.1562 1.90796 0.88354 -0.413 1.87324 -0.11846 -0.70232 -1.58812 1.09496 -1.55434 0.69384 0.95948 -1.48012 0.99656 -0.15316 -1.9401 0.88266 1.93638 0.40376 0.80172 -1.40132 0.04738 1.35236 -1.97292 -0.74296 -1.9136 0.1809 0.60128 1.78794 -1.75092 -0.09596 -1.58498 -0.2311 1.56844 -0.21476 -1.35754 0.49124 -1.79148 -0.49218 0.15834 0.3695 -0.68244 0.49146 -1.8578 -0.9451 1.4349 -0.9233 -1.06816 -0.57184 -1.48304 -0.04586 1.34572 0.75246 1.52108 1.31624 1.79642 -1.44442 0.85644 -1.67006 1.78682 1.70064 0.6964 -1.37608 0.84588 0.5416 0.27882 -0.80944 -1.04856 -0.78868 -0.79564 -0.43134 0.67412 0.42856 -1.7546 -1.56778 1.2811 1.5559 1.21016 0.97218 -0.17786 1.00968 -0.75094 -0.8269 1.27098 0.29492 0.55832 -0.33746 0.24782 -1.74782 -0.01118 -1.91314 1.6348 1.87858 -0.27902 0.4577 1.67308 -1.30638 1.64558 -0.39942 0.77608 0.24432 -1.87474 1.7205 -1.7762 0.9483 1.28002 -1.08286 0.50704 1.08886 -1.96486 -1.7595 -0.6546 1.88426 0.50778 -1.22286 0.45158 -0.4767 -0.64706 -1.44906 1.98328 -1.38374 0.94274 -1.30076 1.22248 -0.8825 -0.06616 0.79554 -1.29242 -0.2123 -1.24088 0.58748 1.9103 -0.39042 -1.80392 1.57782 0.8844 -0.47146 -1.0507 -1.67732 1.0149 -0.35882 1.1555 1.15896 -1.78296 -0.2517 0.74144 1.75052 -0.6292 -1.05616 -1.9939 0.14978 1.34066 1.09464 -0.3827 0.15982 1.30158 1.42602 -1.50198 1.10628 -0.98556 -1.51552 -1.79046 -1.28066 0.32972 -0.55236 -1.6698 1.73582 1.68816 0.92996 -0.10728 -1.07698 -1.426 -0.96974 -0.46396 0.34208 -0.53924 1.78376 -1.5178 -0.52584 0.37604 0.1833 -0.57526 1.76374 -0.21842 0.60934 1.2468 -1.18434 1.99226 0.03624 -1.72376 1.45838 -0.9695 -0.157 1.30822 0.53042 -0.56838 0.43614 -1.17076 0.76938 -0.5819 1.00562 -1.93766 0.44082 1.0511 1.08306 -0.42422 0.3104 -0.44142 1.2752 -1.30094 1.5178 0.94382 1.02384 -1.26976 0.83112 1.05974 -1.5542 0.93774 1.72036 0.20082 1.51452 1.74356 -0.34808 0.65372 0.43432 1.89252 0.73098 -0.27798 1.00562 -1.08954 1.0246 0.95452 -0.2872 -1.94394 1.37042 0.12096 0.9839 -1.28738 0.6985 -0.96644 -1.0636 1.25706 -1.28294 -0.66282 -1.24158 -1.48544 0.00666 -0.88726 -1.5229 1.47066 -1.0142 1.4984 -0.89114 -1.43146 -0.09644 1.26204 0.41042 1.7871 -1.38324 1.19054 0.84478 -1.41164 0.55296 0.36472 -0.32554 -1.43674 -0.769 0.96778 -0.64018 -1.28984 -1.92418 1.73316 -1.76078 0.68678 -0.73558 -1.74256 1.02648 -1.68528 -0.10472 -0.08024 -0.11416 -0.38176 -0.7551 1.53494 1.92464 1.52618 -0.15436 -0.85576 0.15248 -1.89164 1.71052 1.1968 -1.90416 1.50796 0.18878 -1.65198 -1.2959 0.35232 1.66272 -1.80486 1.28356 1.03888 1.75292 1.76694 1.39484 -0.74736 1.25918 0.42206 1.30412 -0.35388 -1.76446 0.0957 -0.1082 0.697 -0.6953 -0.77346 1.34344 1.018 0.44006 0.14826 0.71762 -1.91326 -1.18472 -0.74854 -1.00036 -1.12098 1.6373 -1.26874 -1.502 -1.08362 1.55334 -1.32584 -1.348 -0.29986 0.6362 0.84696 -0.13468 -0.52204 -1.8599 0.672 -1.733 1.42356 -0.1599 -1.49364 1.8728 -0.3852 -0.69502 -0.60116 0.20324 -1.03776 -0.99544 -0.3139 1.91224 -0.48556 -0.52248 1.1968 0.22358 0.50144 0.7673 0.5158 -0.38468 0.52792 -0.07594 0.38774 0.09278 1.56138 -0.5563 -1.80834 -1.9392 0.45772 1.36122 -0.13452 0.8779 1.76804 -0.11874 1.29404 0.24664 -1.69108 -0.62136 1.38482 1.57402 0.23846 0.528 1.53576 1.9118 -0.13276 -1.2381 1.13754 -1.7774 1.4394 -1.37664 1.36386 0.71064 -0.3757 -0.94332 -0.26092 -0.5005 1.45236 0.41358 -1.6886 -1.8289 -0.88668 -0.66196 1.74552 -0.39898 1.13908 0.80818 -1.85582 1.63316 0.18348 -1.04984 -0.08534 -0.87722 1.38246 0.94176 1.37684 1.9999 0.3883 0.47594 -1.77446 0.79946 0.30614 1.96906 -1.3786 -0.16566 1.99734 1.15482 -0.74642 0.71136 -1.85782 -0.20548 0.79426 -0.10466 -0.93276 1.21372 0.4607 -1.09958 0.78248 -0.06526 -1.22728 1.05904 -1.38228 1.50436 0.03912 0.48924 0.7087 0.24106 1.32818 0.68252 -0.32018 -0.26084 1.1112 -1.02358 0.18802 -0.48806 -0.13506 -0.85574 -1.28338 -0.08884 -0.39634 1.98424 -0.44542 -0.56718 1.49096 -1.61106 0.15588 -1.9807 -1.94446 -1.83126 -1.51896 0.47642 -0.78258 -1.54646 -0.2968 -0.8335 0.18174 0.80176 -0.07008 0.13214 1.12564 -0.24372 1.82664 0.57106 -0.96846 0.40302 0.68332 -0.18216 1.7073 1.5553 -0.65124 -0.68356 -1.81622 -1.12868 -1.66892 -1.21154 -0.49556 1.18488 -1.9866 -0.34984 -1.66666 0.6894 0.1855 1.15942 0.20146 1.2034 -1.47828 0.65764 1.2732 -0.97848 1.33018 1.06316 1.21432 0.58446 0.7855 1.84736 -1.84242 0.98352 -1.59872 -0.91206 -0.2944 -1.66196 -1.688 -1.49976 0.81996 1.1646 0.29264 -1.6539 -1.87754 -1.08526 1.66204 0.99684 0.78836 -1.72024 -0.2012 -1.56376 1.57076 -1.3328 -1.63042 -0.17188 -0.11872 -1.97432 0.54462 0.68576 -1.7749 0.2856 0.10212 -0.4007 0.0858 -1.5163 -1.36914 0.5209 0.7836 0.92544 1.94456 1.9953 0.3774 -0.31474 -1.66054 1.03686 -1.08924 -1.82438 0.53516 0.35846 -0.64054 -1.66668 -1.7252 0.93456 -1.21434 0.34926 -1.7234 1.49038 0.61394 0.57314 1.20664 -0.3201 -0.2066 -0.37378 -1.72488 -1.46564 -0.93754 -1.30668 0.2603 1.63876 -1.71614 -0.85886 -1.78676 1.86292 -1.66482 -0.19652 0.05882 -0.1145 -1.67226 -0.6673 -1.08264 -0.29434 -0.50948 -1.81384 -0.6737 1.89178 0.0108 1.16756 -1.18638 1.73652 -1.7929 -0.85952 1.90694 -1.78954 1.7188 0.26464 0.2019 -1.24884 -0.58988 1.80508 -0.0256 -1.78258 -0.0847 0.89638 0.07458 -1.78168 -1.87992 -1.58814 0.59936 0.98218 -1.70956 0.39108 1.16262 -0.71876 -0.34424 -0.49904 -1.81062 -0.39278 -1.70008 -1.61666 0.52356 -0.1051 1.87968 0.52378 1.43166 1.14338 -0.76582 -1.99724 -1.85588 0.07054 1.60158 -0.69234 -1.52464 -1.47734 1.3583 -1.30006 1.79036 0.59412 0.11158 -0.89204 1.77168 -0.40108 -1.4318 -0.16856 1.44608 -0.184 -0.02214 0.6257 0.5547 0.21782 0.07524 -1.40534 -1.54876 -0.97322 -0.71848 -1.92052 -1.66228 1.39152 1.46472 0.9312 0.98412 -1.8827 -1.73226 -1.4712 1.38058 0.98276 -0.08428 0.63994 -0.07708 -1.0442 -0.2894 -0.40476 1.49564 1.19194 -1.38836 -1.07536 -0.67332 0.04824 1.0777 -0.38434 -0.8345 0.60846 -0.55194 -0.07372 1.9953 1.0069 -1.1436 1.44858 1.24114 1.2788 -1.63778 -1.60116 1.1294 1.18036 0.12384 1.65438 -0.66884 -1.96062 0.45084 -1.5367 1.90026 1.3379 -1.29722 -0.40112 -1.4928 -1.52002 -0.901 -0.7407 -1.58488 -1.64314 0.7528 0.28948 -1.6862 -0.15094 -0.23432 -1.62436 0.66924 0.34146 -1.4665 -1.62632 0.12636 0.46714 1.3988 0.64412 -1.40642 -0.68824 0.46584 -1.68472 -0.93192 -1.04274 1.59348 -0.71272 1.59738 0.6144 -0.28462 -0.17242 -0.09432 1.84916 -0.58094 1.5153 -0.09212 1.5971 1.03344 0.88426 -1.474 0.07272 -1.91498 -0.71966 -0.58534 -0.2518 -1.01488 0.98968 1.50588 0.07716 0.33692 -0.56688 1.9391 0.05864 -0.99472 1.19544 0.01414 -1.21628 -1.8088 1.45786 -1.23662 -0.5345 0.69208 -0.3006 -1.86634 1.93808 0.46994 0.82006 -1.07762 -0.98182 0.46578 0.52926 1.4337 -1.48548 0.11812 0.52084 -0.77328 -0.8145 0.9006 1.31988 1.97212 -1.39622 -0.2186 -0.47978 -1.72254 -1.71776 -0.11152 1.84704 0.84386 0.22362 -0.49884 -0.87584 1.40588 1.57556 0.12088 1.0605 1.38064 0.38562 -0.85334 -0.52344 1.27824 0.16504 0.0673 0.48768 1.61136 1.80766 -0.00058 1.42456 1.94052 0.48444 -0.03128 -1.17138 -0.1169 -1.1287 1.48574 -1.84042 1.68408 -0.82814 -0.57806 1.85142 0.04958 0.6229 1.9762 0.69874 1.51702 -0.65838 1.12336 1.85812 0.39364 1.05762 1.1402 0.8411 -1.96116 -0.57596 -1.95836 -0.19294 0.53646 1.2937 -0.09116 -1.53022 0.28282 0.46392 1.9065 -1.64058 -1.7451 -1.32748 1.24104 0.53456 -1.9102 -0.03872 1.3764 0.20878 -1.03632 -0.70478 1.42696 -1.34466 0.18884 1.36854 0.97066 0.26974 -1.3157 0.14128 -0.9691 -1.1171 1.34422 1.1276 -1.21022 -1.54094 -1.17034 -0.32132 -0.37688 -1.60962 1.263 -1.04786 -0.4314 1.58566 0.71638 1.61676 0.44384 0.84448 0.10058 -1.41122 1.7683 -1.56764 1.6812 -1.0686 -0.12258 0.7436 -0.00294 1.3863 1.6182 1.1679 -1.67698 1.63908 1.78548 -1.85848 -0.56698 1.0236 -0.98482 -0.87272 1.88274 0.78196 -0.2951 0.41112 -1.66184 0.98602 0.94576 -1.98848 1.72662 1.8413 -0.06106 0.57208 -1.0753 -1.87382 -1.83084 -1.9045 0.37296 -1.40146 -0.79832 0.4128 -0.74984 0.04618 0.462 -0.55664 0.06046 0.4552 -1.93266 1.6239 -0.83336 -0.57294 0.15262 1.69276 0.60156 -0.68346 0.96174 1.31862 0.88388 -0.64282 -1.90582 -1.30482 -0.01436 -0.13412 1.01696 0.15576 -0.55266 -0.95388 0.2432 -1.80316 1.46992 1.68998 -0.23146 -1.16554 -0.17808 0.60236 1.87712 -0.16344 -1.68006 -1.73846 -1.64934 -0.11706 0.91866 1.32184 0.84488 0.29954 -0.31134 0.24616 1.9705 1.60814 -0.83558 -1.14946 -0.78838 -0.98422 -1.49566 -1.49352 -1.57284 1.38428 1.0292 -1.69376 1.996 -0.98566 -1.788 1.87048 -1.84602 -0.52336 1.65852 -0.68184 -0.12918 1.99918 -0.56058 -0.87482 0.99866 0.62234 -0.9935 0.21124 -0.22348 0.66378 1.02098 -1.2826 -1.53292 1.20116 -0.92438 0.63506 1.03242 0.61938 0.47834 -1.24726 -1.66988 -0.68456 0.1752 -1.50716 0.80734 -1.9863 -1.73448 1.33632 -0.32906 1.04818 1.16786 -0.63178 0.64102 -1.6295 -1.62466 1.9713 0.1687 -1.96076 -0.14814 0.58928 -1.99072 0.29308 0.72996 -0.23664 -1.63672 0.3118 1.83914 -1.20518 1.9387 -0.42308 -1.16194 -0.46542 0.9983 0.90578 -1.01198 -1.44462 -0.17602 -1.05342 0.31782 0.98494 0.3568 -0.32982 -1.4597 0.72834 1.49592 -0.34724 0.07638 -1.90344 0.82582 -0.8957 -1.53366 0.99316 -1.2325 1.88906 -1.25654 0.03702 0.58548 -1.58818 -1.87046 -1.50446 -1.82546 1.47068 1.3976 -1.906 0.2101 -0.36674 0.36992 1.73524 1.38246 1.81994 0.14732 -0.77788 -0.2786 0.86692 -1.76754 0.33908 -0.24722 -1.99838 0.26744 0.71052 -1.76458 1.74256 -0.031 0.8344 -0.88942 -0.15512 -1.23294 1.10922 0.1623 0.951 -0.0301 -0.58786 -1.18298 -0.17772 0.8104 0.88612 0.27258 -1.55372 -1.48178 -0.13736 1.28282 0.34112 -1.2859 1.00588 0.95698 1.24422 -0.72824 -0.09942 1.6566 0.40436 -1.71578 0.58386 0.14438 -0.58098 -1.7399 -1.56804 -0.49832 -1.43682 0.9834 -1.6348 -1.13382 1.2607 -0.42708 -1.56854 -0.14996 -1.26484 -1.59492 1.8991 -1.9435 -0.65366 -1.9335 -0.69352 1.48338 -1.59522 1.4277 -0.10572 1.02846 0.96312 1.8774 -0.13364 -1.42688 0.86648 1.45262 1.75792 0.66676 1.38604 1.26776 1.39798 -0.43784 0.37842 -0.61556 -0.29062 -0.53714 -1.847 -1.00356 -1.9779 -1.23182 -1.71736 -0.84418 0.22182 0.83912 -0.62736 -0.15594 0.31024 0.33786 0.97772 1.10046 -0.26042 -0.00868 0.36582 -0.5965 0.53854 -1.31424 -0.88296 1.79208 -0.0003 1.80808 -0.185 -0.23532 0.464 -0.53262 -0.99292 0.33692 -0.32192 1.96188 0.3571 1.84362 1.33038 1.40832 1.40558 -0.87392 0.74582 -0.19272 -0.34442 1.02722 1.20046 -0.9776 -0.85764 -0.57996 1.68904 -1.71444 -0.47182 -0.59334 1.19634 -1.02508 0.84588 -0.9764 -1.65418 -1.6391 0.99674 -1.78598 0.95318 0.51794 0.69182 -1.24558 -0.16798 1.0357 -1.83402 0.34836 1.98076 1.1341 1.77008 0.33124 0.58574 -0.76028 0.65766 -1.26876 1.03016 0.08982 -1.4084 -1.0227 0.6657 -1.60506 0.07564 0.17842 1.9392 1.60042 1.14058 -1.29686 -0.884 -0.66652 1.49778 0.96946 -1.58842 1.19154 0.1729 -1.77214 1.11546 -1.09884 -0.80482 -1.83526 -1.1436 0.794 -0.56072 -1.44508 -1.48454 1.19692 0.8209 -0.04338 0.31726 0.11462 -0.00658 0.25598 1.7693 0.01944 -0.45168 0.55824 -1.5577 -1.48662 -1.1848 0.2316 1.89512 1.46282 -0.76764 0.64728 1.6363 -1.19938 -0.08036 1.39418 1.0668 0.42978 -0.38422 0.129 -1.10538 -1.57316 -1.87912 1.8717 0.95564 -0.4793 -0.33706 -1.25772 -1.22048 -0.81606 0.38588 1.00136 1.34004 -0.7582 1.20014 0.39214 -0.35678 1.61464 1.78554 0.60206 -1.91404 0.96358 -1.73038 -0.60644 -0.43836 0.792 -1.0814 1.71484 -0.72272 1.4267 0.8898 1.88746 -1.50118 1.86442 -0.63864 1.34244 -0.10146 -0.3234 1.60258 0.9216 0.85042 -1.92708 -0.54792 0.71116 -0.92306 0.23098 1.30722 0.3945 -0.39954 1.5275 -0.24904 1.45216 0.64422 1.01372 0.04304 -0.06896 -1.84278 0.72732 0.31004 -1.83636 -1.39792 -0.0519 1.465 -0.6472 0.29414 0.49842 0.50252 1.47562 1.88044 1.8577 -1.5064 1.9666 -1.98794 -1.13606 1.75162 -1.98698 -0.4885 -0.44156 -1.68338 1.33064 1.48476 0.5241 0.11438 -0.25024 -0.32426 1.43764 -0.75678 -0.5149 -0.17862 1.4303 1.1852 1.17122 1.36656 1.43894 0.3195 -1.09768 -1.39208 -1.90074 -1.58298 0.57852 1.72846 1.8316 0.51406 -0.25726 1.03388 -0.21566 1.44008 -0.21974 1.26208 0.03 -1.58048 0.59878 0.41068 0.9794 -1.32114 0.07798 1.83372 -0.28478 1.67704 0.8565 -0.74482 -0.98258 -0.34578 -1.54988 -1.32752 -0.67762 -1.39996 -1.42688 0.54444 0.8493 1.4051 -0.58778 -0.8586 -0.2619 1.60218 1.65316 -1.98998 -1.62838 0.71588 1.8914 1.99754 1.46294 0.223 1.79138 1.01078 -1.41358 -1.23948 -1.61286 0.76006 -1.75848 -0.9314 0.8927 -1.57778 -0.43948 -0.67668 0.71102 0.17736 0.06394 -0.92974 -0.2885 -0.81572 0.86696 1.23582 -1.58722 0.62488 1.0073 -0.54264 -1.32742 1.3772 -0.97432 0.06794 1.4621 0.99932 1.78564 0.85894 -0.20776 0.7944 -0.13716 -0.56068 -1.91394 -1.43814 -1.78712 -0.18696 0.30292 -0.2193 -1.4876 -1.01 1.58088 -1.58524 -1.10886 -0.5242 -0.05392 1.30136 -0.99564 0.7071 -0.86942 -1.7729 -0.1898 -0.83352 -1.99652 1.12904 -1.91208 -0.99006 -0.26564 0.17356 -0.3935 1.89336 -1.36344 0.70156 1.53106 1.91662 -1.6855 -1.3754 -1.01582 -0.85036 -1.0286 -0.9461 -1.0671 0.63208 0.11248 0.01728 -0.12352 -1.7422 0.48606 1.54988 -1.87814 -1.83928 -0.00506 -0.92146 -0.27164 -0.43488 -1.0158 -1.30366 -0.56416 -1.04298 -1.52608 1.20294 -1.92134 -1.87066 -1.82582 -1.38098 -1.64658 -1.12068 -1.1163 -1.02548 -0.83872 -0.67854 0.31716 1.85472 -0.26432 -1.92334 1.2942 1.1781 1.054 -0.01382 -0.74746 1.8301 0.52388 0.18448 0.05168 -0.55424 -0.1016 1.55802 -1.02682 -0.03406 0.93242 1.61814 1.18876 -1.97286 -1.3243 -0.23156 -1.02478 -1.19646 0.45788 -0.50656 -0.33614 -1.00284 1.3741 -0.48848 0.3886 0.8004 -0.15646 0.1402 1.34284 -0.34832 0.27092 -0.19392 -0.35766 1.44966 1.70446 -1.35618 -1.32094 -0.10582 0.07764 0.72842 0.72062 -1.2046 1.90612 0.91774 0.0421 -0.45688 0.1327 0.29002 1.17902 1.96722 1.10144 0.49064 -1.27978 -0.43944 -1.67768 -1.74462 -1.54402 -0.98766 1.79586 1.25128 1.6022 1.75818 -1.78484 1.3215 1.69502 -0.87366 -0.0242 1.7391 -1.67732 -1.96814 -0.91062 1.08102 0.7259 1.72944 0.7728 -1.13156 -0.90898 -1.54364 1.46942 -1.15452 -1.3323 1.55352 0.96118 1.3756 0.55024 1.78026 -0.91414 -1.91822 1.12732 1.44908 -1.81218 1.6667 0.09832 0.82636 1.12622 0.96242 -1.41978 -1.41538 1.22272 -1.08424 1.5673 0.39358 -0.03266 1.14714 0.87784 -1.9796 1.76474 -1.00924 0.78774 1.45386 1.16434 1.99962 -0.4571 0.95038 0.58358 -1.95134 -1.203 -1.16046 -1.22876 1.91474 -1.95954 -0.10598 -1.38824 -1.1264 1.84404 -0.57734 -1.0173 1.89954 -1.39678 1.81038 -1.71178 -1.4936 -0.76636 0.55366 -0.72184 0.2741 -0.41382 1.81402 -1.50224 0.52984 -1.98448 -1.9049 -0.70596 1.67346 -1.71528 -1.8118 0.1238 1.14792 -1.75724 1.07756 0.16542 1.74066 1.81336 1.30796 -1.12472 -0.32672 -0.21818 -0.90626 1.3031 -0.54484 1.03768 1.86518 -1.61248 0.97734 1.16564 0.65792 0.76598 0.98922 -0.32778 -1.69052 0.46246 -1.01704 -1.65822 0.24138 1.8992 1.94536 -1.40004 -1.06172 -1.41114 1.65584 1.29886 -0.16522 1.65676 -0.47434 -0.35504 -1.45246 -1.30696 -0.07434 -0.32162 1.60486 -1.50774 -1.50756 -1.48908 1.04258 1.49214 -1.84968 1.70756 0.31668 -1.49218 -0.37322 -0.5778 1.13456 -0.5243 1.93328 -1.38492 -0.81754 1.39888 -0.42804 1.40876 -1.0701 -0.9267 -1.15646 -1.49514 1.64724 0.1563 -0.7971 -1.79158 0.86186 -0.66762 0.61808 -0.03512 -1.15968 -0.68916 0.06734 1.8172 -0.02998 -1.52798 -0.70082 0.74924 1.74886 -1.7622 0.28328 -1.56956 0.96208 0.23362 -1.8357 -1.64094 1.72348 -1.08944 -1.53752 -0.85136 1.12106 0.51688 -1.25152 0.53154 1.64872 1.98758 -1.13634 -1.11372 0.28924 1.9419 -1.15432 -1.01572 -0.11026 1.66188 -1.41812 -0.17628 1.40834 -1.88394 0.64506 -1.28958 0.09968 0.82272 1.65988 -1.30792 0.79 -1.58692 -0.45724 -0.58638 -0.00802 -1.15618 -1.51508 -0.0487 -1.13012 -0.53058 0.84382 0.32342 -1.43764 1.53578 -1.83154 -0.01758 1.60834 -1.58712 -1.54 1.80694 1.39212 -0.701 0.5407 1.30018 -0.34828 0.34058 -1.04928 1.6074 0.26548 1.75206 1.04894 -1.70166 0.85698 -1.94362 1.74152 1.23564 0.4448 1.45004 0.89428 -0.5546 1.45696 0.89438 -1.88562 -1.5797 -1.18194 0.25846 -0.73866 1.87254 1.94758 -1.33738 -0.89794 -0.3132 0.36272 1.85292 -0.70004 -0.509 -0.12764 0.24258 1.76188 1.6514 1.8931 -1.1225 1.6858 -0.88218 0.42048 0.54546 1.46642 -1.49402 1.79426 -1.06718 1.53762 -1.8417 -0.4814 1.01458 -1.65002 -1.50228 -0.81538 0.1204 0.48212 1.39326 -0.92078 -0.92184 1.65982 -0.39716 0.64998 -0.63786 -0.0644 1.00406 0.7564 0.25052 -0.63674 -1.79778 1.68814 1.24286 -0.44772 0.57944 1.20856 0.99654 -0.0002 0.27258 0.79202 -1.24464 -1.92172 1.01474 -0.875 -1.05624 -1.83182 1.34812 1.50294 -1.19776 -1.69362 1.75194 1.76046 -1.63138 0.57218 0.81492 -0.78232 0.08294 0.46782 -0.94168 -1.39014 -1.53764 -0.25044 -0.45628 1.56956 1.3354 -1.52984 0.27572 -0.53772 -0.22948 -0.71084 0.18806 -1.87942 -1.79048 -1.39876 -1.67616 -1.00012 -1.35494 -1.52216 -0.29378 -0.80604 0.58748 1.5011 -0.04584 -0.05586 -0.3887 -1.55826 1.31952 -1.32932 0.73734 -0.63826 -0.8744 -1.4713 -1.05852 -0.33728 0.32966 1.00578 0.53454 1.44518 -0.2104 -1.5264 -0.10754 -0.11418 -0.26758 1.51306 0.1183 1.63136 1.55092 1.76738 0.24834 -0.18496 -1.42738 -0.3949 -1.2384 1.86436 0.02238 -1.03874 1.7954 1.59958 -0.04176 0.89364 -0.84938 -0.39496 0.72492 -1.59124 -1.83646 -0.34066 1.1791 0.54678 0.27156 -0.68196 0.46532 -0.80014 0.68822 -0.76738 1.30148 -1.29836 -0.23132 0.44108 1.82582 -0.02006 -1.1092 1.55214 0.42232 -1.0777 -1.21088 1.5205 1.7671 -0.9229 1.64034 -0.6316 1.21038 0.93494 -0.51306 0.89596 1.32296 -1.7126 1.16088 -0.67636 1.34952 -1.54104 -1.54776 -0.99586 -0.5042 -1.06972 1.3497 1.37274 0.91686 1.52898 -1.43714 -0.67928 1.19256 -0.64568 1.77376 1.97828 0.00282 -0.40152 1.1827 -0.19738 1.61962 -1.35696 -0.10776 0.10198 0.90644 -1.09684 0.10766 1.53036 1.71292 1.79226 -0.09034 1.01408 -0.45926 -1.55498 1.09156 1.36686 -0.4723 1.88666 0.05634 -0.50798 -0.42742 -0.58364 -1.39638 -1.76188 -1.48576 0.3196 0.17582 -0.14394 1.16118 -0.49136 -1.10688 -0.27554 -0.8953 -0.64174 -0.296 0.70648 0.5667 0.35026 0.09768 -1.40738 0.82262 1.81932 1.65982 1.1246 -0.38068 -0.45122 1.77996 0.74754 0.26274 -1.5931 0.45058 0.11614 1.54214 -0.30934 -1.76998 0.20326 -1.9606 -0.34588 -0.41226 -1.41318 0.72734 -1.7484 -1.63082 0.20428 0.89912 -1.81482 -0.09064 -1.81752 0.741 -1.61492 -1.19986 1.17742 -0.21102 -0.5363 0.6694 -0.24676 -0.24346 -0.521 0.6188 0.96544 0.53962 1.42826 1.5933 0.75428 1.05804 0.77698 0.18232 1.41402 -0.87178 1.50074 0.66706 -1.08742 -1.2375 -0.48916 -0.13474 0.57102 1.45014 -0.54446 -1.77452 -0.56588 1.6394 1.59748 -1.99348 -0.12234 1.60674 1.27314 -1.67284 0.07842 1.02126 0.47676 -1.55328 0.56038 1.0353 0.62228 0.04718 1.29906 -1.34172 -0.3851 1.14622 -1.87788 0.00286 0.49534 1.05426 1.24026 -0.282 1.88754 0.41492 -1.72188 1.59844 -1.90164 0.3031 -1.69902 -0.74648 -0.81534 1.32604 0.94214 1.42172 -0.28438 1.14752 1.78488 0.44982 -1.89612 -1.60726 0.65144 1.054 -1.89334 -0.12272 0.14022 1.46366 0.56618 -0.08728 -0.16476 0.3093 -1.89666 1.43126 -0.85594 -1.4568 -1.23374 -1.84036 1.7192 -1.14178 -1.95098 0.47998 0.9229 -1.82634 -1.85428 -0.69316 -0.14936 1.29624 1.10502 1.87734 0.94266 0.46736 1.36132 -0.3277 -0.10104 0.1026 -1.5972 -1.81376 -0.38868 0.01026 -1.72532 -1.18554 -0.96776 0.18562 -1.53214 -0.00834 -0.84982 -0.2466 0.18196 0.39892 0.65546 -0.44404 1.4283 0.92666 0.40078 -0.3761 -0.53016 0.47778 0.90828 0.79982 -1.97338 0.84398 -1.64138 0.68884 0.97006 1.36786 0.94798 0.43102 -0.46772 1.04146 -1.8596 -1.41998 0.54832 -0.29106 -1.41646 1.23456 -0.55228 -1.26274 1.7058 0.15404 -1.84334 -1.90276 -0.88574 -1.29392 -0.77814 -0.61332 1.03906 -1.56534 1.27152 -1.72494 -1.36726 -0.07498 -0.72206 0.8115 -0.01638 -0.5693 -1.54416 0.3434 1.21556 -0.90002 1.04368 0.71916 -1.7789 1.1405 0.25852 0.07542 1.00764 -0.28064 0.3431 1.1662 -1.82382 -1.26742 0.77198 -1.24578 0.64314 1.92938 -0.2703 1.65252 -0.53304 -0.41664 -1.6712 0.5133 1.1595 -0.74278 0.4087 0.21536 1.30206 1.7368 1.7253 1.15282 0.77872 1.10432 -0.4783 0.6058 1.11034 -0.5625 1.87612 -0.02626 0.44756 1.14644 0.37904 -0.68032 0.09154 -1.8947 -1.90112 1.90016 1.15304 -1.47628 -1.83166 0.05424 1.70098 -1.1967 -1.12358 -0.36782 -1.22882 -1.46962 1.55964 0.96386 -1.2682 -1.95684 0.77336 1.27084 -0.00596 1.19028 -1.61252 -0.92816 1.21086 -1.83384 -0.35614 -0.79436 -1.94676 1.75596 -0.79504 0.32052 1.20432 1.0091 -1.57826 1.0542 -0.84166 0.50854 1.06232 0.77832 1.56844 -0.32894 1.45184 -0.0246 0.22788 1.8895 -0.16538 0.57996 -0.12216 -1.08774 -0.75806 0.40438 -1.62694 1.1082 1.32564 0.90126 1.7178 1.02702 -1.31072 0.98686 0.87984 0.9627 0.00098 1.94502 1.59834 0.5559 0.42786 -0.23794 -1.89138 -1.49456 -0.19448 0.22326 -1.01916 1.99502 1.70238 -1.67704 1.73844 0.41206 0.84396 1.32136 0.33154 1.0639 1.3278 1.14098 0.51402 0.80056 -0.05256 -1.90388 1.68346 -0.47952 1.33638 0.1313 -0.18074 -1.92456 1.89848 -1.39426 1.67006 1.5068 0.37706 1.67198 -0.53836 -1.92746 0.47132 -0.6276 1.10672 1.01868 -0.57646 -1.62196 1.4058 1.00266 1.16282 -0.69426 -1.81696 -0.6321 -1.34468 1.81594 1.63488 0.86 -0.569 -1.20222 -1.39156 0.33174 0.0786 0.58814 -0.83094 1.6742 -1.59602 -1.0946 -1.90346 1.09664 -1.3471 -1.76838 -1.965 1.17198 -0.1403 0.259 -1.40744 -0.0446 -1.96576 1.49534 -0.62298 -0.4306 -1.3097 -1.31922 0.35764 0.03064 -0.05174 -1.54866 1.4201 -1.91748 -1.02916 -1.18994 0.0758 -0.42072 1.06352 1.1299 -0.00608 1.88318 -1.79668 1.43252 0.61468 -1.48186 -1.7185 -1.69084 0.34976 0.93118 -0.72928 -0.98894 1.5082 0.39632 1.22338 -0.32052 0.82574 -0.06434 1.42076 1.03904 -0.35858 -0.6022 -1.76952 1.13842 -0.27406 1.95264 -0.51472 -1.986 0.12578 1.84284 0.15582 0.45572 -1.89154 0.7298 -1.73494 -1.29064 -0.24794 -1.39828 -1.11934 -1.14114 -0.7121 -1.61886 0.33102 1.42644 -1.2401 -1.06282 -1.05688 -0.97622 -1.14086 1.29134 -0.0157 -1.85988 0.15852 -1.97552 -0.51154 -1.4039 1.6527 -0.9351 -0.29344 0.66202 1.03286 -1.73252 0.18336 0.5069 -1.22464 0.815 -1.0974 -1.22162 0.13124 0.514 1.92742 0.22402 -0.945 0.56188 -0.24888 -0.73972 1.06678 -1.19598 0.3785 -1.21126 1.0095 -1.53852 1.15486 0.83444 -0.14148 0.01568 -1.7028 -1.91604 -0.75866 1.66894 -0.94334 -1.31284 0.89514 0.21862 -0.174 -0.9796 0.19778 1.8241 0.65108 -0.0551 -1.96542 -1.83526 0.89254 0.34512 1.36392 1.76028 1.08512 1.59662 0.27334 -1.77182 -0.47068 0.84866 0.68638 -1.08218 1.6525 0.57136 -0.88738 1.3489 -1.35164 0.75966 0.51778 -1.18138 1.53704 0.46228 -0.54266 1.24026 1.32886 0.83636 -1.26412 -1.26928 1.06248 1.24266 0.15292 -1.5664 -1.24586 0.84476 -0.43106 -1.19028 1.4705 0.09824 0.93056 -1.29944 -0.18938 -0.98686 0.13962 0.20798 0.00076 -0.02268 0.56612 1.25462 1.90778 0.84886 1.17574 1.89142 1.4271 1.21596 -1.37232 -1.56976 -1.11224 -1.87634 -1.5686 -1.75124 0.86074 -0.4574 -0.83432 0.28666 -1.30428 0.25278 -1.83634 -1.19228 -0.99758 -1.69712 1.8784 0.5501 1.8291 -0.1828 1.00798 0.52388 -1.67734 1.24934 -0.76052 -0.64848 -1.72978 -0.51876 -1.17706 -1.78638 -1.9331 0.2615 -0.99352 -0.46182 0.21706 -0.86132 1.92194 1.34684 -0.33316 0.6818 -0.16018 -1.732 1.84744 1.85294 -0.48774 1.74798 -0.18634 -0.24162 0.25218 1.60488 0.97044 -1.37438 -1.93768 -0.39012 -1.79204 0.10378 -1.89242 -0.36158 0.88416 1.07988 1.97852 -0.62052 -1.28034 -1.04794 0.21974 0.4342 -0.75372 0.62546 0.59066 1.86374 -1.61908 -1.46844 -1.11674 -0.85272 1.97738 0.73996 0.67642 -1.53028 -0.26292 -0.5085 1.53784 0.51182 1.22906 -0.78196 -0.75684 1.44128 0.19918 1.39658 -0.6698 -1.88674 -0.9689 0.28352 -1.53734 0.58694 0.70326 -1.53968 1.54834 0.89538 -0.36682 1.07804 0.50168 1.1882 1.16772 0.38844 1.22394 0.43888 1.74234 0.91502 -0.3675 -0.532 1.42734 1.63784 1.90134 -0.60736 1.54202 -0.53332 0.15042 1.5016 1.70888 0.77846 -1.76498 -0.15032 -0.70476 0.47738 0.83262 0.09738 -1.93112 0.2963 0.44402 1.51704 1.19162 1.78104 0.83652 0.65902 0.9898 -1.65036 1.3441 -1.1594 -0.0059 0.80426 1.69892 1.28416 -0.23592 1.8622 -1.3141 -0.60676 0.38218 1.07 1.04492 -0.76342 0.3099 -1.95328 1.1865 0.85472 0.84302 -1.34802 -0.10706 -1.30966 1.5558 -0.87346 0.37 -0.55396 -1.529 0.11544 0.27638 1.6463 -1.1987 -0.7577 0.40282 1.19236 0.12258 -0.6902 -0.4925 -1.09538 1.07952 -1.04916 -1.9144 -0.56696 -0.20854 -0.56064 1.7152 -1.00114 1.25136 -0.79258 -0.79288 1.1449 -1.40546 1.9818 1.81598 0.3378 0.4567 0.65374 -0.71522 -1.13246 -1.56574 0.25288 0.81316 1.64862 -0.41418 -0.9604 -1.40806 -0.86012 -1.33284 1.85256 1.114 -0.99992 0.5392 0.28188 1.77518 -0.10782 -1.43362 -1.54012 0.89888 0.11644 -0.58866 -0.62888 0.19466 1.26356 -1.0917 1.13146 1.05176 -1.18052 -0.5737 -1.93498 -1.26434 1.46882 -1.97498 -1.36004 -1.52966 -1.17338 0.13768 -1.56304 1.84722 -1.24814 -1.15258 0.57532 -1.66832 1.3988 0.09342 -1.79296 -1.39432 0.31266 -1.7934 -0.0762 -0.22858 -0.0032 1.75486 1.16834 1.4562 1.06312 -1.94178 1.5496 0.7403 0.45434 -0.01218 1.77244 1.71356 -1.39786 1.11688 1.64516 -1.02494 -0.10078 -0.18848 0.94856 1.7545 -1.8706 -1.38734 0.147 -0.731 0.83602 -0.96058 0.79584 -0.82988 -1.29874 0.52578 -1.2609 -1.38712 1.5025 0.29358 0.73884 1.71396 -1.14334 -0.81624 -0.59278 -1.23162 0.58806 -0.30334 -0.60714 0.76404 -0.92502 0.86174 1.72954 -1.7181 0.44826 1.23196 0.70644 -1.49888 -0.74196 0.1693 -0.358 -0.61586 -0.39216 -0.10066 -1.37984 0.02368 -0.73762 0.37946 0.03902 1.92856 -0.7513 1.15954 -1.78896 0.30854 -1.62196 1.9312 -1.8816 -1.28454 -1.5957 0.18016 -0.83358 0.43274 1.21978 1.38296 -1.806 1.97426 -0.69012 0.51392 0.72186 -0.5307 1.81932 -1.76204 1.35482 -0.6668 -1.34842 -0.6453 0.1061 0.9573 -1.43642 1.38352 1.506 -1.7914 1.65762 -0.5357 -0.48468 -0.08458 0.6507 -0.57902 1.90386 0.51706 1.11354 -0.00902 -1.90318 1.07788 -0.99714 1.20924 0.16434 0.22486 -0.29466 -1.3541 -1.2862 0.74846 1.65758 -1.43028 -1.89076 -0.98928 1.80472 0.87784 -0.34304 1.02334 -0.17492 -0.83892 -1.84814 -0.97924 0.67414 -1.0422 0.77512 -0.24452 -0.13236 0.27856 -0.67646 1.8889 0.61004 -1.7952 0.35574 -0.17168 -1.85886 -1.72306 -1.66968 -0.55766 1.19036 1.88122 -0.74804 1.91768 0.66972 -1.24246 -1.449 1.0879 -0.64494 -1.49542 0.1107 1.77284 1.764 -1.11948 -1.30804 -0.04754 -0.1609 1.07604 -1.59628 -1.95496 -1.56588 -1.59116 -1.64278 1.42676 1.32234 -1.17512 -1.8616 1.45278 0.21396 0.2809 -1.13042 1.52776 0.54752 -1.78538 1.83298 -0.05616 1.9091 -1.76582 0.35104 -0.0834 -1.5932 1.6872 -1.5996 -0.63696 -1.83214 -0.4493 -1.87512 -0.27048 1.51282 -1.59672 1.98922 -0.93492 1.87322 -1.71474 -0.9918 0.7815 1.524 -0.1748 -1.40468 -0.15518 -1.38088 -0.90178 -1.12606 1.07416 1.635 0.58292 -0.77468 1.54938 -0.95248 0.74812 0.04334 -0.3951 -1.275 0.4871 1.63824 -1.2531 -1.99156 0.99416 1.2589 -0.22836 -1.3 0.40886 1.93994 -0.18934 0.29168 1.80448 1.65454 0.26224 1.2064 -0.94852 0.41982 0.0839 1.63884 -1.4938 -0.70252 1.30858 0.81326 -0.67376 -0.27196 -0.41508 -1.67464 -1.42452 -1.318 -1.2353 0.35994 0.3843 -1.65992 -0.61388 -1.353 -1.7387 0.77304 -1.47018 0.5663 0.82368 -0.85518 0.21026 -0.84174 1.06326 -1.21754 1.8305 0.92838 0.96306 -1.65702 1.99604 -1.67172 1.95942 -0.03396 -1.78122 -0.81038 -1.67034 -0.06636 0.68218 -0.73388 -0.32604 -0.55372 -1.8755 -0.27314 1.17524 1.45072 1.90738 1.4644 0.26842 -0.38476 0.9451 0.27842 -0.11 1.5176 -1.18484 1.36138 1.0872 0.1503 1.74998 -1.45624 -0.10248 0.65654 -0.63772 -1.7675 -1.31406 -1.5636 0.4005 -1.58176 -1.87872 -1.80352 -1.68266 0.32766 -1.90916 1.26368 -1.10768 -0.6226 -0.97968 -1.51662 -0.017 1.61254 -1.12492 -1.6339 -1.34004 -0.65218 -0.60212 -0.28238 0.43826 -1.55818 -0.84912 -1.1426 0.1024 0.17934 0.18364 0.13842 1.3686 1.01742 -1.91602 1.89198 -0.95908 0.73884 -0.94978 1.48912 1.3431 0.07192 -0.70212 -1.38258 0.18756 0.62632 0.62526 1.43776 0.34104 0.60382 -1.83272 -1.86256 1.66866 -0.4686 -0.00344 -1.98556 0.83462 0.9683 -0.00188 -0.04134 1.26734 1.26388 0.09408 0.13798 -1.856 -0.04758 1.89506 -0.12512 -0.7066 -0.87166 1.44246 1.24416 0.56232 -0.61404 -0.97702 0.58802 -1.95008 -1.21956 1.53006 1.81194 -0.18344 -0.2869 0.51634 1.49858 0.01204 0.0462 0.46974 -0.1628 -0.97916 -1.93046 -0.94266 0.0726 -1.2593 1.09154 -1.77824 -1.92078 1.97784 1.1599 -1.52658 -1.76488 0.73124 -1.24964 0.14434 -0.7873 1.16136 -1.07688 -0.4249 0.2827 -1.4916 1.40854 1.9645 0.05418 1.43824 0.18616 -1.8579 -0.44578 -1.25248 0.5955 -1.87408 0.0978 1.48266 0.05786 -1.14596 -0.77614 -1.92902 -0.63016 0.50346 1.47076 -0.83582 -1.05624 0.61018 -1.10998 -1.693 1.29492 -0.9193 -0.93382 1.56876 -0.69638 -1.66278 -0.91108 -1.52892 -1.81296 -0.67122 -0.3877 -1.89498 1.00316 0.63434 0.55452 0.94944 0.66752 1.33168 -0.61768 1.03396 0.37562 -1.24754 -1.32664 1.89632 -1.07954 -0.85828 -0.2085 0.41966 0.10434 -0.88148 1.56464 -1.20166 1.07446 -0.25284 -1.85668 -0.89454 1.07592 -0.01454 1.44388 0.25826 1.037 -0.3733 1.2956 -1.27092 1.24172 -0.88116 -0.9322 0.73548 1.94892 -1.47868 0.49664 -0.38792 -0.77216 -0.14394 -0.06862 0.54244 -1.59268 -0.83016 0.64828 -1.8381 0.5457 0.66926 0.36674 1.06852 -0.23586 -1.18604 -0.96946 -0.744 0.49102 -0.55094 1.8735 -1.31794 1.88778 1.12404 1.99694 -1.2511 -0.54316 1.94428 -1.3454 1.80162 -1.9261 1.056 0.47072 -0.417 0.62188 -0.04744 1.57048 -0.7816 1.81576 -0.39914 -1.30188 -0.09392 1.33718 1.28198 1.71256 -1.63228 1.25994 -1.77292 0.96494 0.42776 -1.91172 1.8118 -1.75554 0.49984 -1.35218 -0.18544 -0.27572 0.10378 -0.1409 -0.81754 -0.9144 -1.53696 -1.48478 0.84664 -1.91202 1.4897 -1.80148 -1.21626 -1.55336 1.81158 -0.75654 1.81214 -0.55978 -1.10984 -1.24908 -0.03258 -0.65512 -1.3942 1.41148 1.62922 -0.51104 -0.77026 -1.02066 0.22682 1.71332 -1.7379 0.81154 1.97086 -1.06482 -1.1927 -1.77174 -0.53332 1.35928 0.63328 -1.48476 -1.76492 -0.60916 -1.50948 1.19398 -1.77716 -1.8308 0.4762 1.78044 1.15336 -0.81572 -1.72386 0.37156 1.35428 -0.25108 0.68038 -1.53032 -0.88152 0.6923 0.22988 1.6935 1.85584 1.48368 0.28838 1.1333 1.82588 -1.32186 -1.77234 1.84854 1.63934 1.5833 1.77676 -1.54716 0.80692 -1.6251 -1.48416 -1.42342 -1.14566 -0.5882 1.18864 1.46 1.01274 -0.55072 -0.17402 -0.95746 1.43718 -0.10946 1.45724 0.22194 0.25478 -1.6624 1.10976 0.77438 -0.8706 0.93978 -1.34062 -1.24862 1.10244 -0.6428 1.3681 1.54468 1.94154 0.62764 -1.8589 1.57004 -0.5925 1.82328 1.56462 0.97936 -0.76692 0.1038 1.61532 1.70666 1.50366 0.76986 -1.31924 0.40656 -0.3423 -0.75416 1.69612 -0.06468 -0.7791 0.0057 -0.40624 1.30172 -1.52646 -0.99762 1.32344 1.86714 1.7155 1.76444 -0.52588 1.49714 0.0437 1.64394 1.51846 -1.61492 -0.69182 0.25592 1.63502 1.6139 0.32592 -1.52214 -1.01114 -1.84902 -1.27774 1.40308 1.27072 0.35952 0.25902 0.25282 1.09366 -0.14342 -0.33894 -0.56724 0.32378 -0.06418 -0.96612 -1.16064 1.09648 -1.59488 -1.50018 1.69746 1.26384 -0.53138 -1.37034 -1.88182 -0.33704 1.8597 1.25138 -1.70434 -0.90164 1.40178 -0.38918 -1.91778 1.6094 -1.25698 -0.98316 -0.55724 0.57946 -0.92956 -0.26834 -1.03608 -0.39188 -0.53732 -1.32924 1.61754 -0.16394 -1.38906 -0.67986 -0.41736 1.3512 -1.5312 1.15942 1.22988 1.11406 0.62844 -0.78598 1.52022 1.52132 -1.39594 -0.25988 1.411 1.10812 -0.03664 -0.84556 1.69188 -1.75426 -0.42116 -0.17666 -0.41924 -1.08102 1.59112 0.2599 0.02604 0.67346 1.5359 0.08934 -0.19884 -1.20214 -0.9879 0.2821 -0.948 0.53954 -0.33126 -1.05554 -1.37044 -1.75766 0.38092 -1.03186 -1.01906 1.529 -0.5034 -0.07856 -0.02462 1.33032 0.32064 -0.14422 1.64476 -1.69178 -1.02114 1.37178 -1.7428 0.78758 1.73938 -1.33636 1.76008 0.2089 -0.86662 -1.44358 1.57814 -1.4609 1.41284 0.72236 0.5092 0.32196 -1.3119 -1.12854 -0.56062 -0.9811 -1.47512 1.44954 -0.1352 -1.3893 -1.1576 0.05176 1.42236 -0.33034 -1.7155 0.6957 -1.6472 -0.31988 0.44458 -0.50706 1.81898 -0.35968 0.02488 0.26442 0.80016 -0.99492 -0.81564 0.42064 1.10894 -0.1755 -0.61002 -1.55816 -1.88386 0.77424 1.41224 1.65342 0.64222 -0.55082 -1.58362 0.62584 1.78332 -0.47068 -0.49304 1.6465 -0.05482 -0.31238 -0.75874 0.0904 -0.0756 0.43768 -1.7964 -0.10198 0.0945 -0.0801 0.90336 -1.13114 -1.70294 0.42366 0.0713 -1.5657 1.83452 0.10422 -1.65942 -1.9597 1.2207 -1.59946 -0.0644 -1.35188 0.25742 -1.36894 -1.94652 0.90362 -0.73628 1.81872 -0.2904 0.28966 -1.86666 0.37836 -1.68076 -0.88748 1.7638 1.09396 -1.50376 -1.32874 -0.37912 1.49196 0.34732 0.19622 1.87086 0.54336 1.35634 -1.78146 1.37788 1.98208 0.79132 -0.3209 -0.81126 -0.53334 -1.5742 -0.45538 1.752 -1.40686 1.83298 -0.70668 0.38418 -0.70002 -1.36572 0.27578 -1.7897 -1.3863 -1.26448 -0.08132 0.10442 -1.04124 -1.3295 -1.25946 -0.39202 1.6693 0.41942 1.72872 0.05322 1.73936 -1.22274 1.71404 -0.7253 1.83494 1.52574 -0.71836 -0.97262 -1.96952 -0.8991 0.66668 -0.04746 0.77462 -0.63948 1.17066 1.26096 1.2029 0.28708 -1.67912 0.85766 -1.92848 -0.01408 1.25714 -0.19218 -0.56236 0.1141 0.4191 1.31158 0.05076 -1.9289 -0.48058 1.04722 -1.30294 1.49138 -1.98738 1.81586 -1.88106 -1.9814 0.54924 -0.22576 1.35264 -0.7516 -1.8202 1.5128 0.06884 1.96614 1.3298 1.59824 -0.50018 -0.52042 0.40506 -0.61778 0.09852 -1.12894 -0.01832 -0.24656 -0.47988 -0.0938 1.83706 -0.27918 -0.89338 -0.02994 0.9766 1.95938 1.58146 1.61944 -0.74452 1.28322 -0.65212 1.35478 1.14202 1.1843 1.73782 0.54664 1.50502 0.82312 -0.1939 1.74434 1.73898 -0.5285 0.7843 0.82086 -0.18826 -1.42882 -0.33396 -1.8628 -1.05132 1.826 -0.4903 0.25918 0.29574 0.21272 -1.81846 -1.17158 -1.3324 -0.61744 0.27178 -1.77958 1.93132 0.4494 0.71064 -1.95342 0.25034 0.14504 0.33754 1.22074 -0.35562 1.55188 -0.63396 1.15854 1.94732 -0.22424 0.16722 0.36554 0.93652 0.28574 -1.8417 0.40542 0.29332 1.44426 0.67074 -0.57054 -0.2265 1.0887 -0.94096 -1.07072 1.00276 0.9094 -0.12098 0.12244 -1.44866 -0.41432 1.81302 -0.71042 0.76084 0.7377 -1.4295 1.6667 0.23362 0.44528 0.49282 -0.60322 0.45996 0.35114 0.31184 -1.48004 -1.9545 -0.18402 -0.10812 0.38184 -0.77574 1.86636 -0.07292 -1.51294 1.77864 -0.71882 0.27306 1.16164 -0.91402 -0.59176 -1.78202 0.73498 -0.32714 1.24358 0.6072 0.36162 -0.03726 -1.12236 1.60468 -1.8012 -0.28476 -1.5084 -1.82822 1.84804 -1.04858 -0.72604 0.9695 1.42234 -1.22316 -1.46094 -1.11622 -0.81324 -0.9825 1.49716 -1.10182 -1.31504 1.6586 1.32594 -0.48906 -0.52034 -1.53536 -0.59116 0.5807 -1.17462 0.22728 1.75782 1.72392 1.21636 1.74394 1.9502 0.55722 1.16786 0.2113 -0.30692 -1.3334 -1.26736 1.69458 0.07902 1.53562 0.50468 0.31168 0.8507 0.3848 -1.45308 -1.47554 1.03122 -0.28252 0.17568 0.3454 -0.07778 0.70302 0.63678 1.3667 0.12502 1.73414 -1.69362 -0.0891 1.3464 -0.37926 -0.8064 -0.44998 1.75312 1.6784 -1.17338 -0.01816 -0.2841 0.97544 1.3244 0.83054 -1.83448 -1.00962 -0.42044 1.79032 1.00624 1.16798 -0.38608 1.02402 0.03376 -1.6991 1.19606 0.04034 -0.45178 -1.12906 -0.1783 -0.75282 1.92042 1.80116 -1.91372 -0.04108 -1.6398 0.82174 -1.65182 -1.54172 0.342 -1.04536 0.55854 1.1723 -0.44182 0.56508 0.80854 -1.94424 0.39306 1.34512 0.17988 -1.06818 -0.87654 0.84644 -1.63956 0.95702 0.12022 -0.71766 1.87712 1.04548 0.42468 1.15324 -1.9982 0.88218 -0.14332 1.57942 0.0614 -0.08526 0.88916 -0.63452 0.47034 -0.65622 -1.3578 -0.87872 -0.5517 0.0516 -1.39056 0.44162 -0.53416 1.46868 -0.50766 1.14028 1.64728 0.20308 0.69106 -1.11012 -1.87628 -0.92604 1.44072 -0.87076 1.8387 1.07784 0.9446 -0.69732 0.03358 1.18876 -1.04716 1.67634 -0.6844 -0.02126 -1.49634 -1.10622 -0.83342 -0.97244 -1.12522 -1.16392 -1.7104 -1.99784 -0.60186 0.30882 0.34758 1.67858 1.8165 -1.59156 -0.44688 1.28438 1.50596 -0.2013 -1.8089 -1.0332 1.4557 -1.01258 0.47402 -0.24008 -0.47324 1.39248 0.39916 1.33952 1.08768 0.25954 -0.90124 -1.06692 -0.87398 1.48708 0.965 -1.40146 -0.02632 0.6197 -0.6717 -0.14504 -1.39974 -1.87846 1.67582 -0.86812 0.78164 -1.8399 1.26134 0.53616 1.74954 0.74918 1.68278 1.15414 1.48524 -1.65122 0.52304 1.51624 0.41976 1.40666 1.5008 -0.5177 0.4369 -1.04992 -1.08552 1.13858 -0.78994 -0.5855 0.55256 -1.6706 -0.55658 -1.04544 -0.68932 -1.11376 -1.5296 0.33614 -1.63348 1.33414 -0.6884 -0.65788 0.97828 -0.63334 -1.86886 1.863 1.58996 -1.66152 0.57674 -0.05538 -0.55216 -1.22278 -1.03596 1.44876 0.17878 0.56702 1.1189 1.846 1.41804 1.65016 1.20706 -1.46278 1.92182 -0.63288 -0.39248 0.93192 -0.90728 0.79498 -0.56152 0.79652 0.68372 -0.85092 1.98224 1.18888 0.20464 -0.92236 -1.57162 0.13412 -0.64886 0.5739 -0.63988 -1.42402 -1.43818 1.26544 1.96666 -0.22466 1.36536 -0.00534 0.77578 0.74366 -0.23266 -1.3756 0.91808 -1.28364 -1.87292 -1.22564 -0.5797 -0.38886 1.75912 -0.8008 0.77026 -1.20502 0.89998 1.78022 1.26088 -1.70126 -1.20504 -0.22486 -0.75588 -0.89886 0.13864 -1.01524 0.49484 -1.15586 0.29004 0.63106 1.9754 -1.34364 -0.59956 1.83218 1.56656 1.09806 -1.98082 0.69482 -0.97082 0.05932 0.231 1.26588 1.0618 -0.56974 1.65732 0.81722 0.37498 -1.84806 1.80362 -1.43488 -0.324 -1.2184 -1.99544 1.66792 -1.01962 -0.4098 -1.24946 -0.32536 -1.39498 -1.21744 0.12956 0.07392 0.4263 -0.504 -1.20104 -1.23608 -1.7893 1.92694 -0.36738 1.6722 -1.22422 -1.79484 0.75102 -0.79846 0.06772 -0.47094 0.71332 1.81384 -0.5562 1.32142 0.60976 0.34288 -0.9595 -0.2751 -1.04494 1.19378 -1.3482 -0.2675 0.8518 -0.02364 0.3475 0.34454 0.0898 -1.7534 1.92976 -1.84294 -1.16042 -0.4342 -1.3687 0.8934 0.6065 0.44804 0.5193 -1.86858 1.78934 -0.52918 0.03056 0.803 -0.3998 1.4513 0.87686 -1.06332 -1.76918 -0.71642 0.17278 1.78666 -0.96658 -1.29862 -1.45908 -0.39484 -1.8879 0.47818 -0.92488 1.65626 -0.67532 0.43122 0.11534 0.50442 -0.72822 -0.08934 -1.31054 -0.85248 1.18252 0.55038 -1.2851 -1.83828 1.82358 -1.09092 -0.06444 1.48422 -0.8368 -0.15122 -1.8677 1.40048 1.09948 -0.5892 0.11372 -1.1938 0.0738 -1.8569 1.12364 -1.8618 -0.97514 1.02612 0.78128 -1.8717 -0.6271 0.86304 0.80672 -0.64188 1.35546 1.52614 -0.46878 1.68952 0.76184 -0.27066 -0.24584 -0.31958 -1.43132 0.01106 1.96306 -1.87568 0.76582 -0.94332 -1.55804 0.2633 0.34588 -0.32536 -1.44324 1.91388 -1.6825 -0.69086 -1.5694 -0.87134 0.787 -1.44874 -1.87736 -1.8436 1.7691 -1.4134 0.7888 -1.03946 0.10236 -1.42256 -1.87126 -0.36296 -1.68244 -1.55724 -1.36136 -0.62986 1.65664 -1.56672 -1.76248 -1.93728 -1.81998 0.9993 -0.62762 1.96818 0.58414 -1.48204 -0.21758 1.69826 0.30626 0.89284 -0.9594 0.04632 1.09552 -1.59746 -1.0975 0.21056 -0.39332 -0.40226 -0.08868 1.98208 1.22226 1.00252 0.02194 0.18838 -1.07208 0.8049 -0.05426 -0.0969 -0.96402 1.18662 -1.74278 1.88422 -0.92838 -1.63214 -1.05136 1.7877 1.17886 -1.84554 -0.42776 1.25112 0.80416 1.09052 0.65428 1.20952 1.53682 