0.00254 0.91886 1.6077 0.85306 -1.20964 -0.04002 -0.59374 1.05386 -1.35778 0.92718 0.6167 -1.63094 1.98266 1.83098 1.02446 1.4729 0.1843 0.66856 1.01946 1.21474 0.66242 -0.0213 -0.57144 1.89346 -0.67238 -0.34132 0.54094 0.06534 0.99674 1.23536 1.18348 1.77878 -0.66868 -0.17092 1.48566 0.04818 0.8625 -0.42734 -0.49558 1.3138 -0.87518 1.39674 -0.0962 1.01988 -1.77256 -1.29288 1.71514 -0.51656 -1.0507 -0.47728 -0.98556 1.61634 0.90696 1.07706 0.10856 -1.97618 -0.5097 1.71422 -0.47458 1.13168 1.41902 1.3409 -1.94288 -0.59316 1.74368 0.8379 1.03774 0.15356 -1.65468 -1.02374 -1.3896 -1.38838 -0.83588 1.70566 0.0899 1.26568 -1.9251 0.40866 1.66602 -1.3795 -0.05648 -0.9425 -0.88396 -0.526 0.22092 1.56714 -1.1282 0.25424 1.72052 1.46182 -1.44212 1.14826 -1.95278 0.37272 1.89476 -0.21608 1.3396 -1.50306 1.27618 -0.61048 -0.33064 -0.43842 -0.8619 1.97302 -1.08768 -1.5972 0.4522 1.2013 -1.01284 0.84288 1.94892 1.08162 -1.9518 -1.09508 -0.81184 0.3615 0.22484 0.58312 1.18592 -1.82346 -0.03392 -1.2165 0.43304 -1.1165 -1.58162 -0.53786 -1.4356 0.7914 1.81088 -1.69402 1.92606 1.57794 1.13246 0.2765 0.95112 -1.61806 1.9194 -0.85698 -1.43832 -0.1819 -0.88506 -0.3295 -0.73294 -1.12236 1.51288 -0.52374 1.10006 1.1423 -0.81544 -0.46674 1.55906 -1.24352 -0.68898 1.09964 1.42342 -1.11414 1.12854 -1.7454 1.55464 1.45018 1.8384 1.6608 1.39042 -1.31882 0.9168 -1.62902 1.94914 -0.2283 -0.0462 -1.19378 0.4421 -0.9182 0.02142 -0.6322 1.0616 -1.70442 1.51642 -0.4446 -0.6294 0.94212 0.36208 -0.5779 -0.39318 0.27762 -1.2531 1.16958 0.26692 -1.96718 0.85306 0.06524 -0.74662 1.66478 -0.41162 -0.8885 -0.0203 -0.54586 0.28008 -1.41412 -0.03918 1.1419 -0.4729 -0.67166 -0.81152 -1.62166 1.09114 0.47726 0.73504 1.9432 -1.96196 1.12784 -0.63058 -0.42688 0.884 -1.38748 -0.9119 0.4163 0.05396 -0.88722 1.93428 1.74722 0.10404 1.91632 0.91862 1.88854 1.55282 0.77732 1.49342 -1.09008 1.3881 -0.39254 0.01548 0.93054 1.59456 0.22868 -0.58498 -0.96628 -1.7664 -0.77152 1.18648 0.26964 -1.56548 0.32372 1.99476 1.7252 -1.30418 1.68026 -1.21922 -1.02414 -1.9766 1.5634 1.40016 -0.83272 -1.3484 0.2136 -0.96216 -0.38924 0.4097 -0.70006 -1.17448 -1.6862 0.98382 -0.17488 -1.44492 0.43058 -0.88766 0.43886 -0.02144 -1.3447 1.1975 -1.94564 0.18268 -1.17452 -0.0737 -0.33536 1.31268 1.78032 1.92156 1.19342 1.19272 1.87254 -0.00346 0.51756 -1.1135 1.82468 0.20728 -1.15182 0.27894 -0.61904 -0.80916 1.80424 0.624 0.93366 -1.59706 0.87266 1.2858 0.6094 -0.23138 -0.43582 0.61284 0.25694 -0.2983 -1.87454 -0.22164 1.96902 -0.6193 0.57466 1.24098 0.98696 0.90092 -0.74248 -0.3108 1.21628 0.1072 -1.04704 0.31726 -1.53374 -1.0614 -1.26962 -1.77672 -1.73584 -1.84008 -1.40242 1.46446 1.39324 -0.56964 1.24902 -1.57748 1.05364 0.37882 -1.29672 0.0117 0.35736 -1.41944 -1.06424 0.17084 -0.12894 -1.26082 -1.08254 0.44398 1.6326 -0.3928 1.29198 0.48004 1.9333 0.11504 1.40772 -1.17356 1.44996 -1.44462 0.81952 -0.32922 -0.96178 -0.65912 0.34868 0.097 -0.8959 -1.33902 0.3851 0.53866 0.13168 0.15212 -1.81268 -1.39188 0.19764 1.2458 1.33182 0.63572 -0.82856 0.7821 -1.55382 1.72706 -1.97886 0.2864 -1.40932 0.65694 -1.13206 0.11754 1.53114 -0.72182 0.02264 0.42258 -1.02746 0.49826 1.5593 1.03248 -1.02654 -0.98352 0.23186 0.83876 -0.93326 -0.78992 0.35406 0.3788 -1.68772 -0.51954 -0.58012 0.68384 -1.7176 -1.3125 0.78322 -1.22802 1.655 -1.33214 -1.89082 1.09244 -0.35036 0.7518 -1.2498 1.69174 -0.77094 0.98656 -0.87016 -0.89308 -1.48398 1.7091 -0.82044 -0.31094 -0.9512 1.16514 0.27234 0.31532 -1.59616 0.33268 -0.28464 1.2361 -0.62702 -0.35768 -0.02588 1.1102 -0.76294 0.18408 -0.16486 0.84364 0.49494 -0.74936 0.76758 -1.69532 0.38906 -1.53314 -0.61716 0.22166 -1.73372 0.5401 -0.39032 0.08018 -1.91978 -0.75286 -0.13724 -1.39682 -1.69912 1.7308 -0.36496 -0.88276 0.41514 -1.5321 -1.63188 -0.67768 0.95248 -1.12694 -0.28056 -1.9927 -1.22232 -0.36002 0.45468 1.04498 -0.8486 0.28618 0.61196 1.26538 -1.05848 -1.12512 1.29998 -1.41806 -0.2177 -1.94932 0.04902 -0.13626 -1.27702 1.63518 1.15586 -1.87416 1.77956 -0.62908 0.8093 -0.49376 -1.45096 -1.28212 -1.57152 0.02704 -1.1175 -0.55474 -0.6478 -0.48402 0.7474 -0.62448 -0.55604 0.62628 -1.91458 0.5647 -1.07124 -0.20596 0.63516 0.59736 1.66166 1.426 -1.5692 -0.94692 1.33494 0.36446 0.41886 0.50438 -1.40068 1.3173 -0.2828 -0.40642 -1.77228 1.40674 0.83066 -1.05156 0.49594 -1.56648 -0.1423 -1.41508 0.38288 1.49624 1.52266 -0.216 -0.16548 -1.59324 0.6067 1.42272 -0.22168 0.15828 0.7064 -0.63818 -0.50934 -0.81782 -0.29074 1.3833 -0.92458 1.49594 -0.61708 0.064 1.60816 0.3781 -1.15408 0.03488 1.79878 -0.8462 -0.85222 0.03722 1.79562 1.13696 -1.93124 -1.50478 1.93634 0.05024 -1.78552 -1.8346 1.90332 0.6468 1.21856 0.92818 1.75776 0.99612 -1.27394 0.44104 -1.38912 -1.64464 -1.89708 1.04554 -0.30254 1.44736 1.873 1 1.0506 1.79368 -1.02326 -1.99524 0.65032 -0.51222 -0.0148 -1.3193 1.25896 -1.43054 1.6271 0.64134 0.0895 0.21116 -0.57452 1.44042 -1.03232 -0.45614 1.47996 0.4286 -1.72264 0.45474 0.30624 -1.38796 -0.34796 0.40486 -0.57602 1.44342 -0.94912 0.10224 -1.66026 -1.65176 1.26396 -0.93124 -0.55538 -1.85736 -0.92652 -1.79028 -0.48494 0.41554 -1.3384 0.53784 1.66922 1.18828 1.369 0.0847 -1.64848 0.39972 0.92988 -1.33752 0.07784 -1.8464 1.96738 -0.55562 0.72262 -1.40416 -0.51256 -1.6353 0.3527 -1.75456 -1.93622 0.54178 1.62982 -0.8433 -1.7703 1.27886 1.37738 -0.97926 -1.23348 -0.71718 0.36694 -1.24206 -1.97122 -0.93558 -0.233 -0.26048 0.7855 1.11794 -0.75698 1.56732 0.05334 1.02426 -1.48646 -1.6116 -1.97562 -1.81386 -1.61916 -0.18044 0.34614 -1.15124 0.6552 -1.29124 -0.14298 -0.73038 0.35174 0.11982 0.90802 0.5125 0.95856 -1.90986 0.70732 1.33078 -0.36682 -0.35296 0.29554 -0.6801 -1.8752 0.90296 1.67738 -1.01692 -0.18966 0.3695 1.12168 0.78536 0.1921 -0.96048 0.02822 1.2414 -0.86768 -1.95644 0.898 -0.4422 0.6746 1.91774 0.62762 -0.34184 0.90092 0.75916 0.71266 1.64716 0.8315 -1.727 -1.84064 -0.84714 -1.14 0.72254 -0.60892 0.86648 0.09284 0.70448 -1.93868 -0.52212 0.14216 -0.63696 1.03842 -1.71432 -0.41292 1.07166 1.0775 -0.68778 -1.90842 1.6666 -0.61982 0.915 -0.80788 -0.8505 -1.34382 -0.28458 1.0194 -1.36264 0.41898 -0.63436 -1.80972 -1.9698 0.15158 -0.46268 0.21014 -0.0312 -0.07466 1.46954 1.64844 1.16172 -0.85146 0.42782 1.98222 -0.57988 1.41564 -0.68846 -1.1207 0.34192 -1.92892 1.82924 1.68164 -0.59956 1.55558 1.16488 0.89282 -0.75566 1.96074 1.71048 0.06636 1.67564 1.84708 -0.54452 -1.7145 0.69568 -0.71242 0.11196 1.21144 -0.4989 0.07554 1.61828 -0.8537 1.60796 -0.33622 -1.07016 0.51804 0.95234 0.93278 1.772 -0.26614 1.34462 -1.1639 -1.32254 -1.43374 0.58972 -0.31602 0.78984 -1.52538 0.98668 0.6445 -1.03422 0.00806 0.21486 -0.59684 1.97278 1.31464 1.69306 0.14232 -0.71348 -1.86746 -0.69634 0.1001 1.3782 -1.73362 -1.5472 0.68294 -1.92632 1.73664 0.62572 -1.35316 1.94046 0.31154 -1.81126 -0.0234 0.72174 0.83952 1.1696 -1.1108 -0.30424 -0.98832 0.49772 -0.36266 -1.77526 0.85658 -0.89024 -0.3898 0.93142 0.20478 -0.30902 -0.38482 0.82498 -1.18998 -0.35376 1.63944 -1.56982 -0.75548 -0.54212 -1.58892 -1.88654 1.90678 -0.3897 1.0532 -0.15112 0.33984 0.70404 0.65422 -0.1807 -1.76176 0.68142 -0.86676 -1.85496 0.80384 -1.55346 -1.72518 -0.36518 1.66632 -0.12466 -1.4784 1.15662 0.84258 1.7515 -0.1311 0.04564 -0.98946 -0.17814 1.13042 -1.33472 -1.45072 -0.4536 -0.52278 -0.61838 0.75852 -1.22426 -0.21102 1.40138 1.4445 1.78846 -0.1151 -1.84746 0.45552 1.79088 0.69318 1.52334 -1.44226 -0.52986 -1.97888 -1.63652 -0.62858 0.00462 -1.23614 1.36918 -1.06374 -0.74554 -0.72914 -1.84474 1.7414 -0.99246 -1.16168 -1.48202 1.5736 -0.01108 -0.72998 0.69182 -0.7958 1.7516 -0.6135 0.0281 0.65754 -1.12656 0.1903 1.87786 1.99042 -1.63094 -1.29892 1.05168 -0.94168 0.34554 -0.5121 1.54038 -0.19928 0.76694 1.29386 0.54466 -1.21746 0.10804 -1.55464 -0.49596 1.50486 -0.36628 1.65996 0.43696 0.95012 -0.6331 -1.42108 -1.53342 0.52086 -1.99866 0.31914 -1.19388 -1.91638 -0.00698 -0.29408 -1.50204 1.8143 -1.114 1.37874 -1.4328 -1.44664 0.21918 1.09694 -0.60414 1.51962 -0.70206 0.71724 -1.19336 0.69506 0.72534 -0.09072 1.09616 1.30624 1.88246 0.52322 -0.97618 -0.78652 1.75334 -1.07226 0.6235 1.79012 -1.7655 -1.46918 -0.94304 -1.97362 -1.31822 1.45674 1.8077 -0.93898 0.7959 0.73034 1.89654 0.72928 1.87814 -1.04932 -0.71432 0.53676 0.2641 0.91732 -0.34784 0.64966 1.77226 -0.22848 1.7955 0.09206 1.22298 -0.50014 -1.79884 1.46978 -1.31792 1.28446 -1.93904 1.95826 -1.24478 -1.22294 -1.68116 -0.31164 0.03996 -0.63054 0.83784 -0.15882 0.90952 1.74562 1.89914 1.995 0.01272 -1.63314 1.4281 0.93176 -0.76246 0.48704 0.94938 -1.164 1.27556 1.97384 -1.98216 0.46298 -1.2647 0.96488 -1.1966 1.18192 1.25556 -1.66208 -1.62108 1.51142 0.66938 1.93828 -0.02594 1.10108 -1.36818 1.59732 -1.50322 -1.10538 -1.92052 1.81098 1.74012 -1.97336 -0.12764 1.8005 -1.92068 0.85612 0.07176 -0.7306 0.23222 0.19504 -1.66492 1.22496 -1.31732 -1.21864 -1.2408 -0.14414 -1.04696 1.07508 -1.43396 1.6559 0.5856 0.5716 1.3667 -1.61228 -0.6744 0.07444 0.39278 -1.67298 0.29992 -0.35978 -0.00974 0.05474 -1.2435 1.46458 -1.76628 1.9912 -1.4094 -1.0652 0.88556 -0.05272 -0.88984 -0.01384 0.10568 0.18388 1.17632 1.4444 1.25558 -0.80732 0.34186 0.77596 0.64426 -0.5783 -1.67144 -1.57642 -0.77464 -0.8315 -1.34008 -0.51536 0.47488 0.00486 -1.53668 -0.25526 0.96946 -1.408 -1.79524 0.28034 0.46846 -0.7819 -1.45236 -1.23202 -0.73474 -1.98176 -1.8105 0.61876 0.54574 -1.40056 -1.5341 -0.8172 -0.78862 -0.11882 0.81886 -0.7999 -0.01486 1.52394 0.99596 -1.43146 -0.27384 -1.66708 0.2392 1.0652 1.33128 1.10594 0.4599 -1.11932 -0.51606 1.3654 1.01668 -0.48632 -0.0209 -1.10402 -1.02406 0.03746 -1.35498 -0.42614 -0.4893 0.62602 -0.7678 -0.29022 -0.12218 -1.3741 -1.29742 1.4771 -1.72674 -1.40632 1.18598 1.26322 1.75958 1.44552 -0.40398 1.63622 -1.44584 0.13552 0.97888 -0.51756 -0.5633 0.1593 -0.44168 1.3088 -0.8652 1.18032 -0.41726 0.95222 1.2037 -1.68462 -1.09476 -1.2186 -1.44494 -1.58874 0.01324 -1.63006 1.33634 -1.98364 0.45508 -0.38672 0.3626 1.85416 0.83268 -0.13378 -0.3053 0.22072 1.60582 1.57116 1.91764 0.34286 -1.6582 0.8404 1.05856 1.16256 -1.86284 1.3514 -0.93232 -0.07662 -1.42504 0.69748 1.04316 -0.24964 -1.7266 1.95786 1.68844 0.40458 0.70814 1.3483 -0.56774 -0.77392 -1.70012 -1.46222 1.68044 -0.63442 1.11984 -0.41746 1.3266 1.6921 -0.3859 0.91408 1.5745 0.01158 1.03456 -1.13918 1.97356 0.06482 -0.27718 -0.60752 -1.7259 0.66184 1.30224 -0.58706 1.44138 1.75758 0.57012 -1.38778 1.58076 0.8748 0.17776 1.2901 1.51256 -1.7425 0.1389 0.69154 0.04298 1.80402 1.15996 -0.30704 -1.95728 0.55462 -1.97522 -0.62442 -1.69072 -0.33912 1.12298 -0.96842 0.71578 1.41256 1.9843 -0.37638 -1.31826 -0.68434 1.0742 0.77042 -0.07616 0.88694 -0.90362 1.92284 0.79546 0.5076 0.00176 -1.5482 -0.48568 0.32398 1.4015 1.31698 1.87268 -1.65698 0.81784 -1.83046 0.90484 -1.97014 -0.65024 -0.28052 0.63706 -0.07334 -0.89634 -0.2195 -1.3654 -0.46146 -0.10356 -1.8318 0.8905 -1.44586 0.60834 0.1969 -0.8167 1.36846 -1.23232 1.15602 0.70762 1.23712 0.8975 -0.4649 -1.44716 1.57296 1.86124 -0.01472 0.25936 1.806 -0.8411 0.37276 -1.4053 1.81474 0.71876 -1.34812 1.9659 -0.6453 -1.86664 1.99718 -0.21672 1.31588 1.28822 -0.7431 -1.38884 -0.16644 -0.43872 -1.03984 1.71562 -0.7954 0.13366 -1.4958 1.57532 1.66182 -0.53808 1.6677 -0.86764 1.81464 -0.83336 1.06408 0.0654 1.11836 1.52112 -1.1714 -1.62036 1.52368 1.57348 1.07574 -0.16464 -0.04354 0.231 1.8286 1.2351 -1.2295 -0.62726 1.39172 1.94888 -0.35942 -1.07608 0.71926 0.01166 0.90108 0.26964 -0.94524 -0.32768 -1.34532 0.79742 -1.06712 0.35282 1.05106 1.5195 -1.84876 -1.81196 -0.93074 -0.06822 0.6649 1.79476 0.45962 -1.12274 -0.91252 0.26008 0.48554 1.12478 -0.24084 0.97358 0.30506 -0.73092 0.8048 0.28906 0.07018 1.7188 1.49176 0.8907 0.44738 -0.9476 1.16432 -1.15128 0.46634 1.15628 1.72494 -1.27376 0.6406 -1.27708 0.7843 0.43694 0.07974 1.64054 0.16582 0.83872 0.70782 1.59696 -0.51074 -1.23668 1.83642 -1.54082 1.52612 1.77628 -1.48952 0.08116 1.36724 1.3856 1.9926 0.6438 -1.71738 1.33224 -1.97226 -0.73948 -0.25934 -1.98314 0.76744 -0.18382 -0.6716 1.30334 -0.84768 -1.63876 1.61946 -0.2374 -1.65952 1.3222 -1.10618 0.66452 1.10324 1.96608 1.58124 0.47322 0.22954 0.72844 1.05426 -0.01182 -0.47374 1.38804 -1.66176 -1.61484 1.78902 -1.66066 -1.26638 1.9968 -1.5597 1.45204 0.4092 -1.18078 -0.10014 0.14896 -1.92874 -1.10836 0.26854 0.1859 1.61098 1.47518 -1.1603 -0.23648 1.43578 -0.81172 -0.81266 -1.29728 -1.71766 -1.97348 1.06254 -0.1906 -0.8973 -0.70072 0.20624 1.75248 0.49058 1.3794 -0.52206 -1.05678 1.51432 -1.18704 1.6276 1.62264 -0.6777 -1.11156 -1.08702 -1.9254 -1.23534 -1.04574 1.8948 0.6896 -1.79534 -1.95636 1.11744 1.57908 -0.85154 1.76274 1.95224 1.14996 1.19782 1.0863 -1.94302 -1.2929 -1.06576 0.63088 0.34934 -0.89008 0.61296 0.14738 1.65838 -1.30816 1.41368 -0.67468 0.67158 0.798 1.84758 -0.78296 -1.5588 0.54734 -1.72472 -0.88728 1.93804 1.32806 -1.8683 -1.62706 -0.39528 -0.94094 0.18182 0.62716 0.604 0.72782 1.42716 0.32798 -0.25462 -1.572 -1.24402 0.9205 0.6884 0.6914 0.53908 1.80306 -0.53838 0.61726 -0.70412 1.20294 1.2759 0.87934 -0.62796 -1.68058 1.7315 1.93142 1.32152 -0.5951 0.87466 0.0851 1.14824 -1.2711 -1.42462 -1.43872 -0.97384 -0.70974 0.92808 1.9858 1.54338 -1.06946 -0.73532 -0.9143 1.57992 0.24356 0.04202 -1.07292 0.52864 -0.2502 -1.99176 -1.5278 1.65108 -0.67922 0.03218 -1.07126 -0.90296 0.72538 1.687 -0.1376 0.89566 0.67258 1.4063 0.02226 1.4533 1.66028 -0.72026 -1.97292 0.3451 0.1271 -0.33478 -0.7512 -1.12502 -0.52418 1.07388 -1.63468 -0.06174 0.19018 1.2994 1.12846 0.2774 0.8044 -0.59724 -0.4283 -0.60336 0.40244 0.434 -0.17254 0.6967 1.64664 1.46424 0.30078 -0.39674 -0.93432 -0.90988 -1.12922 -0.47576 1.24242 -0.36762 1.91964 -1.0362 0.01494 0.58198 -1.59846 -1.91544 0.75942 1.59722 0.17524 0.24688 -0.33314 0.99048 0.90684 1.42598 -1.44148 1.58498 -1.90876 -0.7302 -0.16542 -1.3744 -0.94916 -0.77374 1.45228 -0.66964 0.69844 0.66284 1.36444 1.64554 1.8093 -1.6143 0.20308 0.84106 0.69582 -1.44222 1.37974 0.16466 -1.73754 -1.77758 -0.99878 -0.51286 0.63722 0.80522 -1.74124 1.58058 -0.97016 -1.34384 -1.44262 0.87478 -0.95526 -0.51932 -1.00112 1.60098 1.68966 0.61682 -1.41846 0.69338 -0.48848 -1.31544 1.88352 -0.26132 -1.2799 1.11388 1.7879 -0.21046 -1.95622 0.82578 -1.70536 0.34906 -1.95378 0.39386 1.32252 1.8688 -1.73144 -1.65258 -0.01164 0.24562 -1.03252 1.87168 -1.69948 0.04228 0.10546 -1.51034 0.6008 0.32862 1.3868 0.6021 1.1514 -1.921 1.97624 -1.31366 -1.34688 1.57788 -1.6611 1.26254 -1.23298 1.52334 1.0173 0.4692 1.53678 0.20406 -1.6385 0.20832 0.82856 0.65086 0.15814 -0.86994 1.3324 1.34222 -1.37156 0.33592 -0.27412 -0.36018 -1.61596 -0.15878 1.6332 -1.76956 -1.48694 -0.54072 0.40272 -0.55832 1.67436 -1.78436 0.3728 1.35986 -0.25928 1.74464 1.5299 -0.99398 1.5804 0.46502 1.2283 0.49826 -1.6651 0.09646 -0.31922 1.89712 -0.33892 1.94992 -1.82954 0.25672 1.26968 1.80918 1.45054 -0.35968 0.96044 1.0133 1.19384 0.49766 1.62932 -1.46342 1.01026 -0.44198 -1.93352 0.0951 0.52968 -1.85416 1.8355 1.46868 -1.08988 0.4135 -0.39984 0.32636 1.76182 0.1634 1.1076 1.22762 -0.69508 0.28758 -1.83956 1.73606 0.56934 -1.43688 -0.7112 -1.85402 0.17198 1.86518 -1.23492 -1.26754 -1.6006 0.72742 -1.44922 -0.96778 -0.6233 1.0438 1.45474 -0.32974 0.43178 0.23978 1.56676 -0.46508 -1.93838 0.1924 1.03978 -0.24304 -1.34344 -1.0567 -1.95264 -0.71286 0.5327 1.73282 -0.29164 -1.09374 0.33722 1.89324 -0.03278 0.44712 -1.7308 1.92048 1.92312 0.6645 1.38076 1.10302 1.06926 0.1827 -0.1373 -1.43206 -1.05034 -1.282 0.70864 -0.56266 -1.20418 1.06514 0.7208 0.62552 1.67444 -1.62306 -0.47666 1.53184 1.48942 -0.77134 1.81782 1.47794 0.19976 -1.33342 -0.98094 1.64452 0.695 -0.51656 -0.92342 -0.99238 -0.59894 0.5113 0.31664 -1.09774 0.15414 -1.04142 1.12312 -1.14292 1.89424 -1.91138 1.99364 1.32934 0.57848 -0.90464 0.937 0.64322 0.18544 1.7117 -1.78122 -0.40974 -1.07622 -1.26266 -1.56894 0.69446 0.84668 1.90282 -1.09674 0.40268 -0.83636 0.21818 -0.12706 1.4662 1.64142 -0.29898 -1.96374 0.28452 -1.25152 -0.18146 -1.52864 0.71586 -0.74618 -1.33374 1.6376 1.4008 -0.765 -1.51154 -1.10056 -0.89562 -0.27044 0.37582 -0.54092 0.9833 -0.73534 1.4863 -1.91618 -1.3363 0.08024 1.62218 0.05558 0.25132 -1.9447 -1.27958 1.69344 -0.32394 0.21568 -1.47256 1.68792 -1.12256 -0.94092 -1.34754 -0.10528 -1.6331 1.24032 -0.4971 -1.66358 -1.74248 -0.90026 -0.96976 -0.54056 0.3582 1.00336 1.79888 -1.32688 0.7878 -1.24092 0.88962 0.20152 -1.8449 -0.38282 1.37256 -1.79572 -0.8737 1.76296 0.22002 0.66056 -1.4666 -1.0272 -0.03846 -0.81488 -1.29244 -1.19946 -1.978 -1.9547 -0.9229 -1.5189 -0.90784 1.74296 1.76174 1.14988 1.8263 1.56394 -0.95002 0.16274 1.69736 1.24794 -1.74358 -1.9527 -1.09438 -1.08304 1.32604 0.3259 1.53282 1.26026 -0.3135 -1.55182 -1.23158 -1.39606 -0.97972 0.84234 1.80302 1.2847 1.1382 1.84512 -1.24814 -0.44234 0.98136 1.75356 1.596 0.30668 1.66692 1.14666 0.43978 -0.9948 -0.20912 1.8086 1.1543 0.96354 -1.93442 0.97208 0.40414 -1.5139 -1.93282 -0.95544 -0.14092 0.38166 -0.73228 -1.23826 0.35878 -1.37108 1.71266 -1.51178 0.72266 -1.0806 1.34686 -1.4584 -1.57426 -0.79514 -0.58912 0.1397 -1.73342 -1.49716 -1.54872 0.59892 -0.74996 -1.82064 1.88612 0.5276 -0.53064 -0.12212 -0.70614 -0.19512 -1.46166 0.0482 -1.56182 1.3169 1.21752 0.09362 -0.01398 0.37018 -1.71006 0.21962 -0.60522 0.96708 0.594 1.17868 -1.576 -0.47964 -0.34166 -0.75074 1.38286 -0.05058 -0.44736 -0.07412 0.70548 -0.09872 -1.9652 -0.53176 1.79452 -0.32028 0.49554 0.74012 1.29236 -1.51912 1.33504 -0.09222 1.94988 -1.32556 -1.5188 -1.97006 -0.67594 0.33212 1.21882 1.0407 -0.15026 0.04696 1.10804 -0.51582 -1.99508 0.07134 1.75534 0.36574 -1.13076 -1.7799 0.49502 1.34444 -1.74778 0.61244 1.34272 0.5369 1.2821 -0.25072 0.29908 -1.6937 1.87462 -0.45018 0.92726 -1.0861 1.63204 -1.31378 1.2288 1.74956 -0.96086 -0.3716 1.92518 -0.94926 0.7306 0.51194 -1.92388 -1.34148 0.79324 0.5506 -0.53668 -0.27682 -0.07564 -1.8702 -0.12914 1.07226 -0.01416 1.9906 -0.34444 -0.66258 -0.66828 -0.0557 -1.25216 1.57478 -1.96698 0.9125 1.16606 -1.70008 1.1197 0.19412 -0.14786 1.31868 0.84254 -1.99422 -0.6734 1.24082 -1.7051 -0.55572 -1.38618 -0.25974 0.5363 0.68418 1.74364 -1.26852 -1.71404 -1.4241 0.38194 1.74482 1.67894 1.85498 0.92804 1.64144 1.03064 -0.10864 0.41782 1.09482 -1.11944 -1.6496 -0.98228 1.81808 1.34588 1.77618 -0.46118 -1.4009 -1.30154 0.14462 0.88064 -0.08144 0.80318 0.63002 0.77734 -1.45844 1.37676 1.9153 0.80112 0.64752 0.20066 -1.98366 1.28882 1.4571 -1.46944 1.42124 -1.37902 1.2647 1.26608 0.2107 -1.71196 -1.04884 -0.41206 0.23176 0.36026 1.9445 -1.57344 -1.20428 0.39438 0.7601 -0.85464 1.14454 -1.967 0.14132 -0.30474 -1.53664 -1.05838 -0.9511 -0.92236 0.38648 -1.73534 1.11532 1.09024 1.77028 -1.10584 -1.1358 -0.93844 -0.4394 1.28752 1.92462 1.1552 0.27412 -0.66698 0.48774 -0.14344 -0.07054 -1.6694 -1.42858 -1.73024 0.83284 -1.885 0.58104 -0.47908 -1.959 -0.49784 1.05612 1.98334 -0.85252 -0.23816 -1.93282 0.4796 1.57208 0.18704 -1.12042 -0.05396 -0.8273 -0.13908 -0.18234 -0.66242 -0.50396 0.88292 0.86594 -0.49182 0.46974 1.6049 0.87122 -0.1885 -0.45476 -1.71524 1.76578 -1.86724 -1.6298 -1.22088 0.24478 0.27146 -0.31638 -0.4056 1.04922 0.2681 -0.16196 -1.11914 1.91406 1.79874 1.22034 -0.55498 1.5831 -1.91294 -1.54658 -1.4583 -1.31614 -1.93146 0.51294 1.23382 0.77372 1.94992 -0.75096 -0.92716 1.05118 -1.56392 0.63094 -0.7554 0.43808 -1.13728 -0.00394 1.9344 0.1094 0.79294 1.94226 0.6081 -1.73758 1.5783 0.81168 1.54954 1.49954 -1.38482 0.96884 1.0672 0.28784 -0.97528 -1.97822 0.78416 -0.64192 -0.99646 1.6009 1.69724 -0.3802 -0.86364 0.0054 0.29486 -0.97758 -1.38924 0.54322 0.61314 1.63716 -1.40656 0.44276 1.05134 -0.19732 1.28594 1.3356 -1.20984 -1.85522 -0.1547 -1.72072 -0.89446 -0.74316 0.9634 1.73428 0.15854 -1.01894 0.18184 0.785 0.02644 -1.5857 1.84676 1.88652 -0.56546 -0.73818 0.2988 0.31458 -1.02696 -1.21246 -0.3526 -0.41432 1.65164 -0.96494 -1.80146 1.91236 0.9061 0.1724 1.9175 -0.7355 1.00188 -0.3109 1.23162 0.63936 1.51276 -1.27576 0.49534 0.44038 0.6564 -0.59792 1.84684 -0.68622 0.84056 -0.17424 -1.48324 0.19882 1.7904 -1.2931 -0.99178 -0.21048 1.50386 -1.02866 0.36256 -1.9974 0.49738 -1.7404 -1.37238 -1.92952 -0.9417 1.05104 -1.17184 1.98614 -0.93644 -1.08268 1.7831 -1.66266 -0.81734 -0.79262 -1.62626 -1.28972 0.76648 1.8584 1.65818 1.57096 -1.05932 -1.6664 0.7451 -0.17412 -1.4817 -0.0003 -1.87806 0.19918 -0.83584 0.12798 -0.23936 0.03054 1.32654 1.229 -1.85802 1.25314 -1.9034 0.42486 -0.61792 1.60536 -1.4261 1.8607 -1.74978 -0.07676 0.04264 -1.82058 -0.98384 0.583 -1.66686 -1.70206 1.02302 1.64544 -0.68684 0.79158 1.06192 0.16376 -0.4855 0.80174 1.55216 1.05858 0.92908 0.62898 0.82196 0.93558 1.15668 -0.24746 -0.98922 -0.04636 -0.9346 -0.8794 -1.38634 -1.6584 0.47632 -1.9472 0.99706 -0.92004 -1.91662 -1.17814 1.78322 -1.66112 -1.01646 -0.46106 -0.13398 -1.13378 1.10494 0.11518 -1.28262 -1.46506 -1.83292 -0.0218 -0.26136 -0.70514 0.87268 0.32348 -1.32372 -0.0551 -0.96126 -0.68538 0.76656 -1.7099 1.16862 1.0625 -0.4824 1.21254 1.68426 0.68142 -0.83088 -0.73966 1.79452 -0.01806 0.08036 -1.30736 1.01852 1.21328 0.07504 -0.60986 -1.23706 -0.04426 1.83064 -0.95852 -0.96484 -1.52418 -0.21344 1.08718 1.38196 1.3188 -0.53108 -1.84718 1.37652 -0.94786 -1.95878 0.76876 0.05528 1.49312 -0.82976 -0.07896 -1.97868 0.65348 -0.81806 -1.57648 -1.05396 1.45704 -1.25958 0.18514 1.89784 -0.954 0.27632 1.65938 -1.75156 1.28614 -0.81804 1.083 -0.51602 -0.27494 1.25494 0.6928 -0.72406 0.43042 1.83058 -1.63454 -0.78752 -0.98372 -0.11618 0.74238 -0.0593 1.3116 0.63734 1.5254 0.04304 -1.846 -0.6312 0.10944 -1.22622 1.40712 -1.90458 -0.4219 1.7354 1.6014 1.18934 0.33594 -0.95754 -0.19048 1.90438 -1.90962 1.87016 -1.04178 -0.71524 -1.6698 -1.76184 0.47744 -1.35492 -0.4091 0.8229 -1.18352 1.21102 1.92976 -0.42678 -0.00196 -1.75558 -1.41378 0.40864 0.75092 -0.38366 -1.90556 -0.08268 1.0725 0.3092 0.07686 -0.37036 -0.32318 0.95738 -0.32548 1.24108 -0.50538 1.323 1.40296 -0.8881 -0.20656 0.8722 -1.01752 0.02682 0.30712 1.28722 1.5656 1.5089 1.7779 1.28652 1.95728 -1.80392 -1.83434 -1.99512 -0.26264 1.35698 0.6031 1.9273 0.29152 -1.80684 1.80992 0.17304 -1.20236 0.649 1.2079 0.70056 0.56134 1.52004 0.97056 0.34982 -0.67172 -0.50652 1.80804 0.81784 1.77976 1.12582 1.26192 0.55938 -1.8985 1.46368 0.05074 -1.41446 0.13942 1.78598 0.3519 -0.11924 -0.53604 -0.32808 -0.77998 0.31754 -1.36204 -0.4327 -0.96854 1.20978 -0.69802 1.62038 0.07454 0.33348 0.81892 1.60656 -1.27412 -1.95446 -1.46168 -0.57192 -0.04176 0.4638 -1.61196 -0.65218 -1.7749 0.61152 -1.90496 -1.9563 1.82578 0.82784 0.14242 1.22438 -1.96638 -0.98834 -1.70292 -0.67288 -0.7634 -1.1106 0.30002 -1.34698 -0.28816 1.76096 -1.53798 -1.40176 -0.48416 -1.84062 -0.94872 -1.07156 1.74046 -1.50506 0.7378 0.00518 -1.9528 -1.28868 -0.17228 1.8881 -0.50728 -1.88388 -0.5532 0.60848 0.22248 -1.40574 -0.25848 0.2036 -0.93264 0.07758 1.58674 -0.93714 0.03638 -0.50822 0.36996 1.83646 -0.25448 1.8853 1.71622 0.19726 0.00178 1.78978 1.83196 -1.93428 -0.43976 1.1666 -1.69676 1.33084 -1.90998 -1.86278 1.17718 1.32228 1.18392 -1.59102 1.8344 -0.87954 1.44258 1.69152 0.43052 -0.88242 0.01944 0.2584 1.53088 1.43826 -1.42738 1.9884 0.89204 0.24866 0.12498 0.90132 -1.74036 -1.83812 -1.0049 1.63046 -0.11368 -0.29708 -1.71584 -0.61892 -0.95176 1.05588 -1.70898 0.41068 0.11358 -1.06988 0.90038 -1.73554 -0.12108 -0.3726 -0.34264 -0.7505 -1.60614 0.054 -0.54522 0.59864 -1.8222 1.74336 -1.74112 -1.6063 1.4931 -0.42818 -1.72546 0.05456 -0.79414 -0.8113 1.87758 1.0153 0.32718 1.55346 0.52266 0.13148 -1.16372 0.0615 0.64326 1.37464 -1.17344 1.60876 -1.85518 0.60076 -1.46214 -1.69184 0.10946 -0.73538 -1.4087 -1.12454 0.50744 0.20564 0.7071 0.39646 1.45264 0.14294 -0.55598 1.89046 -0.11204 1.4764 0.78132 0.23646 -0.79518 -1.07512 -0.94746 1.88508 -0.06274 0.32546 1.10474 1.52588 -1.5868 0.33236 1.41072 0.08012 -0.22792 -1.43096 1.59854 -0.34188 1.85582 1.18494 1.46234 1.00992 -0.53676 -1.66962 0.68124 -0.32808 -1.6918 1.93072 -1.89918 -1.6203 -1.31256 -1.05418 -1.82648 1.16686 -1.40668 0.59008 0.40394 1.21994 -0.4518 -1.34724 0.37088 1.784 0.15988 -0.93458 -1.53774 -1.82492 0.7949 -1.37304 -1.37562 0.8836 0.54438 1.7859 -1.96538 0.70302 -1.98596 1.7714 -1.2268 -1.12558 0.24362 1.3806 1.57688 0.00654 0.22464 0.72502 0.83842 1.46736 0.15882 -1.75614 -0.5132 1.18198 0.1651 -1.6214 -1.8901 1.20304 -1.18596 1.67832 -1.14998 -1.60218 1.8681 0.50614 0.87702 1.68124 1.30634 -0.7828 -0.16468 -1.09846 -1.0888 -0.52952 1.1528 -1.1781 -0.18312 -0.4705 -1.0237 0.1676 -0.92412 -1.63568 -0.44064 1.43484 0.22698 -1.00512 0.01626 0.55104 1.14014 -0.55762 -1.2815 0.16578 1.67598 -1.16844 -0.11102 -1.6643 0.92136 -1.62464 -0.99368 1.73748 -1.49642 1.89564 0.7002 -0.99258 -1.1103 -0.06312 0.55614 -1.31168 -0.90896 -1.33512 -0.63492 -1.36442 1.40228 -0.0577 0.12716 -1.5503 0.11894 -0.58484 0.17084 0.8732 -1.51012 -1.67404 -1.45892 -0.13606 -1.5013 1.66952 -0.77446 -1.92036 1.5815 0.81708 -0.09946 -0.55848 -1.47682 -0.7612 -0.33598 -0.81976 -0.33588 -1.44806 0.54514 -1.70992 0.43874 -0.67208 -0.54002 0.47524 -1.9227 -1.9171 0.76348 -0.26632 0.7044 -0.56074 0.21674 -0.4938 0.20452 0.1331 1.24758 -1.8224 1.35454 -1.16376 -1.4913 -0.77982 -1.28868 0.4765 -0.8932 0.27396 0.76434 1.92356 -1.8876 0.16348 -1.72174 -1.0531 0.78558 -0.433 0.87002 -0.11926 -1.56554 1.16194 0.86598 0.06582 -0.21338 -1.5842 -1.09398 1.49186 -0.62476 0.14224 -1.39968 -1.60568 1.23698 0.39006 -0.00878 -0.51358 -0.1743 -1.17214 -1.95676 -0.67504 1.57876 1.96222 -1.7789 1.18602 1.7109 -1.84626 1.9705 -1.4 -0.5446 -0.24252 0.65368 -1.35026 0.63618 -1.67624 -0.30138 -1.91436 -0.68838 -0.71128 1.04962 -1.9071 -1.68586 -0.78056 -0.89876 0.96456 -0.32638 0.37 -1.31344 -0.27768 -1.82776 0.79184 1.1212 -0.0423 -0.47626 -0.45496 0.30198 -1.52776 0.94084 1.67994 0.35492 -0.36712 -1.5547 -1.69398 0.03646 1.61774 1.48854 1.95056 -0.24186 0.91322 -1.30856 -0.09444 -1.8252 -1.46304 -0.22176 1.95034 -0.98918 0.3593 0.86096 -0.74348 -0.4876 -0.65912 1.46716 0.24816 -1.57226 0.66354 0.63628 -1.30402 1.12598 -0.90888 0.02178 -0.77362 -0.85522 -0.36834 0.9338 -0.58328 1.64758 -1.99188 1.18296 -0.5165 1.47602 -0.27696 -1.38816 -0.22666 -0.96912 0.26666 0.61704 0.58422 -1.82056 -0.4266 -1.46578 1.94266 -0.38874 -0.3157 0.16754 -0.98598 0.16572 0.19712 1.87826 1.3729 -1.01854 0.79256 -1.17544 -1.33298 -1.10856 1.46506 -1.23922 0.54312 -0.39684 -1.63848 -1.69726 -0.9973 1.17632 -0.62254 -0.2195 1.78934 -1.27098 -0.30618 -0.78272 0.16106 -1.9535 -1.94794 -1.48348 -0.44742 -1.4431 0.0791 1.6151 1.46048 1.46412 -0.08024 1.251 -0.54954 -1.87016 1.81006 -1.49798 -1.31656 -1.10154 1.94482 -1.11812 -0.4342 -0.49412 -1.92608 -1.01896 1.81792 -0.72934 1.53152 -1.23366 -1.7662 1.90378 0.37818 -1.71502 -1.52812 -1.02016 -0.28282 1.3264 -1.0706 0.27604 1.27198 -1.8899 0.81234 1.84994 -0.69972 1.07898 1.6834 -0.88948 0.85226 -1.12716 1.36626 -1.12458 -0.90296 0.89086 -1.2158 -1.18808 1.65146 -1.34484 1.97258 1.071 -1.30142 -1.7181 -0.97462 -0.68726 1.3813 1.5567 -0.91408 -0.36522 0.7791 -1.52938 0.41266 -1.51636 1.57262 0.4074 -0.37352 1.83472 0.06954 -0.28414 -1.7944 -1.00508 -0.70236 0.7074 0.41838 0.65866 -0.59994 1.35836 0.80672 1.4873 1.50078 1.65996 -0.67164 -0.938 1.35382 -0.14162 -0.42256 0.99006 1.08472 -0.50042 -1.53138 -0.25644 -0.00696 0.0486 0.3314 0.38164 0.46018 0.88262 -0.6972 0.68964 -0.73562 -1.05054 0.74238 -0.0644 -1.55044 0.97764 -0.22664 -0.00882 -0.13648 0.3667 1.91268 -1.97706 -1.25004 -0.4014 0.134 1.11912 1.14224 -0.64936 -0.8702 -0.28576 -1.17004 0.6364 -1.25002 -1.43004 -0.75278 0.46202 1.00186 1.24902 -1.62402 -1.96328 -1.80152 0.51744 0.05556 -1.88292 0.22292 0.5513 -1.08242 1.39276 -1.38756 -1.62384 -1.915 1.58626 -0.87346 -1.282 -0.4131 -1.55432 -1.0064 -1.60556 1.9146 1.21226 1.2394 -0.89046 -0.2472 1.58854 -0.14034 0.62796 -1.80054 0.1724 -1.31164 -0.01248 1.97578 0.52432 -0.38482 -0.17322 0.16822 -0.60478 -0.03264 -1.36712 1.37568 1.58268 0.20154 1.74946 -1.26182 -1.24638 -0.37078 -0.7563 -0.49014 -1.96802 0.98304 -1.19848 -0.53158 0.60742 1.33442 -0.8363 -1.20268 1.08892 -1.23538 0.467 0.2574 1.59494 0.35182 0.74516 0.7044 0.62492 -1.59962 -0.43932 -0.02894 1.29974 0.54976 -1.80834 0.4783 -1.63928 -0.98126 -1.6681 -0.98928 1.48992 -1.62866 -1.00084 -0.04068 -1.38404 -0.88192 -1.83252 1.18936 1.88682 -1.4809 -0.63164 1.1899 -1.54854 -0.97056 1.07928 -1.3694 1.50036 0.37546 1.78072 -0.76914 1.45638 -0.95494 0.11326 -1.64676 -1.93146 1.27262 0.2101 -0.51778 0.79138 0.32322 -0.8923 -0.41134 1.0025 -1.84702 -0.6926 0.71758 1.76544 -1.49234 -0.35856 0.47684 0.18434 1.5558 0.81756 0.1058 1.032 0.37076 -0.48042 0.27028 1.47046 1.56106 0.97794 -0.01476 -0.76198 1.10104 -0.44568 0.44484 0.25806 -1.3541 -0.10922 -0.65668 0.90798 0.68526 -1.60204 -0.4364 1.41138 1.7797 -1.8126 -1.70152 1.72204 -1.6383 -1.13486 0.99268 -1.26598 -0.69614 1.04652 1.90058 0.2275 -1.99256 -0.67876 -0.30224 -0.24698 1.93982 0.01174 1.2303 1.34526 1.12244 -1.64938 1.90146 0.59864 0.86256 -1.5405 1.11952 0.61686 -1.7019 1.56886 1.49908 1.15782 -0.74604 0.69442 1.2523 0.18336 -0.7789 0.54824 1.10876 0.69592 1.98524 -0.74878 1.93416 -1.9455 -0.34626 -1.78268 0.25062 1.32466 -1.80698 1.5903 0.96814 -1.3265 -0.83236 0.21832 -1.71106 1.42906 -1.71406 -0.30018 -1.14052 1.9022 -0.2544 -1.6242 -1.5641 -0.26502 1.54744 -1.25726 -1.02646 -0.68698 0.06892 1.5144 -1.4681 -0.60844 0.90298 -1.46562 1.36002 -0.1288 -1.58354 1.84694 -1.0551 0.64522 0.20888 1.79486 0.42384 -1.2922 -1.39928 0.82556 -0.00984 1.03562 0.40546 1.82324 -0.1026 1.52128 -0.31124 1.20656 -1.04968 1.60942 -1.18468 0.19916 -1.49294 -1.08902 1.24378 -1.06242 -0.74428 -1.3214 1.05838 -0.42342 -0.22948 -1.36674 0.8583 0.41772 1.01258 -1.561 -1.2451 0.21426 -0.30668 -0.04928 -0.04804 1.7281 -0.86574 -1.27814 0.75258 -0.0621 0.90754 0.24568 -0.38302 -0.98938 1.7028 1.69642 1.58406 1.75058 -0.94412 0.21728 1.33986 -1.96608 1.40142 -0.72872 0.53912 -0.25476 -0.3506 1.02414 -0.94496 -0.64312 -1.82268 1.98774 -1.18936 -0.5416 0.76638 1.4745 -0.48676 0.99958 -0.34254 -0.9128 -0.9351 1.7852 0.15838 -0.69414 0.03004 1.01004 1.0616 0.04774 -0.12624 0.07408 -0.95082 1.1077 -0.63818 -1.2047 -0.90088 -1.27902 0.81282 -1.57798 1.4116 -1.7933 0.07868 0.11012 1.6668 -0.60432 -0.23942 0.91978 -0.56496 -1.84144 0.24424 -1.7717 0.18318 -1.41552 0.09312 1.96866 -0.84762 1.55466 -0.12448 0.09556 1.24122 1.52908 0.68362 1.60164 -0.84964 0.98094 -1.69232 -0.9304 0.62592 -1.98466 -1.64072 0.04538 -1.33834 -0.9088 1.58796 -0.54926 1.00852 0.95478 -1.88162 -1.2373 1.54526 1.11024 -0.42502 0.90304 1.8035 -0.35456 1.8909 -1.5353 -0.98542 -0.60686 1.6429 -0.45554 0.84546 -1.28274 -0.8192 1.88252 -0.47692 0.47702 -1.04026 -1.31414 -0.91202 -1.30904 -1.70614 -0.5803 1.79928 -1.80116 1.56662 -0.90804 -1.0035 -1.35764 -1.03986 0.19758 1.43626 -0.8872 0.55028 -1.86902 -0.04592 1.78058 1.79814 1.50492 1.09002 1.84298 -1.94498 -0.76724 -1.62758 0.8148 1.19992 1.9444 1.91038 1.70542 1.92764 -1.46852 -0.00498 1.4325 1.6747 0.8543 0.81636 -1.84472 1.10374 1.60466 0.0788 0.79892 1.46818 -1.6278 -1.567 -0.55468 0.10818 -0.26736 0.16696 -0.95018 -0.07156 -0.2575 0.67888 -0.54518 -0.40418 -0.755 -1.36406 1.0611 -0.95272 -1.01554 -1.0011 1.62222 -0.81844 -0.70894 -1.28528 -1.57136 -1.79746 -1.99626 -0.5619 1.69596 -0.6854 -0.20122 -1.32318 -1.80654 -0.5739 -1.70892 -1.62522 1.68282 -1.20024 0.92708 -1.29338 -0.53272 -0.22258 0.86056 -0.22302 0.18514 -0.1474 -1.4598 -0.16332 0.4297 0.21836 1.75526 1.108 0.11926 0.60574 0.45658 -0.38266 0.17712 1.65748 -1.99566 -0.75724 0.10442 -1.70546 0.47098 1.7352 -1.87036 -0.93434 0.4854 -1.9713 -0.69528 -1.1298 -1.0469 0.26134 0.12018 -1.72216 1.53162 -0.15522 0.321 1.51408 0.52958 0.57604 1.66234 0.16706 1.00838 -0.5224 -0.44066 0.69078 0.55756 -0.41228 0.96952 0.67374 0.19766 -1.97466 -1.20458 -0.31568 0.60218 -0.82726 1.30644 1.12536 -0.35268 -0.88054 1.36718 -1.48852 -1.46804 -0.44052 -0.73476 -0.5061 -1.01218 -0.1586 1.07412 -1.3882 1.29634 0.66302 -0.87212 -0.57172 -0.4196 1.93736 -0.71386 -1.00662 0.17586 -0.56114 0.5081 -1.10232 -0.94082 0.63098 0.67254 -1.07224 -0.5341 -1.56416 -0.32436 0.35888 0.53834 1.19562 -0.13326 -0.5899 1.20886 1.15084 -0.3649 -0.5511 -1.78764 -1.93458 -0.29704 -1.28386 0.5136 0.3577 1.37738 1.53462 0.89744 1.36712 -1.8961 0.66482 1.8866 0.31306 -1.0505 -1.79154 0.61134 0.4695 1.45228 -0.09904 0.88692 -1.66252 -1.972 -1.44804 -1.83424 -1.28476 0.07346 -1.89928 -1.20372 1.71776 0.21942 0.42954 0.30226 1.83722 -1.219 0.11042 1.7359 -0.20804 0.38408 0.70148 1.2536 1.13792 0.0303 0.09876 -1.66808 1.01082 0.47226 -1.77474 0.24612 -0.34174 0.79876 -1.26064 1.69856 1.73412 0.56196 1.87486 -1.96258 -0.84902 -1.44964 -0.20164 -1.71576 1.27664 0.73832 1.17966 -0.8523 -0.32564 -1.63744 -1.95064 -0.46796 0.83906 -1.52744 -1.18064 -1.91458 -1.2492 0.64736 1.749 0.30716 -0.07078 -1.77996 -0.84506 0.24296 -0.15182 -0.14542 1.138 -1.081 -0.51996 0.73098 0.56814 -0.72474 -1.09386 0.073 0.5849 -0.75842 -1.4143 0.41722 1.97694 -1.60042 0.85062 -1.04896 0.65756 0.64824 0.4229 0.69322 1.40706 -0.8143 -0.0206 -1.34608 0.94774 -0.91326 0.81296 -0.43232 0.1082 -1.06906 1.39542 1.5554 0.43604 -0.57796 1.6003 0.26066 1.66764 0.94336 -0.20558 0.7741 -1.3741 -1.23396 -0.11236 1.57776 1.4997 0.33358 0.67042 1.3494 1.45654 -1.02184 -0.43754 0.50668 1.82004 1.15494 0.44752 -0.0477 0.93958 -1.17388 1.78324 -0.51862 0.46228 1.33844 1.9648 -0.34604 -0.15384 -0.9697 1.98116 0.55488 -1.20072 -1.41004 -0.71662 1.71418 -1.14618 1.6488 0.06732 0.641 1.29806 0.40162 -0.84578 -1.38584 0.41632 1.46356 0.11114 -0.86998 1.36846 -1.11128 1.73534 1.28108 0.97452 -0.352 1.32106 0.84152 1.1601 -1.68698 -1.6882 -0.71256 -1.19878 -1.76632 -0.2684 0.4694 0.3524 -1.88448 0.5501 0.86656 1.69476 -0.15174 -0.34714 -1.82876 -0.91238 1.8065 0.65424 -1.46204 1.67188 1.16908 1.06506 0.9987 -0.77272 0.83476 0.28548 -1.04258 -0.70506 -1.29994 1.58036 1.15128 -0.73112 0.44186 -1.44592 -1.45922 1.33698 -1.22014 -0.16024 1.06438 -1.32998 0.68482 0.26174 0.30078 -1.08656 1.24458 -0.56474 -0.47982 1.23586 1.5641 0.19346 1.168 0.99374 0.7831 1.16964 1.99102 -0.75204 -0.6869 -1.93984 -0.03354 -0.05182 -1.22584 -0.82556 -0.34768 -1.46484 1.39882 -0.40234 -0.7471 -0.70582 -0.88792 -1.16574 -1.69224 -0.03326 1.58986 1.86792 -1.01294 -1.09268 -1.23574 0.08526 -0.0173 -0.6005 -1.23472 -0.27846 -0.26916 0.5066 -1.58766 -1.84248 0.48578 1.2722 -1.43696 1.2928 0.02388 -1.28032 1.8733 -0.88382 1.89584 -0.48962 -1.39058 -0.23438 -0.4854 -0.3531 -1.81764 -1.774 0.12376 0.72982 -0.11432 -0.79874 1.40388 0.91518 0.18256 1.0837 -1.51632 1.22782 0.07744 -1.43306 -0.81712 1.0526 1.44358 1.1457 -1.8772 1.2413 1.11188 -0.01932 -1.26886 -0.18074 0.81038 1.58806 0.09342 0.47366 1.97206 1.47668 -1.70212 0.99864 -1.42936 -1.6642 -0.78286 -1.46072 1.59778 1.001 -1.37908 1.21108 -1.24638 1.5706 -0.91036 -0.52066 0.80912 0.79604 0.64224 1.30636 1.9333 -1.15678 0.06678 -0.5363 -0.35718 0.2733 0.535 0.20166 1.49484 -1.6955 1.91944 0.2976 1.10784 -1.06978 0.9431 0.70588 0.7858 -0.51496 0.65718 -0.25836 1.3498 -1.35642 1.45482 -1.55744 0.52478 -1.08828 0.48768 1.54128 -1.10896 1.2518 1.01014 -1.98568 -1.05418 0.78706 0.54034 1.12884 -0.59012 0.83418 -0.6442 0.29734 -0.19922 1.01546 -0.95558 1.29326 1.08156 0.3233 -1.89676 1.82338 -1.37252 0.38374 0.69352 -0.67594 -1.86114 -1.09942 1.95654 1.2897 -0.61162 -0.37578 0.9389 -1.2689 1.7856 0.99372 -0.68938 -1.75696 -0.70564 1.9051 -0.64822 -1.67922 0.38986 1.81426 -0.704 1.95162 -1.87078 -1.64018 1.94084 -1.66568 1.59916 -1.83844 -0.639 -1.79852 -1.19154 0.66428 0.91378 0.50728 -1.44174 -0.31394 1.87546 -1.95478 0.8305 1.25064 -0.25956 1.78564 1.89526 -1.3753 0.51172 0.80706 -0.29518 -1.19862 -0.0011 1.17644 -1.0285 1.78244 -0.56648 -1.18678 -0.91228 0.7419 -0.80516 1.77902 -1.04026 1.6222 1.69054 -0.77318 -1.73678 0.73742 1.92262 -0.87868 -1.92008 0.80332 1.68478 1.6083 -1.97036 -0.69346 -0.50974 1.13922 0.0738 -0.48966 -1.94366 1.5045 -0.1519 -0.86622 0.6295 0.79778 0.16266 0.18454 1.22996 -0.97398 -0.76924 0.10054 -0.58046 -0.18366 -1.5088 -1.90356 1.08548 1.20828 1.56008 -1.48638 1.52242 -0.84218 -1.29792 -0.6096 0.72712 0.9015 -0.88342 0.39058 1.1468 1.66496 0.29216 0.29428 0.73942 1.57738 0.68554 -0.30968 -0.06908 1.82596 -1.0073 -1.10724 1.06414 0.07866 1.50746 0.8966 1.89054 -0.02062 -0.61624 -0.13158 1.11708 1.93318 0.22106 0.28198 1.57912 -0.43982 -0.01208 0.8985 0.80242 -1.54232 0.40664 1.72798 -0.31882 1.77206 1.03774 1.565 0.73384 0.93646 1.36112 -0.15784 1.13078 0.80088 0.16552 1.25952 0.21556 0.66732 -0.55054 -0.55626 -0.34964 -0.19452 -0.50014 -1.25226 -0.48228 1.24816 1.2735 1.2136 -0.55612 -1.98982 0.71516 -0.82078 -0.41056 1.78702 0.88788 -0.52678 -0.5807 -0.73528 1.21158 1.29208 1.04092 1.94244 -1.83724 -1.04594 0.61824 1.54158 0.73762 -1.68382 -0.23234 0.96154 -1.93358 -1.08822 -1.8893 -1.45582 -0.75186 -1.00306 0.95782 -0.3411 0.21026 0.43302 -1.50144 1.82414 0.1211 0.72364 -1.7787 0.18188 -1.74728 1.34374 1.91298 -1.30772 -0.1598 -1.04916 1.45574 0.15738 0.40282 -0.2921 -0.35728 -1.45422 0.1295 -0.02388 -1.48948 0.9573 -0.55408 0.48234 1.94374 -0.19664 -0.9315 -0.95474 0.53888 -0.10906 0.5154 1.7604 1.05444 -1.22144 0.7935 1.21678 -0.17866 -0.5609 -1.26724 -1.56366 1.28886 1.39386 -1.5968 -0.92462 -0.87868 1.11558 -0.54396 -0.04668 0.14134 1.54022 1.35422 0.41204 1.5294 -1.76586 -0.07752 -0.45874 0.3782 1.63874 0.7799 0.41792 -0.88662 1.20746 -1.19514 0.02204 0.17686 0.0798 -0.10362 0.67718 1.36386 1.18604 1.88656 -1.7964 1.813 -0.30686 0.68726 -0.88336 0.5541 -1.62946 -0.639 -1.17184 -1.65268 1.11518 0.9039 0.99866 0.53672 -1.89664 -1.769 0.8203 0.85606 -0.74776 -1.16144 0.18258 0.6592 0.31484 1.32296 -1.91862 0.589 0.38114 0.89852 1.04152 -0.78082 0.77886 0.58944 0.9553 1.65366 1.1506 0.59902 -0.16376 -0.45314 -1.19416 0.98714 0.00766 0.27774 -0.04828 0.0706 -0.00182 -1.69644 -0.1938 1.4853 0.07348 -0.1512 1.07608 1.8211 0.11162 0.34746 -0.29604 -0.4556 -0.50186 0.37018 0.60586 0.52764 -1.82706 -0.528 0.31948 1.60896 -0.43156 -1.47428 1.94858 1.34498 1.38612 -0.49568 0.39474 -0.72658 0.05022 0.26508 0.8309 1.90484 -1.29254 -1.75576 -0.67524 1.77782 -1.2172 0.89582 -1.17498 -0.8073 0.1431 0.95774 -1.5222 -1.39216 -0.05032 -0.39382 -0.89912 1.46606 0.941 0.2782 0.8142 -1.46436 1.95824 0.34276 -1.49786 -0.52754 -1.64504 0.4612 -1.90082 -1.43084 1.45404 -0.19734 -0.22912 1.84654 1.51654 -0.20088 -1.16306 -0.7461 -0.95458 0.82804 -0.25518 -0.7229 -1.35302 -0.87322 -0.53414 0.6107 -1.9521 1.34074 -0.60472 -0.22006 -1.59656 0.92868 0.33242 1.772 1.45088 0.29526 1.9466 0.36468 1.74208 1.85228 1.42284 0.32158 0.79664 -1.74414 -0.26136 -1.65958 -0.81316 -1.36874 -0.90872 -1.84944 -1.23078 1.84698 0.42062 -1.88706 -1.46664 -0.46292 1.88866 0.83144 -1.12312 -0.10856 -0.57546 -0.98578 -0.9341 0.31924 -1.8343 -1.47464 1.47024 -0.00114 -1.60434 -0.77872 -0.1475 0.47224 -0.4882 -0.80688 1.40518 1.42322 0.48046 -1.6089 1.38812 -0.87458 -0.57616 1.41664 0.24946 -0.75528 -0.9893 -1.44356 -1.49196 0.21946 1.23864 -0.08622 0.4066 -0.88486 -0.5122 -0.14936 0.42774 0.40862 -0.74432 -1.5226 -1.90986 -0.78672 -1.12982 1.18796 -1.7644 1.87 0.29806 0.29696 0.33518 -0.7725 -1.29224 -0.88988 1.0566 1.49754 1.44332 1.75144 -1.53242 0.0079 0.76474 1.82118 -0.69148 1.60926 -1.98268 -0.74924 0.76022 0.48186 0.81468 -1.26264 -1.01556 1.66114 0.76536 -1.00344 0.16754 0.00306 -1.69904 0.17484 -1.74478 0.23588 1.18104 0.37946 0.94666 0.71374 0.22126 1.28052 -0.48832 0.1285 0.85716 0.90904 -0.32818 -0.26366 -0.61694 -1.58016 1.64386 -0.5655 1.16886 -1.51912 -0.80406 1.61942 -1.57226 -0.24628 -0.9447 -0.4393 -0.68748 0.67404 0.46212 1.7112 0.94258 -0.94646 1.19658 -0.73154 1.49622 0.23168 0.82686 -1.61472 -1.1255 0.59476 -0.61202 -1.26322 1.73906 -1.3683 1.62468 1.90562 1.06552 1.24808 0.27806 0.34552 -0.64732 -1.26696 0.83418 1.82006 -1.02112 -1.3642 -0.19186 -0.5727 -0.67586 -0.61404 -0.59878 1.54722 -1.1816 -0.19952 1.18592 -0.19638 1.71246 -1.59666 0.24012 1.15136 -0.40702 1.25856 -1.44002 -1.4259 1.09288 -1.54084 1.88034 1.79602 0.12902 -0.85032 0.49516 0.06442 -1.60404 -1.88342 0.3585 0.20954 0.21934 1.3765 -1.71042 0.8604 -1.57646 -0.60046 1.06114 1.48854 -0.80646 -0.15924 1.91838 -0.06144 -0.55422 -0.17894 -1.80684 0.66218 -0.99204 1.1267 -1.24746 0.0941 -1.82696 0.26008 -1.27282 -1.4803 -1.24454 0.0121 1.29828 -1.82554 0.89078 1.3368 1.15124 -1.2982 1.44198 -1.02362 1.58426 -1.66406 -1.88624 1.37972 0.7278 -1.80658 -1.80258 -0.92858 1.38056 -0.7479 -1.45922 -0.05824 0.35024 -1.69204 -1.0435 1.83296 -0.94356 -0.73074 1.36402 -1.73562 0.03648 1.95926 0.6493 1.76986 0.10492 0.41142 0.10126 0.88668 -1.40226 -0.14328 0.6895 1.21656 0.49658 -1.53062 0.2368 1.8572 0.54842 -0.37176 -1.60112 -1.44088 -0.10332 1.10162 0.8795 1.47506 1.97892 0.8137 1.66186 0.99032 1.21794 1.0578 0.28034 -0.11802 -0.66224 1.17758 0.93988 1.62498 -0.31336 -1.65612 -0.72522 -1.68364 0.09216 -0.68928 -1.52634 -0.47618 0.5626 -0.67578 1.44516 -0.11916 0.07116 -0.9007 -0.71546 1.4282 -1.12962 0.8049 0.3677 0.93486 -0.92026 1.17424 1.79094 1.29122 0.74956 1.11094 1.66874 -0.46008 1.57638 -1.19248 -0.12122 1.319 -0.47052 0.6118 0.17056 0.20452 -1.64654 -1.9175 0.46694 -1.41406 0.62794 -0.64432 -1.08754 0.6547 1.36852 -0.219 -1.08086 0.11864 -0.22674 0.85214 -0.9884 0.53284 -1.19012 -1.99498 0.54522 0.51238 -1.44706 -0.01646 -0.4332 0.98122 -0.35802 0.93372 -0.05256 -0.24494 1.44542 -1.87384 -1.64866 1.45934 0.92872 1.08002 1.07474 -1.21214 -1.66204 -0.21826 -1.6931 1.72406 0.26176 -0.86376 1.92268 -1.03144 0.19178 -0.4499 1.76666 -1.27578 1.79592 1.34594 0.5091 -0.47554 -1.93344 1.65816 -0.34844 0.3699 0.5157 1.48572 0.94396 1.69422 1.40824 1.15738 1.20926 1.24234 -0.57036 -0.5402 1.1899 0.69322 1.77738 -1.77628 0.19488 1.02812 1.69812 0.82116 -1.74938 1.4167 0.06084 -1.40176 -1.21056 -1.90812 1.16704 -0.7768 -0.04086 -1.90052 -0.38296 0.82688 1.39278 1.27056 -0.57154 -1.29518 0.27216 -1.14778 0.83776 -1.38732 -1.68418 1.10436 -0.07304 -1.31966 1.5389 -1.26804 0.36018 -0.92656 -1.05318 1.57218 -0.84896 1.48098 -0.17368 -0.7546 1.40754 0.23484 -1.69096 -0.08256 0.69626 0.85208 -1.47284 0.18502 -0.80176 1.10978 -0.3747 0.60276 0.06702 1.91934 -0.73526 1.07256 -0.04846 -0.65736 -1.80966 1.08544 0.50534 -0.85376 -0.51026 -0.6195 -0.94066 -1.94254 -0.26832 0.0936 -1.72364 0.38694 0.94842 0.13606 -0.99946 0.14736 1.863 1.1936 -1.60424 -1.6453 0.15594 1.98568 -1.9145 0.13078 -0.09388 0.81716 1.05502 -1.06388 0.66494 0.44084 1.80868 -0.12574 -0.37936 1.80838 1.29062 0.74088 0.74006 0.2613 -1.2549 0.92854 -1.1419 0.6388 -0.8796 0.43356 -0.09136 0.81128 -1.83864 1.48922 -0.3978 1.91964 -1.94368 0.07114 0.67678 -0.40318 1.18668 -1.79534 0.99992 -1.62546 1.2401 0.67258 0.32546 -1.8768 -0.6075 1.29082 0.2849 0.40208 -1.23372 1.14004 0.84542 0.25964 1.4073 -0.3983 0.4485 -0.53278 1.4966 1.51714 0.86526 -0.34806 -1.77788 1.09482 0.6558 1.56578 1.3339 0.7453 0.38452 -0.26246 1.19748 -1.97618 -1.37832 1.08594 1.74096 0.3655 1.02118 0.0725 -1.39694 -1.2651 -0.75372 -0.17042 -1.85136 1.50654 0.04498 -0.97868 -1.35622 1.34254 -1.48768 0.45462 1.62262 -0.79046 0.10022 1.66954 -0.6606 -0.65204 -1.8476 -1.85474 -1.98322 0.75966 -1.21072 0.6472 -1.0937 -1.45266 1.2046 -1.25754 0.51834 1.75948 0.51868 -0.95822 0.5805 -1.62402 -1.13584 0.76168 0.27086 -0.96432 -0.49672 -1.28444 -0.95016 -0.36552 0.92198 1.99134 0.23296 1.92988 0.1149 -0.01208 -0.07642 -1.04786 -0.25346 0.393 0.2131 0.8759 0.05572 -0.15662 1.9456 0.59906 -1.07674 1.60128 -1.69806 -0.6975 0.50296 -1.1157 -1.17614 1.47054 1.8741 1.24664 -1.65462 1.33852 -0.60132 -1.6963 1.84466 1.43682 1.09542 0.3823 1.83768 -1.20208 -1.58576 -1.0236 0.43244 -0.78334 0.81888 -0.4338 0.01294 -1.87434 0.82868 1.7046 0.32024 1.02076 0.81608 1.67178 -1.8876 -0.098 -1.58638 1.74732 1.1315 0.03768 1.16746 0.7624 -1.94422 0.86826 -0.35746 0.58506 1.55346 -0.55718 0.54832 0.77626 1.78046 1.67342 0.0057 1.14768 0.1848 1.94686 -0.83116 1.08526 0.48362 -1.06324 0.87136 -1.3018 -1.35814 -1.83052 -1.07362 -0.6754 -1.47756 -0.27312 -1.8087 -0.05734 1.0232 1.3481 1.25078 -0.20002 -0.36956 -0.34818 -1.0794 1.56416 1.57412 -1.7662 0.01274 -1.4299 -0.42268 -1.9476 1.92412 0.64682 -0.98494 1.66838 -0.51304 -1.83446 -1.26686 -0.67166 -0.73632 0.19474 1.1663 0.46926 0.12054 1.88628 -0.05812 -1.68208 0.0626 -0.17344 -0.74848 -1.39434 1.75306 -1.56764 -1.57736 -1.7943 -0.48278 -1.46702 1.02624 -0.39532 1.51114 0.2498 0.924 0.30124 1.12086 -1.41056 -1.75464 0.27956 -1.69046 -1.14596 -1.7601 -1.97426 -0.7905 -0.30516 0.08442 -0.94396 0.63366 1.16116 1.53126 -0.9657 -0.37774 1.2562 0.1712 -1.81384 1.31858 -1.02834 -1.70068 1.49176 0.22418 -1.19066 0.15116 -1.04602 -0.8607 1.12844 -0.18282 1.01386 1.27072 -1.13494 1.3484 -0.4689 1.64092 1.66232 -1.99164 -0.79144 -0.41334 -0.77424 1.39614 0.0582 0.34792 1.36658 -0.42798 0.35604 -0.9983 -0.00808 1.98242 -1.74506 -1.9214 0.73784 0.98266 0.1492 -1.70988 -1.2464 -1.94462 1.5002 0.70288 1.28592 0.88644 0.08106 1.87764 1.07056 -0.2147 -0.2314 1.81276 0.00016 -0.60662 -0.04008 1.24782 -1.03738 0.5995 0.0928 -0.4245 0.2411 -0.85618 0.85758 1.2373 1.7951 1.95228 1.14736 1.14602 -0.43776 0.93524 -1.46714 -0.11762 -0.80082 -0.75902 0.8873 1.60694 -1.49186 0.50568 0.30072 0.33932 -0.68492 0.18056 1.27736 -0.41872 1.8034 0.54326 1.00152 -1.40146 0.02248 -0.9929 1.11598 -1.86166 -1.11016 -1.4263 0.049 1.60978 -0.80222 -1.73712 0.90776 1.33364 1.73906 0.93502 0.3154 -1.8647 -0.74758 1.8862 0.61358 -1.24082 0.50606 0.35298 0.73966 0.45694 -1.70124 1.75346 -1.7396 -1.93946 -0.13356 -0.72372 1.43388 -0.74818 -1.04926 0.5488 -0.87646 -1.44488 1.81926 -1.60548 -1.00746 -1.37452 1.19196 1.27752 0.40914 -1.75474 1.5979 0.96708 0.60024 0.38004 1.86514 1.14206 -1.67116 1.91718 1.92968 0.24232 0.09248 1.6695 0.26744 -1.34098 1.83956 -0.86364 -1.68672 -0.01156 -0.25668 1.9215 -1.17102 -0.34408 0.38288 -0.80974 -0.18852 -0.23974 -1.68396 -1.1421 0.89366 -0.01192 -0.4328 1.22852 1.94382 0.4944 0.85904 -0.66832 -0.8468 -0.11966 -1.80462 0.72438 -1.05256 1.51668 -0.67788 0.7084 -1.54368 -0.54598 0.28768 1.16022 -1.44506 1.85616 -1.6878 -0.79648 -0.4658 0.48764 1.41626 -0.05804 -1.4158 -0.59002 -1.43144 0.10486 0.826 1.47094 -0.97648 -0.0584 -1.3249 0.86394 1.72566 1.77302 -0.20002 0.50788 1.98314 0.43292 -0.20694 1.01892 0.97404 -0.68772 -1.6662 1.67446 -1.26608 -1.64256 1.47258 -0.8442 -1.69706 1.0375 -0.32412 -1.63632 -0.30568 -0.54382 1.07814 -1.08294 -1.25254 1.74322 -0.68822 0.0905 1.89836 -0.52352 0.49316 1.38052 0.03328 -0.40764 -0.27164 0.51464 -0.63976 0.04706 1.873 -0.12072 1.41044 0.51526 1.51358 0.10396 -0.39184 -1.09028 -1.32396 -1.7889 0.63226 -0.3298 1.168 -0.014 -1.73428 -1.6886 -0.83038 0.26946 -1.30512 -1.1171 -0.2396 -1.76008 -0.87888 1.70254 1.12054 -0.50244 0.81912 -1.04674 -0.35884 1.14154 0.62906 -1.04206 1.79554 0.25586 1.16448 1.79658 -1.04678 1.17904 -0.0574 -1.02584 1.3089 1.83774 1.06716 -0.89934 1.45822 0.22814 0.30848 -1.49286 1.1148 -0.27812 -1.57726 1.4589 -0.18026 -1.52268 -1.71336 1.63306 -1.24186 1.7079 1.3947 0.01602 1.28484 -1.34512 1.26854 -0.46552 -0.41798 -0.32568 -0.12534 -1.08788 0.82152 -1.53088 1.35816 -0.00942 -1.67314 1.72072 -0.426 -0.07734 -0.82726 -1.97956 -1.7557 -1.1076 1.18906 0.31196 -0.16156 1.91928 0.7188 1.17016 1.1382 1.31822 -0.03078 1.5314 1.03844 -0.75468 1.78432 1.92658 -0.31068 0.654 -1.43082 -0.46734 1.51864 -0.2161 -1.64652 -0.60364 -0.31438 0.64568 0.3637 0.43216 1.13202 0.09902 0.9033 0.36398 0.46032 -1.26232 1.4636 0.5023 0.82696 -1.02714 0.81644 1.34926 0.81568 0.41186 0.53612 0.55644 0.94288 1.2901 -0.56934 0.11284 0.20624 -1.59972 0.0314 0.92 -0.64654 1.64008 -1.4982 0.46038 -1.4611 -0.20732 -1.37368 1.19276 -0.44442 -1.71338 -1.96186 -0.96084 -1.5851 1.60524 -0.92892 0.30074 -0.2183 -0.718 -0.90038 -1.28356 1.83756 -0.78008 0.71698 -0.89324 1.24778 -0.20296 0.45346 0.39552 -0.785 -1.74916 -1.7741 0.73174 -1.93238 1.9833 -0.9895 0.82024 -1.76412 -0.9968 -0.0366 -0.96574 -1.65348 1.62366 -0.20634 0.52904 0.3737 -0.50306 0.14152 1.33764 0.219 1.12992 -1.66886 -1.07576 1.30066 -0.68506 1.08244 -1.86646 -1.07692 1.39502 1.2126 0.74184 1.3392 0.2308 -0.02226 -0.69526 -1.93928 -0.69362 -1.02846 -1.5684 0.59472 0.25084 0.06486 -1.22152 1.31858 -1.93466 -1.6301 -1.78612 1.42624 -1.81208 0.73304 -0.24918 1.6555 1.11582 -1.82348 0.08508 1.9197 1.30166 1.43106 0.75266 -1.09916 -1.12304 -0.10286 -1.15916 -0.2094 1.22154 -0.30496 0.11572 -0.35408 -1.51108 0.46832 -0.93268 -1.47462 -0.29008 -1.2571 1.96814 -0.93496 1.55264 -0.39436 1.2353 -1.05498 0.86856 -1.29272 -1.26484 -1.33804 -0.53824 1.08634 -1.77662 0.05428 1.89264 -0.61498 -1.24096 -0.1247 0.21888 1.53074 -0.28224 -1.6463 -0.77598 0.98788 -1.90296 0.37028 0.25418 0.56796 0.93732 -0.28042 -0.33428 -0.77456 -0.05444 0.3729 -1.79164 -0.97996 -1.63296 -0.30398 -1.80424 -0.19238 0.03228 -1.83034 -0.83804 -1.82114 -1.67118 -1.8648 -0.52834 -1.93856 -0.24674 1.10388 -0.29072 1.192 0.3065 0.17918 1.02514 1.61444 1.84102 -1.43526 -0.4914 -1.13498 0.69084 -1.6994 -0.23004 1.01556 0.99622 -1.76368 -0.85924 -0.14954 -0.15408 0.8726 -0.98204 1.06302 -0.32046 -1.58876 -0.50154 -0.4519 1.19172 -0.95486 0.65906 1.96182 -1.10138 0.19274 -1.18532 1.83342 -1.9897 0.47372 0.91892 1.76638 1.34776 -1.4061 -0.82098 1.8023 -1.81258 1.33074 1.11678 -0.26832 0.39968 0.14638 -0.81738 -1.90752 0.99444 1.62118 0.2155 0.88064 0.0859 0.64626 -0.48756 -0.10474 -1.31928 -0.52298 -1.57728 0.79586 -0.09432 -0.45324 1.9664 -1.5019 1.4859 -0.06346 1.00526 -1.4775 -0.6826 -0.62564 0.5027 -0.748 -0.30642 -0.78434 0.87558 0.3488 -0.70556 1.76676 1.1484 -0.95468 1.8625 0.56656 -1.03264 -0.72258 1.97722 -0.06596 -0.2525 -0.63598 -1.03872 -0.97636 1.08566 -0.12928 -1.82882 0.38314 -0.1034 0.64064 1.36434 0.61868 0.24578 -1.53686 1.14112 -1.33988 0.77508 -0.37994 -0.88152 -1.0365 -0.81294 -1.12978 1.77066 1.16362 -1.3992 -1.08606 0.3286 1.37738 0.93334 1.3391 -1.42062 0.68896 -1.47914 -0.44816 -1.81098 -0.35878 1.56122 -1.70626 0.2887 -1.36804 -0.91918 1.31042 1.31904 -1.76506 0.98446 0.67576 -0.47902 0.68526 -0.0958 1.20238 1.79148 1.3473 -1.84106 1.01372 -1.25304 -1.12274 -0.40664 -0.20236 -1.57716 0.1717 1.5421 -1.2062 1.44978 0.55748 0.06124 -1.32464 0.0978 -1.30608 -1.7259 -0.50012 -0.9011 0.48132 1.33136 -1.5135 1.88268 -0.12338 -0.44882 1.5357 -1.82084 -0.07496 1.39294 1.64334 -0.52682 1.73096 1.54762 -0.76792 0.53002 -0.49286 -1.19514 1.31176 -1.95216 -0.23642 1.8709 -1.88302 -0.91014 -1.713 1.86062 -1.23846 0.17368 0.3091 -1.42204 -1.17294 0.41116 -1.5957 0.10348 -0.68986 -1.98408 1.67242 1.13102 0.87034 1.32608 0.05764 -0.38154 0.49778 0.77876 1.89876 1.3206 1.71882 1.00986 -1.17084 0.14532 -1.40936 1.88904 -1.03766 -0.54798 1.3353 0.61042 1.21438 1.39662 1.59566 0.01598 -1.21038 -0.638 -0.12994 -0.65294 0.56588 -0.76784 -0.93114 -0.37254 0.23746 -0.78384 0.85758 0.3761 -0.06548 1.98566 -0.00982 -1.8549 -0.6269 -0.6618 -0.80892 -1.0336 -1.85822 -0.24832 -0.65548 -1.83624 1.9873 -1.062 -0.5512 0.95226 0.76816 0.69972 -1.19848 -1.7242 1.53536 -1.14566 0.53646 -1.30436 1.7484 -0.8493 -1.78714 0.66658 0.25172 0.09136 -1.2276 1.61298 1.28774 0.21452 -0.04548 -1.02334 1.46182 1.1902 -0.7627 -0.12384 0.20552 0.62926 -0.12582 1.03792 -1.98254 -0.29372 -0.64024 -0.37214 1.78336 0.1166 0.85928 1.53772 -1.58538 0.58178 0.84074 -0.91984 -0.55082 -0.70546 -1.60332 -1.77762 -0.87468 0.5245 0.71466 0.05042 -1.02072 -0.26846 -1.12398 -0.22722 0.98348 -1.52788 1.49042 1.57796 -0.53758 0.92536 0.07026 -1.0939 0.98016 1.49852 -1.32184 0.04212 1.79094 0.585 0.88322 -1.86488 1.23206 -0.76534 1.19836 -1.29406 1.37378 -1.12566 1.52748 0.16728 0.7935 -0.9851 -1.24918 1.68102 1.91458 1.82376 0.05864 0.28592 -1.16974 1.58696 0.64436 1.31122 0.62616 1.28132 0.0753 -0.51074 -1.48848 -0.06538 0.1 -0.04934 -1.38362 0.35456 -1.56856 0.54032 1.64128 0.57952 0.81834 1.7446 0.53316 -1.82994 0.399 0.10914 -1.05536 -0.67686 -1.21556 -1.55248 0.17452 0.38922 -1.0085 1.15638 -0.56012 0.39222 -0.78816 -1.79602 1.94064 1.572 -0.49104 1.95074 1.15936 -0.2909 -1.80558 -0.56086 0.77432 -0.42318 -0.44912 -1.56106 -1.41654 0.2105 -1.96026 -0.66496 -0.9946 0.31404 1.75274 -1.33982 -0.81204 -1.46478 0.36656 -0.697 0.49686 -0.37224 1.31472 0.12228 -1.05688 0.9436 -1.48924 0.22414 -0.8573 -1.77254 0.59968 -1.93074 -0.92944 0.8676 -1.41476 -1.17594 1.97564 -1.04014 1.3348 1.36782 1.77226 -1.6545 1.86404 1.96402 0.34948 1.65644 0.15098 1.12584 0.63948 -1.44834 1.016 1.4054 -0.79458 -1.79404 -0.54614 -0.46842 0.39436 0.07212 -1.504 1.8307 -0.93396 1.32674 1.29622 -1.644 1.6108 1.97046 -1.73552 0.1378 -0.27122 0.92866 -1.31548 -1.77192 -0.7996 0.99872 -0.46926 0.15134 -0.2363 1.35068 1.77278 -0.71334 -1.20738 -0.61508 1.58464 -1.40896 -0.78856 1.19426 0.86382 -1.1354 -0.58628 1.05364 0.42968 -0.09648 -1.53616 1.50408 0.30178 -1.5545 -0.95072 1.50804 -1.6468 0.37902 1.39196 -1.98684 -0.60296 1.7108 1.86712 0.7879 0.205 0.2067 0.6752 1.30252 1.76786 1.04368 0.29932 1.20934 1.03808 1.6811 1.74208 0.70518 1.14454 -1.58346 -0.89338 1.39988 -1.27592 0.67514 -1.50104 0.781 1.76424 -0.30368 -1.30306 -0.91478 -0.89794 0.25566 0.99746 -0.60624 -0.1053 -1.22054 1.98788 1.87384 -1.27608 0.42352 -1.01076 -1.34288 0.18938 0.1112 1.28576 1.386 1.60418 -0.7455 -1.534 0.62066 -1.29658 0.3441 -1.6365 1.93666 -0.72762 1.99208 1.28908 0.72188 1.21182 -0.9139 1.02366 -1.49132 -0.49024 -0.41002 0.20044 -0.4878 -1.9538 -1.09444 -0.68536 0.25862 1.69322 1.86824 -0.01876 -1.27898 1.42728 -1.55052 -0.78952 0.61286 1.38936 -0.88706 1.17682 0.50974 -0.7697 0.07626 -1.6182 0.75796 -0.10786 1.0608 -1.87864 -0.09738 -0.50964 -0.73402 -1.338 1.6378 1.39986 -1.51944 1.14736 -1.4006 1.91074 -0.22644 1.3398 0.6986 1.93984 0.20738 0.92744 -1.16484 -1.63716 1.64248 -1.49064 -1.17712 0.78158 -1.3238 1.3325 0.09888 -0.09074 -1.4861 1.27836 1.4335 -0.79182 1.44246 1.62004 -1.01462 -1.21582 1.41202 -1.23176 0.42722 1.20622 0.34344 -0.67886 0.9467 -0.69788 -1.38892 0.7021 -0.3842 -0.22686 -1.5218 0.56988 1.02292 1.1488 1.54662 0.39512 0.24966 0.55142 1.29846 1.12102 -1.18586 -0.06654 0.56312 -0.27148 0.88594 -0.79782 1.71386 1.39122 -1.53172 0.1535 0.3544 -0.0856 -1.47218 -0.56088 -1.49978 -0.37106 0.01938 0.32132 -0.43736 1.52076 0.17048 -0.0259 -0.2833 -1.67428 -0.56896 -0.05598 -1.74456 -1.71532 -0.33846 -0.95266 -0.62962 0.43394 -0.51428 -1.70902 1.9541 -1.50626 -1.3569 -1.3851 0.4352 -0.25548 -0.41174 -0.78014 0.23382 1.4623 1.41872 0.5638 0.04206 -0.41622 0.64856 -0.08232 -1.62428 1.92834 -1.01124 1.7777 -1.04946 0.84004 -1.78324 0.23738 -1.70252 -1.05808 -1.05326 1.42916 -0.27034 1.42092 -1.21688 1.92044 -1.57132 -1.76318 -0.51498 -1.99352 -1.01418 -0.59552 1.88612 1.81812 -0.0675 -1.0494 1.74026 0.25438 -1.093 0.86724 1.90194 0.67166 -0.36388 1.74386 -1.3284 -0.55798 -0.55482 -0.29198 1.34044 -0.88596 -1.72304 0.4057 -1.68258 -0.50674 -1.20222 0.15908 1.4902 0.81288 0.67918 1.49826 0.1351 -0.19478 -1.90126 0.64208 -1.06816 0.97124 -1.95778 -0.82936 -0.1548 1.99992 1.09976 -0.03764 -0.66962 -0.56978 -0.96004 0.27506 -0.20696 -0.01422 0.7493 1.34108 0.47526 0.72066 -1.10362 -1.62904 1.7295 0.5801 -0.91294 0.39284 1.02034 1.7734 -0.5396 -1.07264 1.5752 -0.59128 -1.26786 0.09672 0.5729 0.99404 0.812 -0.29964 -0.6002 -1.72546 1.8628 1.34052 0.01428 0.3146 -0.92468 0.88718 -1.5467 0.5227 -1.63396 -0.4956 -1.93644 1.33808 -0.97702 1.41442 -1.09116 1.72778 0.91256 0.35172 -0.11582 -0.35062 0.15028 0.0718 0.5395 0.1724 0.38714 1.92164 -1.30192 0.94324 1.70216 0.79898 1.17376 -0.95106 -0.05874 0.20072 0.85784 -0.44414 0.35668 -0.5851 -0.49522 0.19986 -0.06048 -1.50236 1.40734 1.956 -1.13622 -1.7629 -1.61426 -0.6823 -0.81212 0.84512 -1.91854 -1.53972 1.81618 1.75042 0.12424 -0.209 -1.199 1.84188 1.92744 -0.84632 0.1891 -0.48994 0.82054 -0.43296 0.33062 1.01462 -0.60318 0.82224 -1.44342 1.35296 -0.62892 -0.50234 -1.15306 1.68432 1.70984 -0.34738 0.66444 0.58348 -0.6914 0.15004 1.5359 1.38036 -0.24466 -1.14298 0.71752 0.71348 -0.76724 0.19084 -1.92352 -0.93318 -1.24516 0.5148 -0.51256 -1.6489 -1.98926 -1.57054 -0.3229 -0.15972 -0.37462 -0.15084 0.84028 -0.43652 -1.23888 -0.1651 -0.52598 0.5838 1.61334 -1.86814 -1.95942 -1.5284 1.12656 0.21752 0.53328 -0.2226 -0.38224 0.80872 1.7547 -0.0365 0.84952 1.61712 -0.21814 1.20596 0.74576 1.48974 0.59812 0.85628 -1.9898 -1.50418 1.67356 1.28036 1.97552 -1.17586 -1.0419 1.45944 1.30974 -0.02758 0.61924 1.92044 1.383 -1.86628 1.10014 -0.89912 0.15024 1.60486 -0.05974 0.53732 1.98152 1.71004 0.73332 -0.798 -1.32524 1.71358 0.99076 0.00824 -1.93272 1.6343 0.8177 -0.72864 1.23678 0.61772 0.57358 1.1175 -1.54172 -1.2398 -1.50392 0.3024 -0.7406 1.07382 0.46764 1.64534 -1.81052 1.83424 0.5805 0.7158 -1.48302 -1.31904 -0.94428 1.1409 -0.45054 -1.93922 0.87476 -1.69984 -0.2375 0.47156 0.6056 -1.73808 -0.16662 0.94984 1.39214 1.67542 1.1547 -0.65214 -1.31634 -1.23474 -0.43988 1.98264 -1.3574 -0.60996 1.10878 1.63784 -0.7221 -1.09232 -0.75762 1.08796 -0.98748 -1.1595 -0.86692 -1.72504 -0.50874 1.3863 0.57858 1.67678 1.7219 1.17598 1.74296 0.27342 -0.64502 -0.01328 0.1546 -1.76586 -1.53098 0.30954 1.68168 0.79222 -1.50938 0.8416 1.15058 -0.18478 -0.84434 -1.46568 -1.96164 1.66566 -1.96788 -0.0884 0.78286 -0.03292 1.05776 0.67452 -0.54098 -0.23492 1.12884 -0.4416 -0.54142 -1.99418 -0.90318 1.47792 -0.37404 -0.49234 -0.97772 1.2867 0.62764 0.65586 1.23542 0.87464 1.16882 0.96836 -0.77402 0.45016 0.59732 0.1709 -0.3101 1.31784 1.1193 -1.04308 1.34794 0.9129 1.64466 -0.18972 -1.6069 -0.22414 1.21564 0.68044 -1.47232 -1.6105 -0.8947 0.91062 -1.14904 1.67586 -0.30462 -0.9873 -0.78438 -0.3571 -1.20708 -0.13106 -0.09332 -0.61752 -1.56976 -0.84252 0.74278 1.8145 -1.25892 -1.3924 -1.9228 1.28812 -1.92484 1.81098 0.4391 -1.49836 -1.34214 0.1839 1.83324 1.81568 -0.88544 1.24642 -1.92896 1.9472 0.12818 0.8459 -0.23068 -1.7418 0.1174 -0.44988 -1.24524 -0.4154 -1.04474 -1.953 0.5249 -0.74966 1.05024 -0.03454 0.48266 0.48718 1.06748 -1.42142 -0.96524 0.60804 0.60324 -0.76044 -1.68566 -0.7057 -1.5285 -1.6507 1.01798 1.51146 -0.82054 -0.60006 -1.47166 -0.4535 -0.2021 -0.04054 1.2543 -0.41568 1.38814 0.48458 -0.3029 1.19096 1.85282 0.49258 0.33284 -1.97184 -0.71394 -0.81126 -0.5486 0.6924 1.70122 -0.65396 -1.2518 -1.46404 0.21164 -0.53702 -0.65606 -1.1114 0.53156 -1.525 1.78668 -0.23192 0.53214 -0.7567 -1.59486 1.55532 1.51866 -1.0216 1.45244 -0.90924 0.71114 -1.10166 1.09904 -1.41712 0.88146 -0.1562 0.75522 -1.88934 0.90672 -1.71384 -1.99176 1.28274 0.8979 -1.67444 1.81022 1.8334 -1.34826 1.99236 1.33486 -1.6651 -1.38448 0.36568 1.05274 0.91312 0.6979 1.92902 -1.3412 0.6095 0.08742 0.7775 -1.4905 -1.69234 -0.2637 -1.63938 1.98126 0.80288 0.247 -1.8347 -0.34552 -1.63218 0.70776 -0.76672 -0.01812 0.24538 -1.53324 -1.49608 0.87018 0.20658 -0.56694 -1.42828 0.90358 1.5263 -0.35648 1.11752 -1.52476 -1.65454 -0.1544 -1.81408 -0.11502 0.95244 -0.81502 -1.8543 0.02322 -1.8708 1.77666 1.70056 -0.45356 0.53726 -1.6557 -0.99266 -0.4136 -1.51358 0.33786 0.96702 -0.37286 1.38224 -1.61622 -1.19266 0.44634 0.19396 -0.94118 0.45222 -0.82356 -0.48432 1.87392 -1.0168 0.66412 0.61876 1.88538 1.63578 -1.04274 0.06108 0.28032 0.70204 1.18284 0.56204 1.21004 -0.14734 0.4687 -1.23382 0.95748 -1.6671 -0.13772 -1.57428 0.98532 0.41714 -0.81158 0.67648 -0.50962 -0.90702 1.96166 -0.96176 -0.26044 1.691 -0.1064 0.73274 0.96926 -1.49248 -1.74472 0.79346 -0.96356 0.92766 0.65188 -1.2915 -1.94994 1.52532 0.2061 1.63582 1.78418 1.06508 -1.82782 0.53112 0.33864 -0.31986 1.23648 -1.27408 -1.41006 -1.2493 0.53034 -0.54324 1.79476 1.98762 -0.87162 0.79238 1.6741 1.91902 -1.6785 0.5893 -1.19158 -1.54992 1.59278 0.7025 -0.40262 1.67524 1.72974 -1.9702 -0.31898 -0.84624 -1.62434 1.46 -1.78898 -0.4474 0.8923 0.4253 -1.0792 -0.56946 0.6996 -1.9406 -1.5455 -0.83232 0.1428 0.21854 -0.02284 0.7985 0.9987 -0.9512 -0.20072 1.85948 -0.96562 -1.86898 1.2038 1.61678 0.82738 1.3341 1.47228 -0.53034 -1.06626 0.66338 -0.0496 1.20668 1.0449 1.43616 -1.62496 1.07034 -0.75428 0.24214 -0.90468 0.70306 -0.12842 0.24356 -0.78058 -1.73792 0.13478 1.64072 0.30726 -0.62578 -1.27468 0.79886 -1.32348 0.68094 0.2305 -0.17848 -1.88064 -1.75538 -1.74382 -1.40576 0.7252 1.5582 0.953 1.45112 -1.50322 -1.9638 0.109 -0.75218 0.12278 0.70662 -0.1565 0.90682 -0.44724 -1.24344 1.95346 1.09622 -0.0121 0.7908 0.9116 0.94172 -0.51802 1.18666 -0.97318 0.09804 -1.25568 0.13488 -0.01314 1.26946 -1.02382 -0.77662 1.31678 -1.86958 0.81414 -1.34852 1.51692 -0.46288 1.75004 0.42044 -0.25322 -0.8168 0.15306 -1.11304 -0.48206 1.60062 1.53072 -0.1815 -0.75392 1.91996 0.72746 1.13428 1.8336 -0.67144 -0.667 -0.68554 1.11224 1.53854 0.53136 -1.14506 0.70678 0.3619 0.04934 0.83954 -1.72836 -1.10062 1.38982 -0.28694 -1.90732 -1.09874 -0.76038 0.41634 1.34616 1.56746 -0.95598 -0.2716 -1.21136 -1.40498 -0.3313 -0.57382 0.56732 0.92582 -1.11122 0.06688 -1.45802 -0.15812 -0.61024 -0.01178 0.7974 -0.50034 -0.46076 1.97836 1.00576 0.89508 1.71364 1.38486 1.13386 1.31352 -1.38468 -1.38146 -1.7892 -0.18236 -0.2742 -1.6552 0.68034 -1.6889 1.7881 -1.73388 -1.71548 1.6046 -1.4742 0.5172 -0.13016 -0.89484 0.28762 1.78096 -0.52688 1.98246 0.29754 0.42974 1.50962 -0.59842 0.91564 0.593 1.36202 -0.73874 1.41058 -1.54894 1.85382 -0.34084 0.59452 -0.5249 1.97968 -0.94986 -0.78462 -1.25034 -0.79998 -1.45604 1.38654 -1.76912 0.05378 -0.87638 -0.2963 1.1928 -1.02614 1.02202 0.10852 -0.09942 -1.39256 1.93266 -0.08826 1.1514 -0.98402 0.18558 -0.89108 0.8092 0.902 1.1328 -1.01722 -0.58094 -1.09948 1.33704 -1.5877 0.62536 -0.98994 1.0507 0.53752 -1.18032 1.88976 -0.46204 0.58094 -1.07086 -1.4041 0.06666 -1.62404 0.38598 1.69788 1.72284 -0.38086 -1.66002 1.15272 -0.49002 1.8436 1.92114 1.74742 1.44312 -1.5409 -0.2059 1.94122 0.40618 -0.15234 0.0672 1.56118 -0.03254 1.33034 0.71672 -1.28868 1.07834 0.18272 -0.07686 -1.5155 -0.71118 0.0108 1.06946 -0.64828 -1.01742 0.55548 0.94932 -0.19038 0.72292 1.1113 1.17914 -0.48636 -1.35722 0.26632 1.39054 1.49342 -1.50884 0.87792 -0.43308 0.59158 -1.2566 -1.12154 -0.51642 1.6903 -1.48628 -0.63204 0.62844 0.7363 -0.34078 -0.32534 -1.38048 -0.4599 1.69598 1.85546 -0.1361 1.49918 -1.22588 0.5694 0.76482 -1.11236 -0.49024 1.98446 -0.78172 1.29486 0.6685 -1.44644 0.91838 1.70112 1.9398 1.2233 -1.77986 -1.7996 -1.3842 1.33156 1.74108 -1.58964 -1.47278 1.37916 -1.162 1.61462 1.92704 -1.78698 -1.84962 -0.95176 0.49176 -0.36096 -0.18234 -1.21268 -1.59758 1.89134 0.71928 -0.07826 -1.8869 -1.32072 -0.9182 -1.24106 1.66016 0.1887 -0.9782 1.96016 0.44956 0.9273 0.7965 0.43592 -0.5455 -1.58088 -1.0757 -1.63558 -1.88564 -0.54646 0.97194 -0.60504 -0.2686 1.15018 -1.0394 -0.70326 1.83406 -1.82996 -1.1969 -0.97054 0.73588 0.13106 1.2987 -1.95156 -1.496 0.2984 -1.9127 1.93652 0.24974 0.98214 -1.24982 0.3385 0.35734 -1.12216 -0.83496 -1.00028 -0.5835 -0.28554 1.59374 0.07264 -1.28528 -0.54678 -1.32706 0.94886 -1.0806 -0.67568 -1.80968 -1.0371 1.71866 1.78506 -1.07514 1.49012 -0.6144 1.99232 -0.77574 -1.6815 1.6286 0.74806 -0.0681 1.1561 -1.66818 -1.01222 0.11466 -0.86778 -1.29666 -1.36656 1.0376 -1.14644 -0.01488 1.96088 1.88024 0.1196 -1.4237 0.73044 -1.68528 -0.71734 -0.54188 -1.65018 1.12904 1.17968 0.10806 1.12438 -1.78216 0.46468 0.05728 -0.73994 -1.04712 0.365 1.65356 -1.15346 -0.6289 0.66844 1.78256 -1.56238 -0.25918 1.72694 1.33854 1.5407 0.2455 -1.71404 0.2867 1.33676 0.97776 1.75778 1.90482 0.80526 0.91382 0.65514 1.6776 1.9416 0.86038 1.27878 1.61902 0.75222 -0.95198 -0.79258 -1.23008 1.64998 1.07494 1.44328 1.68054 -1.3274 -0.80002 -0.86142 0.58976 -0.78822 0.33702 -1.86134 -1.01038 -1.41222 -0.0559 -0.0826 0.1043 0.84306 -1.10702 0.7713 -1.8534 -1.53994 0.55986 1.252 0.34624 0.29774 0.6874 1.71196 -0.01384 0.09232 1.04942 -0.96968 1.3896 -1.46662 0.95702 1.68856 -1.53424 0.80222 -1.3946 -0.3859 0.13678 -0.16082 -0.832 0.69302 -1.53178 0.77516 -0.33448 1.08982 -0.0025 -1.05702 -0.82554 -1.22406 -0.14076 0.27672 -0.93918 -1.69014 -0.90988 1.82292 -0.90296 -0.6172 -0.01482 -0.512 1.15242 -1.50258 0.16236 -0.6933 -1.25096 -1.54376 -0.36926 0.25552 -0.54838 1.30208 0.23766 1.27886 -1.3655 0.30742 1.29204 1.86682 0.78378 1.57108 -1.3678 1.59758 -0.28554 -0.95682 -1.08214 0.27346 1.17108 -0.88712 1.47256 0.64716 0.59842 -1.35716 -0.29484 1.2226 1.6289 -1.35124 0.68676 -1.32942 -1.46934 1.1615 0.0261 -0.79074 -0.54094 1.74196 1.49134 -0.12764 0.53828 0.58036 -0.3578 0.75338 -0.9822 -0.7767 -0.96088 -0.47404 -1.24942 0.38758 1.77354 0.10922 1.57956 1.88888 0.13562 1.63616 -1.01632 0.98358 1.6571 -1.19122 -0.40308 1.01504 1.64996 1.98574 1.62066 0.62146 1.33616 1.62226 -0.45504 1.42292 0.13852 -0.0275 -0.44818 1.04548 1.73518 -1.4093 1.47066 -1.28084 -0.37066 -0.62488 1.6037 -1.8208 0.47202 -0.7587 -1.12478 -1.42248 -0.90898 -1.35824 -0.97412 0.38994 -1.77442 0.47546 -1.91516 0.68254 -1.72456 1.52322 0.9304 -0.34354 1.1327 0.39634 -0.11288 -0.58314 1.98098 -0.67236 -1.75094 -0.19898 -1.4426 -1.46594 -1.84632 -0.4551 -1.83452 -1.7355 -0.64576 0.28198 -0.79492 -0.5823 -1.45698 0.40864 1.1105 1.04314 -0.46956 0.69438 0.59636 1.15502 1.19732 1.66306 -0.11236 0.86928 0.77004 -1.78804 -0.33972 -0.1858 -0.41356 1.233 1.48798 0.18682 -1.8018 -0.85564 -1.00776 1.07418 -1.97988 -1.44306 -1.51192 1.48096 0.22444 1.96108 -0.87878 -0.19714 -0.52254 0.85772 0.9802 -1.47824 0.54594 -1.91044 -1.13412 1.19274 0.82048 -1.17404 0.1303 -1.414 1.91336 -0.3119 -0.23598 1.94172 1.88462 0.35128 0.67804 0.12122 0.79398 1.01824 -0.7805 1.39864 -0.5836 -1.96368 1.02302 -1.02652 0.2063 1.1154 -1.06944 1.23624 0.54182 -1.91522 -0.6082 1.9123 -0.76826 -0.86148 1.26824 -0.50312 0.3671 -1.70476 1.36634 1.37222 1.01404 -1.59378 1.1608 0.332 0.79292 -1.45366 1.59634 1.87316 -0.71698 0.99998 1.00886 0.4592 -0.36178 1.58154 1.10536 0.50962 -0.93348 1.8924 -1.01358 1.70508 1.89538 0.89406 0.04416 1.82858 -1.7037 -0.1483 0.70998 0.74608 1.08302 -0.81884 1.75412 0.49874 1.6519 -0.15274 -1.6154 -0.98984 -1.1245 -1.30898 0.18054 -0.34006 1.51904 -0.9426 -0.04678 1.54184 -0.9241 0.93258 0.27408 -0.34982 0.03316 -1.24138 -1.56966 0.4747 1.3088 1.66124 1.47684 -1.88002 0.36206 1.33222 0.03568 -1.05878 -0.16364 -1.14974 -1.20988 -1.89814 1.24584 -1.4899 0.8073 1.79094 1.19694 0.09518 -0.3659 -1.6245 -0.28816 1.32646 -1.81398 0.83796 -1.05918 0.5023 0.75266 -0.6363 1.5776 -0.94022 -1.2871 0.32438 -1.2492 -0.7206 1.18994 1.99066 0.37042 -1.73538 0.64808 -0.45672 0.65532 -0.76068 1.82358 0.66878 -1.73272 -0.14864 -1.704 -1.43422 -1.87472 0.48314 0.45324 1.93796 1.12452 -1.94516 -1.23714 1.98232 1.4752 -1.36114 1.17914 1.85974 -1.42046 -1.32804 -0.6364 -1.22344 -1.86266 0.46572 1.35104 -0.03358 -0.67984 0.81664 -0.5795 0.93232 1.4471 -1.9092 -0.27984 -1.5275 1.50288 -0.48276 0.57068 1.08946 0.2063 0.18686 -0.76158 -0.90554 0.60654 -1.22508 1.19986 -1.30404 -1.48346 1.2076 -1.48456 -0.26844 -0.91454 0.78832 -1.03628 -0.01666 1.87572 1.04702 0.53142 -0.19846 0.5003 0.32956 1.24562 -0.69136 -0.93738 1.52092 -1.50914 1.0337 0.33466 -1.70966 -1.52056 -0.04204 0.06816 -1.91032 -0.34656 0.39268 1.43354 -1.73088 0.17 1.3624 1.26586 0.65508 -0.55012 0.11254 0.30118 1.68894 -0.15316 -1.34124 1.12708 1.73682 -1.40324 -1.54416 0.9858 -1.23088 -1.41084 1.87674 0.94124 1.92976 -1.96818 1.08562 -1.71594 -1.83386 0.36128 -1.77382 0.72816 0.55748 1.66338 -1.00422 -0.86512 0.57104 0.5498 1.6066 -1.123 1.169 0.53568 1.8452 -1.12034 -0.86694 1.00744 -0.62632 -0.32594 1.8321 1.90662 0.59784 1.69358 -1.97642 0.97214 -0.70096 1.50052 -0.22332 1.45144 1.50376 -1.76272 1.08438 1.07834 1.0997 -1.7062 -0.77632 1.38438 1.7437 -1.97444 -1.14894 1.52386 -1.44398 -0.81298 -1.00984 1.57884 1.8168 0.23344 -1.25606 0.99706 -0.19184 -1.07768 0.65814 -0.58846 -1.54806 -1.7405 1.76344 -1.4674 0.70456 1.58534 0.36434 -0.50474 1.35818 1.1196 1.04602 1.3693 -0.20738 -1.90934 1.43596 1.55138 1.65598 -0.25134 1.26374 -0.65188 -1.177 -1.69178 1.3506 -0.58918 0.7034 -1.55526 1.15534 1.06558 0.75656 0.77962 -0.35674 0.58144 -0.42086 -0.32718 0.62638 0.84018 -1.46964 -1.30894 -1.32018 -1.84166 -0.3388 1.35578 -1.83434 -0.56358 0.14098 -0.37914 -0.2138 1.72612 0.79746 -0.80744 1.34108 -1.9405 -0.34144 -0.69 -1.41146 -1.85628 -1.0911 0.3526 -0.1708 0.2598 -1.57 1.29874 0.73868 -1.42144 -0.52368 -1.53544 -0.20986 -1.8802 -0.53574 -1.40424 1.02102 0.9649 -0.93116 1.10538 1.6869 -0.5328 -1.85746 -0.08584 1.26982 -0.91746 0.65852 1.4292 -1.7319 -0.436 1.43852 -0.41624 -1.07712 -1.73088 -0.91572 0.48266 -0.06872 0.17774 0.86186 0.42 1.72834 0.36246 -1.3829 1.5871 1.96008 -0.32358 1.8307 -0.3336 0.26186 0.2017 0.17152 -1.62384 0.99064 0.55316 -0.3769 1.12132 -1.99884 0.99474 1.08278 -1.25336 1.60126 -0.9992 1.03062 -0.82532 -0.85998 1.89256 1.54166 -0.47898 1.0355 0.98158 0.66448 -1.15672 -1.89698 0.64882 1.37702 -0.67556 -1.1499 -1.44456 -0.04592 -0.40662 -0.74818 -1.00788 -0.83268 0.0664 1.39246 1.06236 0.5931 0.3697 0.646 -0.03706 0.4815 0.93652 1.09494 0.11522 0.81872 0.72754 1.33182 1.4424 0.44706 -1.9325 0.13474 0.30966 0.63088 1.28026 1.5372 -0.67176 -1.72686 -1.65818 1.17612 -1.70134 0.27122 1.4457 -0.95936 -0.51062 1.49482 0.60914 1.83346 -1.0358 -0.2178 0.07766 -0.70054 -0.82804 0.875 -0.92744 -1.49992 1.72794 -0.25168 -0.0122 1.83008 -1.35054 -0.0074 -0.59232 0.10838 -0.11344 1.45862 0.94216 0.36122 -0.11296 0.5292 0.06422 0.7892 0.25128 1.19356 0.34734 1.69172 1.0358 -0.10414 -0.39446 0.6204 -1.79042 0.89408 0.3676 -0.33982 -1.63062 0.76804 -1.03722 1.43466 -0.44168 0.78018 1.80924 1.5799 0.28532 -1.48828 0.52664 0.30604 -1.13648 -0.6627 1.15408 0.03076 -1.44734 -1.75208 -0.05358 0.435 1.71796 1.28844 1.04818 -0.02162 -1.47236 -0.61916 -0.53572 -0.16794 -1.85722 1.3674 1.6205 -0.24462 1.62498 1.7475 -0.26102 1.1185 0.49584 1.50748 -1.19712 1.10684 0.71994 0.48432 -1.49614 -0.26046 -1.3331 -1.9587 0.8282 -0.30152 0.74178 1.57478 0.06774 1.96166 -1.05234 1.9326 -0.0578 -0.91906 1.71986 0.98438 0.907 -1.82252 -0.6841 -0.02284 1.43712 0.91792 -1.10878 -1.22874 0.68104 -0.88398 1.5983 -1.96442 1.5349 -0.95484 1.44502 0.83956 1.71504 -0.76636 0.78456 -0.69138 -0.68854 -1.51366 0.55262 1.76578 1.09028 -1.43202 -0.70034 1.65882 -1.19228 1.69238 -0.19472 -1.34196 1.39862 1.51144 -1.39952 -1.3746 -0.20906 -1.25722 1.0472 -0.41406 -1.1517 1.89564 -0.63976 -0.28784 0.10016 0.7062 -1.96012 -0.97744 -1.48338 0.1081 -1.78244 -1.29144 0.29636 0.41124 -0.32708 0.42066 -0.37516 -0.4499 0.88688 0.86912 -0.38174 -0.76762 1.96352 0.98866 1.31074 0.94026 -1.36306 -1.97654 -1.55534 0.8196 -0.9514 0.97224 0.18644 -0.80138 -1.53968 -0.58418 1.12608 -1.15954 -0.33438 -1.61592 -1.4719 -1.72292 1.14218 0.69962 1.4748 -0.9033 0.36168 -1.01262 -0.16148 0.17982 1.00056 -1.75918 -0.1441 -1.82194 1.96768 1.6159 1.9321 0.37158 0.40142 1.1599 0.06924 -1.9836 -1.4221 -0.30298 -0.94052 -0.7547 0.52212 -0.90228 -0.0491 -1.7429 1.29456 -1.21562 1.88448 0.50278 0.34102 -0.65884 0.09018 -0.7361 1.51386 0.21402 -1.42144 1.64954 0.18492 0.26484 1.81904 -1.19224 -0.88366 0.00836 -0.76906 -1.1556 -0.5163 -1.2455 0.43902 0.5057 0.31482 -1.48832 1.69916 -0.55484 -0.35986 0.2295 0.57456 -0.73606 1.03646 -0.41858 0.88524 0.21618 -1.64366 1.3531 -0.16298 0.6265 -0.4743 0.6682 0.8577 -1.81262 0.58134 0.41968 -0.16854 0.31306 -0.12204 -1.7483 -1.87106 -1.48624 1.86678 -0.8935 0.77338 0.54006 0.34534 -0.62124 -1.81204 -0.17066 -0.35802 -1.35498 1.62376 -0.71566 1.63946 1.3146 -1.38692 -1.3965 1.37958 -0.39714 -1.54858 -0.23676 -1.82868 0.60442 1.31868 0.81548 -0.10322 0.25164 1.92436 1.89514 0.6802 -0.6139 1.56718 -0.61158 0.10054 0.0608 -0.60286 -0.07004 0.80802 -1.65484 1.87082 0.97756 1.16514 -1.99232 -1.0155 -1.11932 1.04444 -0.42664 -1.45208 1.26672 -0.1934 -0.77204 0.93346 -1.7249 1.80028 0.36568 -1.65758 -0.73766 -0.2122 1.95788 -1.35672 -1.9063 -0.5456 -1.7072 1.14912 -1.74412 -0.92218 0.23532 1.1838 -0.42136 -0.08254 0.6831 -0.20452 1.03442 -0.26798 -0.52616 0.5981 -1.83636 -0.38008 0.438 1.77104 -1.67658 -0.2963 -1.34236 0.08852 -0.54776 0.45262 1.29208 -0.41186 1.73484 -0.28162 -1.8652 -1.85784 0.85012 1.70188 1.77712 -0.47684 0.87232 -1.14146 -1.2714 1.80286 -1.1909 0.38954 0.96926 -0.65076 1.1235 1.43246 1.89904 0.54308 0.32642 1.76758 -1.82124 1.6424 1.3498 -1.81318 -1.68014 0.38998 -1.20326 0.20428 -0.30312 -0.19676 -0.21426 -1.35282 1.44894 1.86026 -0.21736 0.54092 0.94534 1.33252 -0.0451 1.95068 1.72576 1.30508 -1.1087 0.63512 0.96194 -0.06614 0.73442 1.30838 0.965 0.01976 0.55358 -1.251 1.2617 1.96726 -0.4604 -1.50762 -1.20764 0.66328 1.382 -0.61288 -1.2736 -1.33198 1.16166 0.92536 0.0171 -1.8381 0.9406 1.109 1.56658 -1.41744 -1.51288 -1.4335 -1.41184 0.37574 -1.9582 -1.12632 0.7511 -1.28534 -0.77512 0.38598 1.65556 -0.51164 1.23926 1.67712 1.24966 -0.96326 -0.61452 1.48168 0.32064 -0.70974 -0.25144 -1.71796 1.9505 -1.43222 1.22426 1.05774 -1.85658 -0.03406 -1.38198 0.80002 0.99326 1.6254 1.74178 0.38244 -0.46738 -0.01294 -1.83918 -1.11406 1.92544 -1.33408 -0.25874 -1.92232 -0.5616 -1.00398 -0.26846 1.23804 -0.57126 1.48452 1.6757 -1.01964 0.77642 1.4589 -1.21164 0.27632 0.83398 -1.79492 -1.384 -1.97962 1.15148 -1.01594 -1.26976 -1.21486 -1.90336 0.42486 1.39272 -1.96986 -0.25344 -1.14318 0.14448 -0.73742 -1.1241 -1.50048 1.55624 -0.34528 1.54898 -0.32914 0.84364 0.95448 0.83622 1.9862 -0.37102 -1.34112 0.29024 1.63764 -1.9764 1.53434 0.83704 -0.53454 1.54844 -0.67246 -0.62894 -1.85956 -0.26554 0.94138 1.93566 -1.04388 1.98104 1.01354 -0.39672 -0.2986 -0.50852 -1.42808 -0.65996 0.4131 -1.89556 0.27688 1.90266 1.13362 0.72732 -0.8369 -0.63856 -0.3385 -0.81584 1.16526 1.35506 -1.92866 0.4949 -1.54102 0.40126 1.85836 -0.8069 -1.71892 -0.69164 -1.18308 1.89152 -1.26454 0.76506 -1.38516 -0.28094 0.59286 -0.31018 1.83008 -0.6488 -0.8652 0.49472 -0.94294 1.31884 1.87712 1.5332 -0.2533 1.63168 1.7034 0.73814 0.38532 1.9661 1.70954 0.95628 0.56918 1.5863 1.8643 0.4612 1.52206 -1.38772 -0.2551 -1.49172 -0.78962 1.26354 -1.4769 0.52158 1.36898 1.51182 1.2878 -0.58544 -1.86556 1.47328 -0.46866 -1.6897 -1.95066 -1.32946 0.298 -1.2475 0.61778 -1.07422 -1.34546 -1.77332 -0.51032 -0.45706 0.92304 -1.14918 -1.81804 -0.22082 -1.80412 -0.97146 -0.14526 -1.86834 0.16774 1.2178 1.60628 -1.37348 -0.71566 -0.2065 0.79572 -0.64446 -1.83578 0.23488 -1.65614 0.28882 0.6037 0.91204 0.43476 1.39924 0.90692 -0.10138 -0.71172 1.11178 1.8434 0.59628 1.95772 -0.4818 1.01858 1.66742 -1.6595 1.67228 0.3396 -0.41022 1.31592 0.25924 1.5598 -1.99724 -0.69448 0.31352 -1.296 1.4228 1.3862 -1.49552 -0.04324 -0.73776 -1.23844 0.41966 1.88282 1.20086 0.93924 -1.98902 0.41604 -1.2173 0.87224 0.29724 1.74024 0.74294 -1.71176 1.57146 1.26008 0.08806 -0.39208 -0.3831 -0.547 1.12342 1.01592 0.57442 0.91894 0.0846 0.72902 0.60092 -0.3935 -1.87876 0.69522 1.48412 0.51242 -1.2162 -0.84498 0.58116 -0.16528 -0.46194 -0.36462 1.81772 -1.27182 -1.6705 -0.74376 -0.4431 0.71754 -0.98132 0.519 -1.18316 1.71452 -0.26594 1.05344 0.61594 -0.18512 -0.23072 1.05146 0.83332 0.2463 0.18712 1.50072 -0.2018 -1.52816 -1.66168 0.40448 0.2948 0.08746 1.38812 1.7848 0.95644 -0.41208 -0.29294 -0.26326 -0.27798 -1.54734 -0.20982 -1.11128 -0.87652 -0.13282 -0.54098 1.85688 -0.09976 1.5656 -0.08784 0.8864 1.87244 -0.93222 -1.92072 -0.33078 -1.25686 -0.26768 0.32168 -1.66514 1.64758 0.03732 1.83718 1.34588 -1.61014 -0.07498 0.96142 1.46942 1.3294 -0.76612 1.56256 1.2289 0.00744 1.99732 -0.66858 0.16326 -1.9753 -1.11946 -0.07204 -1.03386 -1.21272 0.33024 -0.39954 0.2326 0.55966 -0.5481 0.53202 -0.773 0.00818 -0.2811 1.04164 -0.7759 1.26624 -0.6278 0.08914 1.68468 -1.38452 0.4443 -1.50114 1.19846 0.90576 -0.0104 -1.47254 -1.33364 -1.99696 0.68324 -1.12106 1.8751 1.73636 -0.084 -0.35548 1.86258 1.80434 -0.64446 1.54758 -0.68266 -1.56314 -0.39542 -1.2138 0.93794 1.39298 -0.2656 -0.53876 -0.3895 0.19222 0.33844 1.96266 -1.36476 -0.09182 -0.35328 -0.45222 -0.4196 -1.61832 0.7295 0.06036 0.79768 -0.19724 -1.0659 0.22954 1.87642 -1.42704 0.6569 -0.50938 -1.90784 -1.92564 1.17906 -0.58026 -0.0893 -0.1754 -1.22822 1.2478 1.01088 -0.34192 -0.4391 1.80546 -0.82866 -1.47164 0.91694 0.47412 -0.33542 0.72058 -1.7563 -0.03308 0.08962 -1.63178 -1.93588 1.4809 -0.92516 1.29516 -1.2501 1.51456 1.50276 1.37502 -1.09022 0.36498 -1.26392 -1.75624 -0.63094 -0.46388 1.01316 -1.0813 0.05194 0.81062 -0.86362 0.39892 0.53688 1.9223 0.82076 0.92402 -1.11098 0.26932 0.8858 0.45996 -1.43504 -0.84416 -1.67076 -1.31004 1.401 1.72392 -1.98976 1.69814 -1.6551 0.61554 -0.9253 -0.7428 1.74504 1.63586 -1.25172 1.19592 1.06938 -1.07244 1.15928 -0.61918 1.46096 -1.25412 -1.33138 -0.56692 -1.16946 1.6907 -0.16866 -1.8582 -1.33988 0.1508 0.40612 0.48058 -1.37124 -0.9572 0.81006 1.75394 0.03572 -1.9539 -1.15724 -0.35488 -0.47412 1.315 -1.4262 1.4364 -0.2641 1.87916 0.65386 0.90102 1.17402 1.62484 1.85464 1.96146 1.11002 -0.49502 0.99898 1.81908 -1.5128 0.89616 1.85942 1.71028 -0.10742 1.86844 1.03802 0.19408 -1.7906 0.59412 -1.37156 0.70224 -1.1742 -1.00566 -0.83982 1.02326 -1.91522 -0.48586 1.85494 -1.85406 -1.82794 -0.76778 1.69716 -1.04864 -0.96318 0.9303 -1.03222 -0.96472 0.29614 0.44466 1.37054 1.12376 0.0438 0.99096 1.26672 1.13956 -1.81332 -0.86752 1.75254 -0.34258 -1.72302 0.3797 1.227 1.14178 1.25072 1.95162 0.0752 0.17966 0.46464 -1.16864 1.87666 -0.40412 -0.34996 0.85302 1.647 1.25498 1.19898 0.90804 0.67346 0.96226 0.90066 0.00274 1.89792 -0.23528 1.22358 -0.49534 -1.34158 -0.16518 -0.2724 0.02062 0.83658 0.9523 -0.2384 0.1975 1.86896 -0.20766 0.0052 -1.44462 -0.29936 -0.9148 -1.1449 0.7881 0.57064 -0.53522 0.568 -0.22534 -0.52628 1.19076 1.34394 -1.98826 1.94056 -0.72138 0.45902 -1.20974 0.75676 0.27424 0.48178 -0.53774 1.91818 -0.25394 1.29318 -1.75962 -1.54794 -1.556 -0.00524 -1.07564 1.83428 1.45254 0.98404 -0.14536 -0.75024 0.6436 -0.7926 -0.41176 0.10716 -1.88744 1.43208 0.43314 1.19672 -0.5511 -1.96908 -0.53236 0.49086 -0.28416 0.08004 -0.44204 -1.50672 -1.02868 1.44072 -0.40528 1.31056 -1.45708 -1.36282 1.95458 -0.208 -1.3853 0.33602 0.12662 1.47 -0.35636 -0.05962 0.02118 -1.79328 -0.51072 0.76198 -0.70304 -1.92878 -1.12924 0.6831 0.6442 0.84214 -1.95138 0.26554 0.46928 -0.28488 -0.17448 -0.2505 0.7362 0.36396 -1.5632 -1.56894 0.86294 -1.9882 -0.6107 0.54408 -1.29318 0.0064 -0.7472 1.79624 -0.50756 -0.22348 -0.69454 0.96314 -0.44692 1.50852 0.00974 -0.73908 -0.99844 0.95386 -1.21692 -0.51328 1.62252 0.28822 -1.20348 0.75258 1.26194 0.27738 0.1679 0.23946 1.96646 0.8652 1.59982 1.76266 1.03318 -0.78744 1.07742 0.00938 0.8174 0.9452 0.05514 1.29056 0.8184 -0.9255 -0.80936 -1.13232 -0.46334 -0.91452 -1.28754 0.96074 1.70536 -1.4354 -1.25208 1.78232 -0.41912 0.95006 -1.19146 -1.42528 1.21528 0.63672 1.28212 0.42944 1.83848 1.01334 1.82976 0.62724 0.17668 -0.4572 1.92994 -1.6595 -1.5689 -1.99964 0.44352 0.05636 -1.10128 -0.5075 0.66832 0.548 -0.90242 1.92884 -0.78408 0.17646 -0.4351 1.20714 0.53408 1.40186 0.11726 1.81748 0.18178 -1.91688 -1.596 0.5027 0.7941 -1.81932 1.66308 1.6257 1.45206 1.80504 -0.75528 0.56338 0.69098 1.99386 -0.84446 -1.62806 0.52964 1.705 0.12108 0.69156 0.8836 -1.91164 -1.71826 0.26054 1.47714 1.28644 -0.5792 -0.89434 -1.13548 -1.36868 -1.52074 -1.5721 -1.49004 0.3592 1.36102 1.8468 1.9365 -0.0716 -0.79374 0.26284 0.39326 -0.727 0.04044 0.86326 -0.69674 0.53418 -0.76216 -0.77796 -0.9791 -0.80704 -1.3225 0.82906 -0.71924 1.42568 -1.06614 0.09342 1.80138 0.14346 1.02554 1.50766 0.75986 0.5574 0.76118 0.82072 1.32578 -1.1832 0.0534 -1.66822 -1.36716 -0.69128 -1.56456 -1.39876 0.49874 1.85822 -1.70172 -0.3894 0.0479 -0.58154 -1.04274 -1.05706 0.04858 -1.80126 -1.91526 1.67154 1.95382 -0.34982 1.14714 -0.91574 -0.57468 -0.7324 -1.95458 -0.20698 0.90284 -0.3014 1.50296 1.83586 0.51182 1.21972 1.53748 -1.51356 -1.51924 -1.09394 -1.4108 1.71218 -1.2425 -1.92374 -1.66968 -0.57748 1.1274 1.32326 -1.9545 0.3829 -0.8138 0.0826 -0.54094 0.56112 0.47264 1.08962 0.8669 -0.32442 -0.33034 -1.03088 0.90644 1.36524 -0.7367 0.6424 -0.30162 -1.19988 -1.64474 -1.53758 1.09878 0.82816 -0.11902 -1.52918 -1.53782 -0.8575 1.60952 -1.62744 0.91404 1.87754 -0.68014 -0.2754 -0.04314 0.10204 -0.77792 -0.3375 -1.39318 -1.17976 -1.76048 -1.05816 -0.6368 1.42218 -1.64718 -0.1381 0.81676 1.51162 -0.0004 -0.77604 0.44888 0.1151 0.37786 1.53018 -0.93274 0.66498 -1.77552 -0.78268 -1.49808 -1.28464 -0.3796 -1.68346 0.95158 0.10008 -1.82442 0.98934 -1.6443 1.94506 1.01226 -1.1956 0.14314 1.60078 0.03558 -1.12186 -1.4394 1.41342 1.0992 1.67658 0.47534 -1.98094 -0.34596 -1.04946 1.1429 0.38556 -0.07634 -1.20108 -0.50034 -0.21034 -1.34268 1.29188 -0.12246 -1.99526 -0.83944 1.89144 1.19982 1.92296 -0.00976 1.26312 1.2466 -0.63652 -0.49382 0.8717 -1.50064 -0.8048 1.08082 0.8481 -1.9205 -0.5003 0.96958 -0.34616 1.56576 -1.4521 0.74198 -1.51716 1.06132 -1.33014 -0.82636 -1.43398 -1.82358 1.37664 -0.51034 0.56604 1.28772 1.72036 0.92684 0.13838 0.44022 0.14412 -0.32168 -1.36238 -0.57684 1.83606 -1.57004 -0.88814 0.51288 0.78234 -1.54884 -0.0523 1.30472 1.07556 -1.28058 1.99996 0.82008 1.00348 1.7261 -0.67036 -0.73724 -1.3223 -1.16988 0.52994 0.74932 -0.57578 1.0867 1.86996 1.8738 0.94014 1.58396 -1.22102 0.26834 -1.05758 -1.59214 -0.06464 1.82138 0.33194 -1.76934 1.7297 -1.88208 -0.3699 -0.03004 -1.72102 -1.78132 1.22594 -0.73872 -0.89916 0.6572 -0.5103 1.74594 -1.71578 1.99426 -0.40282 -1.12438 -0.2375 -0.686 1.14836 -0.11172 1.99894 -1.25064 -1.44 -0.76196 1.57274 1.19836 1.67218 1.67934 0.3623 0.66768 0.78404 -1.82144 -1.51186 0.77282 1.9964 -0.7883 1.63264 0.70774 -1.44886 0.31126 1.52338 -1.83708 -0.01416 -0.78726 0.3841 1.19418 1.29972 -1.21528 -1.32884 -1.93322 0.64536 -1.37864 -1.327 -1.55636 -1.7683 0.98032 1.55792 -1.60796 0.3972 -0.9194 -1.4535 1.5466 0.89898 0.43316 1.87316 -0.68888 1.2578 -0.4886 1.99784 -1.61454 -0.75704 1.05476 -1.23714 -1.1629 0.3649 1.83602 0.7635 1.34726 0.85394 -1.62146 1.89864 0.88744 1.00816 0.2955 -1.9777 0.16268 1.50556 -1.95552 0.5411 -0.98394 -0.34622 1.2406 -1.68948 1.47052 -0.23526 1.97678 -0.73606 1.55268 -0.66044 -0.92704 1.93638 -0.21168 -1.21314 -1.71432 0.82382 1.5906 1.85848 1.83588 0.07874 -1.60432 -1.7832 -1.78934 -0.4619 0.01866 -0.81806 -0.34096 -1.46158 -1.39654 0.41084 -0.28952 -0.19444 1.2133 0.97028 0.98178 0.73168 0.00236 0.74422 -0.70768 1.07236 0.38812 0.57208 1.21082 0.00768 -0.21902 -1.55784 0.1103 0.10056 0.72248 1.47168 -1.5683 0.30418 1.66966 -0.03426 0.14542 -1.20076 -0.55688 -0.29752 0.29186 0.28858 -1.89432 1.43834 -1.33954 -0.85818 1.62908 1.2674 -1.27694 0.81802 -0.19492 -0.446 -1.17854 -1.15364 0.56616 -1.23648 1.6906 -0.17642 -0.99402 0.20296 1.7571 -0.42352 1.07164 1.55848 -0.18406 -0.86822 -0.02088 1.40628 0.13588 -0.75244 -1.17516 0.18254 -0.71144 -1.70014 -1.54764 1.00374 0.96666 0.94978 -0.0884 0.06898 0.37858 0.51358 1.71908 1.29226 -1.70452 -0.83152 0.6502 1.58534 1.73802 0.90614 0.27512 -1.67818 1.79326 1.24014 -0.05462 -1.28464 1.21692 -1.4528 -0.3776 1.52868 1.1627 -1.7772 -0.8685 1.47548 -0.00682 1.62254 -1.73456 -1.47842 -1.60602 1.5624 -0.20314 -1.25918 1.91198 0.93698 1.82438 -0.75648 -0.1426 1.77936 1.26298 -1.35254 0.48156 0.39378 1.66824 1.22972 0.97242 -1.49698 0.38926 0.0484 0.35448 1.737 1.7868 0.41944 -0.67264 0.38292 0.90628 0.15578 -0.61794 -1.75642 -0.70092 -1.32706 -1.09698 0.12862 1.19134 -1.8244 -0.89072 -0.4657 -1.59016 -1.14374 1.41574 -1.29816 0.85796 1.43756 -0.7158 -1.02506 -0.9529 -1.2311 -1.44546 -0.09824 -1.49694 -0.50986 -0.76674 0.21702 0.1671 -1.34302 1.7756 1.3774 1.41344 -0.47096 -1.96932 -0.33142 1.86144 -0.3862 0.48026 0.59004 1.74442 -1.64706 1.20242 1.49264 0.12044 -0.56188 -1.90682 -0.467 0.63264 -0.34738 -1.12096 -1.65078 -0.86476 -1.64758 -0.66418 0.13736 -0.39878 1.48028 1.74052 1.80894 1.43966 0.686 1.9615 0.53436 -1.6 -0.26812 0.12084 0.88078 -1.17444 -0.25286 -1.15962 -0.75586 -1.0427 0.69414 -0.7695 -1.30586 -0.43352 -0.9381 1.78132 1.06494 -0.60304 1.70024 1.58436 -1.48552 1.77794 1.42636 0.24214 1.06102 -1.80678 -0.10668 -1.93264 -1.61884 -0.12674 0.67132 1.15036 -0.94158 -1.60856 -1.33196 1.09262 -1.61144 1.31726 -0.78762 -1.29258 -1.11452 -1.18778 1.63488 1.39192 0.44108 1.1219 -1.35834 -1.42912 -1.46068 1.69896 -1.32442 0.41196 1.7394 1.10162 1.44702 0.75642 -1.02636 1.48972 1.05982 0.68754 0.93224 -0.32022 -1.54078 1.37088 0.28598 1.54376 -1.82792 -1.6973 -1.10158 -0.03072 1.39274 1.74766 -1.81542 0.9928 0.69886 1.70224 -1.85696 -1.96558 1.80106 1.9391 1.55156 -0.67758 1.52802 -1.31782 -0.80232 -1.74066 1.41094 -0.04322 -1.05558 -0.08838 0.11896 -1.10116 -1.74258 0.52484 -0.22482 1.20568 -1.647 -1.736 -0.89406 0.8973 0.9498 -1.66106 1.67244 0.57004 -1.69378 -1.0721 0.22738 -1.2534 -1.59726 1.74476 0.61336 -1.0608 1.68864 1.1207 1.13596 -0.3902 0.15176 1.77704 0.1732 0.02662 -1.86718 0.2153 1.35828 0.9868 1.8503 0.4939 1.49022 -0.34028 -0.78238 1.49316 1.34924 1.87904 0.92848 -1.09624 -1.0107 1.2126 -0.35004 -1.04204 -1.62406 -1.73024 0.03196 0.66434 -0.44598 -0.80036 1.29824 -0.82026 -0.78982 -0.86328 1.38886 -1.83464 -0.94608 -1.42406 0.0908 1.0793 0.76448 -1.2655 -1.01934 -1.31436 0.71974 -0.18768 -0.56234 -1.43236 1.52896 -1.09044 -1.6045 0.73432 0.01072 0.78488 0.1314 1.92334 1.95984 -0.80622 1.40108 -0.09658 1.99466 -0.53154 -1.33874 0.15862 1.68854 0.67054 -0.7163 0.3535 0.27086 -0.94776 0.43924 0.77328 -0.21176 1.84918 0.13926 -1.74522 0.23194 -1.0357 0.23822 0.56362 0.83208 -0.5357 1.13536 -1.35554 -1.19588 -1.4361 1.16902 0.4253 1.0053 1.4655 -1.79448 1.86012 -0.82514 -1.81264 1.08462 -0.70398 -1.92676 0.82204 -1.0029 -1.95082 -1.4714 1.08416 0.29676 0.47672 0.4703 -0.37778 -1.05392 0.16152 -1.3544 -0.1234 -0.3086 0.99552 0.95556 -1.16256 1.07134 0.53036 0.33308 -1.98322 -0.64552 1.12462 1.50152 0.85838 1.34818 0.80536 -1.1533 0.57912 -0.40158 -0.39914 -1.23544 -1.15676 -1.81846 1.4099 1.9672 0.18904 0.035 1.74792 1.16752 -1.34136 0.17414 1.1819 1.61782 -0.99252 -0.22032 -0.87132 -0.22592 -0.79 -1.09544 -1.6626 -0.884 -1.44574 0.96292 -1.94356 -0.53246 -0.12754 -1.45236 -0.32978 1.73596 1.4914 -0.37 1.89118 -1.97622 1.3452 -0.60304 1.80236 -0.30494 0.2815 1.0283 -1.23348 0.80244 1.32342 1.36282 -0.32558 -0.15736 0.17256 1.5068 0.49404 -0.9213 0.21948 -0.96874 1.63668 -0.32544 -0.73898 -1.51514 -1.7897 -0.1197 -1.87492 -0.05766 0.09474 -0.35862 -1.63522 -1.98806 1.6761 1.02862 0.28294 1.15812 -1.72738 1.6105 -0.02268 1.43362 1.49258 0.1817 -1.86196 -0.46504 -0.20742 -0.80858 -0.7115 0.2138 1.29498 0.36564 0.0536 -1.4085 -0.48354 0.46014 -0.0067 0.21662 0.76276 0.86034 -0.81334 -0.07796 -0.43002 -1.66084 -1.06646 1.12512 0.43764 1.31146 1.6867 0.6458 1.55968 1.01444 1.23418 0.88352 1.10138 0.78586 -0.46132 -0.54502 -0.4635 1.72604 0.69226 1.01886 -1.4082 -0.08872 0.64734 1.72908 1.58776 1.77328 0.49548 -0.78404 -0.9647 -1.93368 -1.60466 -0.58774 0.42384 -1.94474 -0.13638 1.1534 -0.75186 -0.9871 1.0973 0.4811 -0.4953 0.6427 0.6541 -1.71948 1.13146 1.17008 -0.50988 0.73058 -1.07856 -1.46168 -1.3199 1.0367 -1.83194 0.16778 -0.66976 1.65868 -0.3082 -0.79554 1.53734 0.66436 -1.18402 0.47072 -0.38952 1.49336 0.61908 -0.1781 -1.54034 1.0461 -1.07778 0.38526 -1.79318 -1.4764 -1.37128 -1.78884 -0.48586 -0.0509 1.25716 0.36682 -1.40238 -1.58234 0.28314 1.76488 -1.7055 -1.50302 1.3862 -0.64138 -0.7558 -1.74396 0.725 0.20494 -0.53842 -1.95632 -0.52446 -1.56706 -0.3349 1.03398 -0.9678 1.16072 -0.33856 -0.69044 0.71042 0.444 -0.19166 0.53618 -1.66852 -1.8435 0.40796 1.95688 -1.34638 1.38114 -1.59848 1.32498 -1.39318 1.11966 -1.6188 -0.94892 0.1762 -0.8865 -1.89284 -0.73956 -1.4223 -1.7964 -1.6789 0.71728 -1.07634 -1.83686 1.04804 -1.80422 0.54604 0.48016 -1.08312 -1.90358 -1.29464 1.28804 -0.29276 1.83914 -0.04346 -0.24168 -1.83452 1.22968 0.95066 -0.7127 1.6024 1.34386 -0.1966 0.1366 1.43684 0.35586 -1.94828 -1.38598 -1.14224 1.9187 1.05356 -1.59902 -1.26816 0.5068 0.1229 1.09104 -0.3875 -1.83166 -0.89154 0.21218 -0.58916 0.17346 0.46426 -1.69492 0.6196 -0.68124 -0.58758 -1.45796 1.09454 -1.58214 -1.052 -1.12254 0.30978 1.2904 -1.39882 -1.02278 -1.08614 0.78706 -1.27372 -1.30784 -1.85596 -0.06798 -0.3776 -1.00184 -0.95714 -1.69562 0.5562 1.20044 -0.28376 0.86548 -1.85418 1.99714 0.12122 -1.26152 1.87644 -0.57106 -1.1204 -0.50168 1.51698 0.11806 -1.05656 1.50966 -0.48054 -1.56012 0.9707 0.17608 0.09118 -0.55856 -0.0944 -0.85434 0.17718 0.82542 1.44204 -1.58372 0.06812 1.4788 -1.44896 -0.53392 1.2622 0.31522 0.76256 0.21198 0.8258 -1.77094 -1.72796 -1.04916 0.75624 -0.4287 1.41394 1.17224 -1.90238 1.41552 1.27008 0.60822 1.7487 -1.36562 -1.58746 -0.81748 0.02744 0.86676 0.2132 -0.88526 -0.70518 -1.42944 -1.31172 -0.67962 -1.4449 -0.29508 0.67034 -1.60238 -1.12212 1.4135 0.23612 -0.79824 1.35548 0.73146 -1.31614 -0.7096 -1.83218 0.01986 1.41984 -1.48012 0.0275 0.73336 -0.95196 0.76164 1.55534 -1.16618 -1.33244 -0.56626 1.06626 1.36852 1.43864 -1.60458 -1.898 -0.3522 -1.08286 0.25522 1.54076 0.95164 -1.60428 -0.9487 0.90094 1.0163 0.29434 -1.3159 -0.8206 0.0683 1.25272 -0.98276 1.9505 1.12214 -0.98532 -1.99242 1.44692 -0.3067 1.08724 0.56144 1.52252 -0.07336 -0.23496 1.72128 -0.96266 -0.7634 -0.66864 -0.49064 1.97486 -0.15932 -0.90026 -0.29232 -0.18568 0.42862 -0.25038 -0.78382 -0.37588 0.36854 -0.38108 1.01118 -1.561 -1.63608 -0.41778 -0.51296 -0.41892 1.65032 -0.51678 1.9441 0.35384 1.43106 -1.0515 0.4087 0.56056 0.35568 0.7327 -0.3859 -0.81342 -1.32556 -1.98606 -0.33566 -0.31508 -1.21502 -1.29076 1.33872 -1.03146 -0.45496 1.20292 -0.47812 -0.6275 1.79848 0.38344 -0.92164 -1.92562 -1.92396 0.12244 1.15858 -1.65558 -1.722 0.14018 -0.61298 1.75338 -0.61274 1.15552 -1.45622 -1.10784 0.69104 1.1471 1.45862 1.6959 -1.8645 -1.97042 -1.05034 0.35458 1.95458 -0.67374 1.65402 1.65466 0.2435 -1.48152 -1.96396 -1.5526 1.96132 0.57158 0.55534 -0.9524 1.87012 0.3343 0.4845 -1.76676 1.5741 -0.73032 -1.09142 0.53424 0.62692 -0.08906 -1.70234 -0.37056 -1.83456 0.44654 0.2775 0.39792 1.74428 -0.17404 -0.76302 1.7689 -0.56624 0.72376 -1.8802 0.74978 0.4684 1.50392 0.1009 1.75952 0.10412 -1.0604 1.79204 0.81566 -1.39984 1.49618 -0.97796 -1.64328 -1.3374 1.22536 -1.8782 0.86582 1.12098 0.4154 1.72766 0.04362 -0.9714 0.02456 1.4892 1.79694 0.24096 -0.36188 -1.2969 0.13536 -0.66542 0.78644 1.61382 -0.85366 0.2145 1.7347 -0.23516 -1.92982 1.16876 -0.85094 -1.56988 -0.3127 0.1189 -0.51802 -0.97072 -1.33074 -0.5755 -0.07924 -0.2647 -1.4811 -0.29584 0.37116 -1.3521 1.01834 0.9961 0.07616 -0.27882 -1.55618 -1.9853 0.30394 -0.48146 -1.534 -1.76352 -0.34332 -0.51894 -0.18628 1.88236 1.87568 0.14222 -1.07212 -0.53948 -1.94838 1.69704 -0.02808 -0.01472 0.04036 1.92472 1.5466 -1.00472 0.81994 0.37244 -1.67982 1.9028 -1.8158 -1.56882 0.96342 0.13852 -1.40454 0.15024 -1.86166 0.01352 -0.67898 -1.94454 -1.1352 1.63052 1.9641 -0.5492 -1.5378 -1.9991 1.21554 -1.2131 -0.4512 1.77854 -1.1926 1.05838 -0.34748 0.67412 0.67598 -0.96696 -1.04428 0.15144 0.17456 1.44852 -0.80524 1.9315 -0.80166 -1.43682 -1.94772 -0.77452 0.51764 1.67518 1.28688 -0.27458 0.00388 0.91436 -1.8605 1.99616 0.83222 0.34138 0.02118 -1.41046 1.4625 1.5457 -0.22028 0.03302 -1.17638 -1.45836 1.0954 -0.8742 0.77864 -1.71072 1.46254 1.5624 -0.80548 -0.01312 1.83894 -0.12752 0.86068 -1.0667 0.43218 1.40092 -0.60148 1.2367 -0.51676 1.54036 -0.5 1.82338 -0.22534 -0.10696 0.91888 -0.34364 1.84188 -1.66542 1.01186 -1.63382 0.68892 0.62886 -0.33122 1.16172 1.10786 -1.34332 -0.53222 0.92648 0.44682 0.22834 -1.78738 1.72446 -1.4691 -1.98302 1.0754 0.267 -0.86454 -0.10108 1.9092 0.62026 1.19102 -1.77422 0.06244 0.23936 -1.467 -0.99976 0.76698 -0.79766 0.2069 -0.87772 -1.5526 1.12796 -1.44948 -1.17166 1.29796 -0.78992 -1.79632 1.69894 -0.17458 -0.22452 -0.06688 0.47204 -1.21012 1.25488 1.32772 -0.22446 1.29246 -0.24234 0.81762 -1.34814 -1.47912 -0.05704 -1.57462 -1.6084 -0.82484 0.46312 -1.4336 1.42942 0.62872 0.10762 -0.1103 -1.73458 -1.28044 -0.67546 -0.21906 -0.91534 1.17392 1.70256 -1.28098 -0.13468 0.06332 -0.56348 -1.92652 0.13372 -1.31288 -1.28104 1.4359 0.80754 0.91164 0.75746 -0.29224 -0.9907 0.38472 -0.44496 -1.39862 0.50444 0.70258 -1.8411 1.65316 -1.16518 -1.35632 -1.22574 -0.92978 1.7178 1.88576 -0.33232 -0.24752 1.46532 -0.52606 0.24304 0.6016 1.5899 -0.96136 -1.0477 0.58854 1.08436 -0.13054 0.29164 1.70448 -1.54382 1.02722 -0.24116 -1.48224 1.87124 -1.60016 -1.1196 -0.1193 1.16452 -1.27684 1.2765 0.38208 1.01502 -1.95062 1.88418 -0.77838 -0.71096 -1.6337 -1.64432 0.24794 1.01942 0.96648 1.97058 -0.6664 -1.33142 -1.84414 0.11786 1.97064 -0.56758 0.96648 -0.48298 -1.36504 -1.58908 -1.54558 1.19698 -0.1924 0.88482 -1.74352 -0.80104 1.31794 1.00536 1.78698 0.58794 0.74216 0.19744 1.86096 1.58658 1.5405 -0.84556 1.73066 -0.7005 0.71806 -0.48622 -1.9563 -1.31496 -0.51032 1.05662 -1.57476 1.84918 1.71536 0.28198 -1.09026 -1.55174 -1.80198 1.20614 0.64152 -0.02884 0.56058 -1.14762 0.07658 0.3368 -0.96744 1.16732 -0.96226 1.24258 1.23242 -1.62146 -0.77158 1.13616 -1.19238 -1.43072 0.57734 0.81618 -0.29826 -0.33302 0.79894 1.12118 -1.63278 1.76936 -0.2927 0.75096 0.45956 -1.5927 -0.5164 -0.96406 0.0956 1.3387 0.3899 1.536 1.5559 -0.11022 -0.97402 0.68812 1.07784 -0.60616 -1.73308 1.55074 -1.52396 -1.1989 -0.54738 -0.88886 -0.1718 -0.71092 1.04154 1.14608 1.70464 0.09356 0.74652 0.53104 -1.59282 1.52034 -0.39606 0.7912 1.14508 1.32562 1.87724 -1.37474 -0.3163 -1.99822 -0.85302 1.8937 -0.01138 -0.3076 1.58024 0.91782 1.54328 1.8892 1.73832 -1.6921 -0.59996 1.2482 0.64512 1.5661 0.31674 -1.40386 -1.07726 -0.82954 -0.63426 0.3375 -0.66872 -1.99796 -1.40782 1.85886 1.12882 -1.96446 -1.71416 0.23476 1.54302 1.75222 -0.4834 1.64166 -0.13298 -1.52576 1.65412 -0.4411 1.12252 -1.8642 -0.29116 -1.87628 1.60278 1.81544 0.35522 0.43862 -0.869 -0.84104 -1.1248 0.03784 -1.52554 0.54892 0.40288 0.70676 1.2595 1.3462 0.6705 -0.85506 1.30152 0.12976 0.56356 1.54468 0.63196 -0.6915 -1.65382 1.9861 0.79128 -0.24162 -0.61882 0.17088 1.91196 -1.24216 -0.52638 -1.21308 1.46162 -0.758 0.73472 -0.48416 -0.3532 0.15356 0.72784 -0.03016 1.16034 0.248 -0.2397 -1.0059 -0.65068 0.80984 -1.61786 0.52082 -0.19626 0.50918 0.25738 -1.00724 -0.42778 0.16414 -0.50826 0.29426 1.46926 0.3691 1.64732 1.37262 1.77778 0.70432 0.12586 1.71662 -0.92472 -0.38406 1.24512 0.0175 -1.38854 -0.84534 1.49812 -0.85206 1.4019 -1.40628 -1.61566 -1.61606 1.5482 1.35206 0.63678 1.98144 -0.62378 0.86036 -1.63286 -0.59724 0.50046 -1.51914 1.21468 -0.70252 1.75026 -1.55956 0.04658 1.2777 0.50624 1.35522 0.19206 -1.54398 -1.87786 0.04368 1.9188 1.73336 1.5647 0.36464 -0.09066 -1.35094 1.01106 -0.89058 -0.40916 -1.0215 -0.2202 -0.89222 0.74606 -1.88282 1.7323 1.66586 -0.00362 -1.08258 0.33716 -1.27692 -0.78384 -1.4056 0.40124 -0.05236 0.26722 -1.829 1.10808 -1.7796 0.6417 -1.95334 0.40164 1.9283 -1.7382 -0.49548 1.43326 0.9034 -1.58328 1.01158 -1.049 1.71806 0.3917 -0.60898 0.89 0.23616 1.51766 0.64246 -0.30562 -0.07062 1.54538 0.84036 -0.64116 -0.72536 0.11884 1.39904 -1.17248 1.32438 -0.6679 -0.38294 -1.9026 -0.26168 -0.45902 0.79064 0.4677 -0.45582 0.57686 -0.14852 -1.15404 -0.75846 -1.31608 -1.1711 1.24912 0.9848 1.9664 0.6191 0.33136 1.82512 -0.2956 -1.83494 0.42996 1.62474 0.47662 -0.82132 -1.325 1.80134 0.68782 -0.873 -0.19056 -1.13724 -1.32302 -1.89114 -0.42872 0.79966 0.91416 1.21266 0.17706 1.60106 0.9233 -0.65418 1.6593 -0.33384 -0.20352 -1.54716 -0.75454 0.71648 1.59122 0.37402 -0.69178 1.49974 -0.93234 -0.99762 -0.38002 -0.83296 1.1871 -1.52736 1.2617 -1.6377 0.11562 0.66636 0.85634 -0.55016 -1.95796 1.9832 -1.43546 -1.42496 1.2576 -1.55054 -1.92936 -1.24628 -1.55798 0.7303 -1.0982 -1.64144 -1.49424 -1.23622 -0.17174 0.02376 1.9332 -0.0415 -1.7899 -1.6862 1.81876 0.30968 1.79508 1.6746 0.48888 -1.59576 1.61256 0.4415 1.95096 -0.18526 -0.51458 -1.74308 0.48946 0.20946 -0.37588 -0.18672 1.8883 -1.3296 1.45888 1.14176 0.30336 -1.4455 1.05772 0.33736 -1.89942 -0.7386 -1.33872 0.4233 0.64438 -0.76206 -1.57092 -1.8429 0.45626 0.54254 -0.36894 -0.26766 -1.81188 -1.11008 0.08616 0.85336 -1.16312 -0.37086 -1.19724 0.62726 -0.75512 -1.35514 -0.13092 0.29628 1.13964 -1.98504 0.13544 1.26278 0.49962 -0.93166 0.01042 1.26426 1.25196 -0.54228 1.57402 -0.77254 1.74296 -0.81074 1.7971 0.71302 -0.61434 -0.6717 -0.19934 1.9469 -1.42162 1.89178 -0.37486 0.99836 0.58424 -1.39448 0.30486 -1.32578 1.75174 -1.56956 -0.90754 1.4557 1.39232 0.36498 1.28364 0.6294 1.10248 -0.8337 -0.34254 -0.61208 -1.46788 0.3668 0.48036 0.7304 -0.6841 -1.1413 1.11038 1.64762 -0.16798 0.08972 -0.7584 1.91656 0.8442 -0.07784 -0.28212 1.24786 0.38982 1.13708 -1.32146 -0.1059 0.76348 -0.66382 1.5125 0.8215 -1.63476 -1.8817 -0.16488 -0.62202 -0.0944 -0.83232 1.61052 -1.78064 1.67082 -1.58726 1.41478 0.21158 -0.5886 0.89474 -0.31756 -0.27446 -0.50488 0.65722 0.8422 -0.338 1.18884 -0.82412 -1.3885 -0.52986 -1.35292 -1.96422 -1.76042 1.9654 -1.51226 1.76336 0.62444 1.19594 0.85428 1.65884 0.36514 -0.8024 1.02356 -0.2676 -0.25798 -1.33566 0.4792 -0.97776 -1.75426 0.43144 0.50738 1.5063 -0.16356 1.49506 -0.54538 0.953 -1.60102 -1.89376 0.49398 -0.1495 1.63266 1.18934 1.5068 -1.63502 -1.26912 -0.13018 -1.07192 1.64512 1.7316 1.90746 -0.2117 -1.78116 1.35728 -0.24746 -1.4704 -1.51516 0.70196 1.7627 -1.08482 0.17786 1.1828 0.1666 -1.06986 0.18004 0.96276 -0.85924 0.19932 -1.25548 0.51076 -0.46526 1.36436 0.51818 -1.29806 -0.99622 -1.97382 1.1758 -0.30922 0.65856 -0.9985 1.8722 1.73624 0.83406 -0.70938 -1.66174 -1.35686 0.28854 -1.85098 -1.91612 0.96546 -1.03024 -1.74898 -1.36374 1.19104 -1.68388 0.66768 -0.53394 0.25918 -0.67326 -0.59778 1.59012 1.67048 -1.81644 -0.86564 0.19684 -1.45692 1.27012 1.51688 0.35348 -0.27364 -0.64622 0.79406 -1.9566 0.7612 -0.95702 0.4416 -1.65128 -1.12404 -1.40814 -0.4631 -1.32578 -1.00828 0.11544 -0.22094 -0.45902 -0.71628 0.7281 1.32712 -1.61418 0.3361 0.56012 -1.0834 -1.63596 -0.74366 -0.58862 -1.7983 1.55268 -0.3003 1.09378 1.79518 -0.62698 0.77164 -0.20446 0.35752 -0.38834 0.1757 -1.79238 -0.12494 0.14806 -0.1255 0.31896 -1.40992 -0.3327 1.78982 -1.272 0.59838 -0.44496 0.4045 1.59336 -1.08688 -0.18502 1.94298 1.13104 -1.98262 1.16622 -1.56282 0.43 0.78704 -0.6502 -1.15872 0.88892 0.649 -0.21782 -1.20332 -1.83612 -0.09744 1.19618 1.7579 -1.83262 1.36528 -0.9239 -1.14696 -0.82094 0.51132 -1.98288 -0.02998 1.24928 -1.4258 -1.47166 0.81298 0.64664 -0.85184 0.10634 0.18064 -0.01982 -0.56998 1.6406 -0.22184 1.19128 -0.82552 1.7457 -0.57944 -1.47476 -0.69322 0.98556 1.66994 0.8079 -1.1294 1.62592 0.82542 1.4022 -0.20288 0.2371 -1.77194 1.837 -1.03806 0.76392 -1.3803 -1.99976 -0.80382 -0.81212 -0.14422 0.2587 0.53682 0.19462 -0.25926 -1.45734 1.60152 0.8165 0.73386 0.26196 -0.582 -1.4334 0.9929 1.61958 1.65552 -1.67222 1.87228 1.52576 -1.65282 1.16212 0.37866 -1.05174 -0.2971 1.41078 -1.1505 0.91106 -0.12174 0.34362 -0.98176 0.6661 1.02088 -0.22208 -0.0049 1.98658 -0.1101 1.16186 -0.01158 1.11214 -0.7552 1.12726 1.20636 0.0541 -1.10794 -1.43654 -0.01582 -0.76948 1.24418 -1.39152 -1.81852 -1.36586 0.89162 -0.90606 1.65304 0.03404 0.80922 -1.0925 -1.44422 1.12602 -0.6549 0.82968 0.66438 -0.74212 -0.20176 -1.93226 1.24106 1.64008 0.5715 1.00632 -0.27032 -1.50634 0.33936 -1.23988 0.28094 -0.7801 1.95574 -1.67544 -1.94382 -0.86058 -0.57342 1.61898 1.66686 -0.73022 0.16214 -1.61592 1.77446 -0.07308 0.12486 1.96104 -0.82264 -1.01762 0.60606 0.86238 -0.23296 0.4151 -1.53712 -0.05152 -1.74416 -1.17568 -0.67762 0.3441 0.659 -1.76214 0.8788 1.6878 0.29476 0.1315 0.81298 0.43312 0.0783 0.48466 -1.1487 1.41636 -0.30058 -0.2739 1.16282 -0.60542 1.09574 -0.58584 -1.70674 -0.68588 -0.4848 0.61046 -0.17104 -1.25272 -0.11242 1.47698 0.99308 1.86584 -1.24298 0.00726 -1.9313 1.23186 1.81702 1.08248 -1.04002 1.429 0.39098 0.47432 0.0893 -0.35704 1.11394 1.69174 -0.11728 0.6927 -1.86894 1.1897 -0.83706 -1.95906 1.25228 1.06828 0.85272 0.84168 -1.46896 -1.99174 -1.17112 -1.95148 0.4089 0.1315 -0.19978 0.81778 1.13842 0.94714 -0.3239 -1.92898 0.41594 -0.38056 1.59932 0.61694 -1.2339 1.73382 1.0036 -1.3786 1.32484 0.6503 0.20018 -0.17654 -1.27228 1.13626 -1.38378 0.69788 0.31402 0.95214 -1.38646 -0.31128 1.15452 -0.773 0.7008 1.80876 0.25358 -1.08854 -0.97992 -1.74054 -1.3259 1.27152 0.50454 -1.83322 0.01564 -0.1883 -1.72326 0.51162 1.59038 0.546 1.27482 1.51846 -1.93532 0.23132 1.51684 -0.11926 -0.19194 1.00542 1.32078 1.27264 -0.48472 1.10234 -1.49624 -1.81372 0.3336 1.98736 -1.08352 -0.81106 0.91862 1.79054 -1.63666 1.85464 0.71372 0.74412 1.9473 -1.94668 -1.85426 0.0334 1.80782 0.91602 0.8595 0.1046 1.10748 1.768 1.6773 -0.90494 -0.37596 -1.0768 -0.28984 -1.17994 0.0007 1.24816 -0.40934 -0.25256 0.74418 -0.42824 0.76774 0.31826 -0.16682 0.02826 -1.1048 1.08778 1.59298 1.79982 0.18266 1.42016 -1.19526 -0.67946 0.284 1.46352 -0.26502 1.77466 1.1976 -1.59524 -1.58688 1.41068 1.99484 -1.26426 -1.49104 -0.76148 0.3633 1.99328 1.47878 0.09854 -0.21016 -0.88484 0.26398 -1.03374 1.99994 0.37554 -0.71444 -0.17252 -1.7998 -0.22046 0.0208 1.77172 0.5116 1.30766 -0.41468 -1.74286 -1.70968 -1.6965 0.63918 0.24662 1.08508 0.22604 -1.94946 -0.81412 -0.66568 